id,vec_0,vec_1,vec_2,vec_3,vec_4,vec_5,vec_6,vec_7,vec_8,vec_9,vec_10,vec_11,vec_12,vec_13,vec_14,vec_15,vec_16,vec_17,vec_18,vec_19,vec_20,vec_21,vec_22,vec_23,vec_24,vec_25,vec_26,vec_27,vec_28,vec_29,vec_30,vec_31,vec_32,vec_33,vec_34,vec_35,vec_36,vec_37,vec_38,vec_39,vec_40,vec_41,vec_42,vec_43,vec_44,vec_45,vec_46,vec_47,vec_48,vec_49,vec_50,vec_51,vec_52,vec_53,vec_54,vec_55,vec_56,vec_57,vec_58,vec_59,vec_60,vec_61,vec_62,vec_63,vec_64,vec_65,vec_66,vec_67,vec_68,vec_69,vec_70,vec_71,vec_72,vec_73,vec_74,vec_75,vec_76,vec_77,vec_78,vec_79,vec_80,vec_81,vec_82,vec_83,vec_84,vec_85,vec_86,vec_87,vec_88,vec_89,vec_90,vec_91,vec_92,vec_93,vec_94,vec_95,vec_96,vec_97,vec_98,vec_99,vec_100,vec_101,vec_102,vec_103,vec_104,vec_105,vec_106,vec_107,vec_108,vec_109,vec_110,vec_111,vec_112,vec_113,vec_114,vec_115,vec_116,vec_117,vec_118,vec_119,vec_120,vec_121,vec_122,vec_123,vec_124,vec_125,vec_126,vec_127,vec_128,vec_129,vec_130,vec_131,vec_132,vec_133,vec_134,vec_135,vec_136,vec_137,vec_138,vec_139,vec_140,vec_141,vec_142,vec_143,vec_144,vec_145,vec_146,vec_147,vec_148,vec_149,vec_150,vec_151,vec_152,vec_153,vec_154,vec_155,vec_156,vec_157,vec_158,vec_159,vec_160,vec_161,vec_162,vec_163,vec_164,vec_165,vec_166,vec_167,vec_168,vec_169,vec_170,vec_171,vec_172,vec_173,vec_174,vec_175,vec_176,vec_177,vec_178,vec_179,vec_180,vec_181,vec_182,vec_183,vec_184,vec_185,vec_186,vec_187,vec_188,vec_189,vec_190,vec_191,vec_192,vec_193,vec_194,vec_195,vec_196,vec_197,vec_198,vec_199,vec_200,vec_201,vec_202,vec_203,vec_204,vec_205,vec_206,vec_207,vec_208,vec_209,vec_210,vec_211,vec_212,vec_213,vec_214,vec_215,vec_216,vec_217,vec_218,vec_219,vec_220,vec_221,vec_222,vec_223,vec_224,vec_225,vec_226,vec_227,vec_228,vec_229,vec_230,vec_231,vec_232,vec_233,vec_234,vec_235,vec_236,vec_237,vec_238,vec_239,vec_240,vec_241,vec_242,vec_243,vec_244,vec_245,vec_246,vec_247,vec_248,vec_249,vec_250,vec_251,vec_252,vec_253,vec_254,vec_255,vec_256,vec_257,vec_258,vec_259,vec_260,vec_261,vec_262,vec_263,vec_264,vec_265,vec_266,vec_267,vec_268,vec_269,vec_270,vec_271,vec_272,vec_273,vec_274,vec_275,vec_276,vec_277,vec_278,vec_279,vec_280,vec_281,vec_282,vec_283,vec_284,vec_285,vec_286,vec_287,vec_288,vec_289,vec_290,vec_291,vec_292,vec_293,vec_294,vec_295,vec_296,vec_297,vec_298,vec_299,vec_300,vec_301,vec_302,vec_303,vec_304,vec_305,vec_306,vec_307,vec_308,vec_309,vec_310,vec_311,vec_312,vec_313,vec_314,vec_315,vec_316,vec_317,vec_318,vec_319,vec_320,vec_321,vec_322,vec_323,vec_324,vec_325,vec_326,vec_327,vec_328,vec_329,vec_330,vec_331,vec_332,vec_333,vec_334,vec_335,vec_336,vec_337,vec_338,vec_339,vec_340,vec_341,vec_342,vec_343,vec_344,vec_345,vec_346,vec_347,vec_348,vec_349,vec_350,vec_351,vec_352,vec_353,vec_354,vec_355,vec_356,vec_357,vec_358,vec_359,vec_360,vec_361,vec_362,vec_363,vec_364,vec_365,vec_366,vec_367,vec_368,vec_369,vec_370,vec_371,vec_372,vec_373,vec_374,vec_375,vec_376,vec_377,vec_378,vec_379,vec_380,vec_381,vec_382,vec_383,vec_384,vec_385,vec_386,vec_387,vec_388,vec_389,vec_390,vec_391,vec_392,vec_393,vec_394,vec_395,vec_396,vec_397,vec_398,vec_399,vec_400,vec_401,vec_402,vec_403,vec_404,vec_405,vec_406,vec_407,vec_408,vec_409,vec_410,vec_411,vec_412,vec_413,vec_414,vec_415,vec_416,vec_417,vec_418,vec_419,vec_420,vec_421,vec_422,vec_423,vec_424,vec_425,vec_426,vec_427,vec_428,vec_429,vec_430,vec_431,vec_432,vec_433,vec_434,vec_435,vec_436,vec_437,vec_438,vec_439,vec_440,vec_441,vec_442,vec_443,vec_444,vec_445,vec_446,vec_447,vec_448,vec_449,vec_450,vec_451,vec_452,vec_453,vec_454,vec_455,vec_456,vec_457,vec_458,vec_459,vec_460,vec_461,vec_462,vec_463,vec_464,vec_465,vec_466,vec_467,vec_468,vec_469,vec_470,vec_471,vec_472,vec_473,vec_474,vec_475,vec_476,vec_477,vec_478,vec_479,vec_480,vec_481,vec_482,vec_483,vec_484,vec_485,vec_486,vec_487,vec_488,vec_489,vec_490,vec_491,vec_492,vec_493,vec_494,vec_495,vec_496,vec_497,vec_498,vec_499,vec_500,vec_501,vec_502,vec_503,vec_504,vec_505,vec_506,vec_507,vec_508,vec_509,vec_510,vec_511
TEST_000,-0.0128522795,-0.053076956,-0.022830153,-0.027986102,0.06957861,-0.029558022,0.03573404,0.013880207,0.04602899,0.05413912,-0.109644935,0.05475167,0.015379862,-0.057147514,0.024191791,0.036561266,-0.016771479,-0.038739674,-0.022938382,0.011224904,-0.054868974,0.0022158644,-0.04171473,-0.0063730837,0.06369571,-0.01691106,0.02428459,0.012912888,-0.048578925,0.015659072,0.001777496,-0.0376539,-0.023245467,-0.004102549,0.0678651,0.011453456,-0.051594146,0.020029457,0.06199052,-0.0030127738,0.010525272,0.012295722,0.0075292387,0.011006004,-0.0928377,0.04983025,0.0403677,-0.058272194,-0.06615155,-0.047246397,0.101448834,0.025376288,0.057612345,0.017001737,0.05126932,-0.041059967,0.033011016,-0.035413865,0.03685197,-0.016160753,-0.038126677,-0.06314822,0.026511354,-0.0034166016,-0.0054541198,0.014376605,-0.0074469326,0.031834163,0.03596423,0.03634455,0.04912067,0.046199188,0.0805074,0.03266458,-0.028221972,0.03668926,0.02463431,0.07716069,-0.00591957,0.06180565,-0.018561052,-0.06789465,0.05377445,-0.035299018,0.0025679357,0.025082363,-0.0038345105,0.021955669,-0.05000739,0.061661314,0.0029837447,-0.005936005,0.03292758,-0.0374081,0.029630328,0.01996388,-0.024792336,0.038733076,0.014746786,-0.0041799336,-0.024044905,0.034467675,0.014424539,0.070708424,-0.06446285,-0.021679737,0.025181483,-0.042557284,-0.07420878,0.009449726,0.05388773,-0.0261559,-0.040833335,-0.06655983,0.02799114,-0.018151518,0.027281756,-0.03260324,-0.03796527,-0.019827185,-0.0042683613,-0.024447614,-0.028913334,0.046756707,-0.008839703,-0.002962481,-0.046058685,-0.009929355,-0.05783432,0.027027791,-0.027343221,0.007738172,-0.044022348,-0.10930802,0.03430674,-0.03763498,-0.00747676,-0.011090931,0.0069701746,-0.000687695,0.0153619675,-0.07033163,-0.029828567,-0.010590143,-0.07990663,0.02333251,-0.016392298,0.06207518,0.0029042552,-0.020182481,0.045982406,0.07462409,-0.0036849515,-0.061540954,0.014808913,-0.048537027,-0.044599473,-0.052128866,0.085089885,-0.0016957747,-0.01833178,0.022858495,-0.041515563,-0.039726224,-0.05947831,-0.009591563,0.028904356,0.037912443,-0.023423877,0.02673038,0.009073094,0.0027509038,0.07522708,-0.047741536,0.040819902,-0.008019353,0.020748125,-0.033643212,0.007399986,0.048355084,0.07589807,-0.086395405,0.016152972,0.011192065,-0.03689268,-0.039374985,0.0070473426,-0.01408401,-0.0403615,0.0633145,0.033614885,-0.018062035,0.0025087562,0.01479186,-0.0034137636,0.0068852026,0.04927548,0.06627901,-0.057982054,0.011132859,0.010063996,0.06583969,-0.0048910785,-4.495913e-05,0.048107624,-0.013430652,-0.039338835,0.029771954,-0.04562528,0.047516685,0.0051381267,0.15000725,-0.052742653,-0.09463327,-0.044855572,-0.012675815,0.066483915,-0.08990523,-0.025465326,-0.023932837,0.029256925,-0.010638004,0.02675982,0.03171303,0.008081905,0.008649889,0.0359943,-0.06917732,0.057811238,-0.060927648,0.051344287,0.051535275,0.018149106,0.030248646,0.012216647,0.09049506,-0.0014240202,0.027693242,0.029701464,0.057912074,-0.01411307,0.0057686362,0.04933244,0.0028775688,-0.017064648,-0.037850913,-0.0033211857,-0.011381187,0.09235815,0.00056587154,-0.05383691,0.06282501,0.0103512695,0.009321741,-0.01605156,0.039066885,0.07846281,-0.010015331,-0.023186263,-0.002611952,0.013954184,-0.040541723,-0.0034223741,0.013010203,-0.057823967,0.043524772,0.008202291,-0.064874336,0.015527084,0.016533287,-0.012043542,-0.08886962,-0.06319109,0.00016667368,0.013124074,-0.00033202092,-0.0005944545,0.0045110546,0.052002776,-0.086991675,0.050752066,-0.025742365,-0.012689783,-0.07039893,0.0710287,-0.0098868795,0.00299499,-0.0021522394,-0.029705979,0.014585288,0.0033158339,0.022736944,0.04116567,0.026208917,-0.03743454,0.04780119,-0.0215561,-0.016689118,0.0017913815,-0.056909926,-0.010191528,-0.008040379,0.021742867,0.05109162,0.010388005,-0.06229563,0.01609829,0.020371938,0.078554966,0.034296736,-0.035269074,-0.030335585,0.017705623,0.028345669,0.02766338,-0.05440226,-0.029259821,-0.0044182898,0.031720918,0.043723654,0.09684748,0.034625094,0.04609895,-0.041962102,-0.06820981,0.042753946,0.0010160579,0.011593405,-0.021399602,0.025498295,-0.025292674,-0.040329777,0.012023515,-0.03193416,-0.06860587,-0.057834253,0.010458421,-0.048485506,0.0047047697,-0.025104076,-0.013556003,4.2360858e-05,-0.060449414,0.007064583,0.0030897753,0.016247906,0.008696265,-0.052747417,-0.0012754155,0.018632786,0.0025036074,-0.055743884,0.015927376,-0.04226588,-0.01868278,0.01418901,-0.0711865,-0.009760045,-0.004875468,-0.007601709,0.044642836,-0.0068977154,-0.057086635,-0.046413597,0.054836903,0.027645374,-0.056971665,0.05837692,-0.06424295,0.060766537,0.02109112,-0.00010947138,0.055983614,0.04659118,0.015741471,-0.049041566,0.00541843,0.02327366,0.015171773,-0.013419832,-0.011943674,0.023378938,0.05485821,0.01985407,0.0011706281,0.012473738,-0.011336653,0.0260719,0.02824437,-0.02610555,0.030138342,2.2598077e-05,0.05744377,-0.012383599,-0.060486592,0.08691768,0.055960156,0.05451887,0.049924918,0.062010657,0.05806167,0.012872783,0.0063538975,0.046977293,-0.023224227,0.050287187,0.0548995,0.024099326,-0.0026154246,0.019484574,-0.035355363,0.002930659,-0.04120105,0.017184163,-0.06903884,0.019303437,0.06710739,0.06416856,0.034697164,-0.020723443,-0.00694884,0.009938067,-0.044638988,0.03323406,0.016901962,0.07600734,-0.020053599,0.04117061,0.035790794,-0.00546038,-0.03138829,0.0058597643,0.036159787,-0.034298703,0.04317415,-0.005446398,0.00822034,-0.0008377347,0.060273524,0.008081996,-0.048115976,-0.061039936,-0.03952479,0.007595352,-0.026865525,-0.003031652,-0.055250708,0.0013439484,0.07518814,-0.0023600142,-0.011852411,0.010671661,0.031088473,0.027568616,0.045247093,-0.05313469,-0.052139897,0.069138594,0.011674221,-0.018211635,0.048058238,0.011304059,-0.021332683,0.056767844,0.060337555,0.10644705,-3.7351856e-05,-0.011037729,-0.026403293,-0.017380958,0.0011432777,-0.020281395,-0.028819565,0.02039646,0.049861934,0.014929418,-0.01233225,0.013042687,-0.04546518,0.017266601,-0.034616187,0.071185894,0.04521884,0.074244626,-0.013436167,0.04702974,0.018021895,0.008493382,-0.02658173,-0.004267485,0.046423726,0.01913366,-0.03595472,0.012359075,0.06775957,0.035841987,0.016805356,0.030407568,-0.04310839,-0.086730964,-0.024880003,0.0058833687,0.006788064,-0.0012740397,0.05415063,-0.042950276,-0.03243221,0.04190045,-0.0056280466,-0.015396121,-0.061843593,0.019704236
TEST_001,0.015817437,0.015109215,0.015256957,-0.014393137,-0.018782165,-0.022700045,0.029729608,0.05661959,-0.001950625,0.002534964,0.02060457,0.00652577,-0.043364637,0.035330515,0.028490596,0.036823325,-0.00673807,0.017532714,-0.06507196,0.018198762,-0.042111155,-0.060684074,-0.04861582,0.01464672,-0.046719387,0.03065021,0.014426035,-0.017723689,-0.0027751415,0.07300215,0.012678473,0.049258504,0.028682848,-0.044020515,-0.004874374,-0.02486908,-0.035335645,-0.0061365105,0.059285365,0.07940349,-0.03617733,0.0041644564,-0.016784607,0.02483601,-0.09124516,0.008661005,0.029178808,-0.10476708,0.08887815,0.020590654,0.05271167,0.08490265,0.02017933,0.0083780475,0.043858983,0.029235095,0.038473595,-0.0039857063,0.015886983,-0.009842878,0.055825096,0.011833507,0.025916237,-0.04511058,0.01913647,0.08517274,-0.005865633,0.056682162,0.0021995516,0.004485786,-0.008708672,0.0017534398,-0.019995866,-0.017494768,0.00928534,-0.014606053,0.058113467,0.0443185,-0.063229695,0.082503125,-0.036264587,-0.059232935,0.06738382,-0.014665029,0.03197006,0.035148293,0.0031134544,-0.026340045,0.03917302,0.05027777,-0.028456854,-0.027291441,0.015825931,0.07655829,-0.09232043,-0.028273344,0.09789693,-0.018423678,0.01711533,-0.04290129,-0.010678485,-0.0065857517,-0.011048667,0.023013916,-0.056416575,0.005876427,0.021880304,0.067087874,0.022076776,0.028448414,0.0067956788,-0.053860698,0.025299318,-0.0460755,0.048187178,-0.0068319524,-0.03106463,0.011700651,-0.036578994,-0.03341451,0.08399331,-0.0010566098,-0.03378274,0.03240481,0.064292505,-0.0688741,-0.0046509234,-0.009792176,0.03670709,0.016815826,-0.042152744,0.03980071,0.043200806,-0.019461812,-0.03136583,-0.010401649,0.027959343,-0.046343196,-0.04027435,0.0507626,-0.01283332,-0.015038879,0.004593788,-0.03860201,-0.044663683,0.02746076,-0.0043381,-0.0486514,-0.028773094,0.009665001,-0.04023651,0.057894513,-0.019543149,0.01821376,-0.04703245,0.017078135,0.007935651,0.0064110844,-0.052095734,-0.03207008,-0.030205451,0.0031742053,-0.04635394,0.011590057,-0.03898566,0.005371854,-0.046171658,0.08278276,-0.020591367,-0.06599831,-0.016858008,-0.041486923,0.037583787,0.034021474,-0.027867515,0.025279563,-0.058727503,-0.00025246618,-0.03633622,0.022663798,0.024631087,-0.07358833,0.07510354,0.01690332,0.010330544,-0.010384101,-0.023925904,0.016622465,0.016298737,0.020426067,0.0054779593,0.005586715,-6.622425e-05,-0.04908498,-0.038154338,0.019124126,0.014941485,0.0027845136,0.010739244,-0.088526554,-0.011174052,0.020094845,0.04710166,-0.029189855,-0.05449602,0.04984057,-0.046631433,-0.057621535,0.01591643,-0.05886926,0.011825091,0.0182759,-0.006585765,0.03373562,0.0076502664,-0.007595235,0.07021854,-0.0033447668,-0.018770242,-0.049837377,0.0014301054,0.018606953,-0.0093148565,0.055798765,0.010638685,0.054996256,-0.0016889574,0.01753949,0.048782304,-0.0079660425,0.013560372,0.016554095,0.025485484,-0.10077796,0.037201043,-0.03314244,-0.0070346943,-0.030808054,-0.038553957,0.010460791,-0.0145612145,0.0061927615,0.043611865,0.00045834252,-0.012791012,-0.042433176,0.02095327,-0.11023889,-0.029759757,-0.030674122,-0.0116650285,-0.056595124,-0.023142992,-0.015633062,0.005597107,0.020087438,0.002858452,-0.013833092,0.04963438,-0.009991369,-0.0549516,-0.041050702,0.029659675,-0.026075944,-0.04250892,0.0033229806,0.003224562,-0.0028336851,0.043804467,-0.017445875,0.00058674015,-0.025613058,0.008430408,-0.0018843325,0.0056097154,0.0021844406,0.00014875387,-0.025525212,-0.007761317,0.062060278,-0.014439494,0.088715054,-0.10085642,0.05052352,0.05920314,-0.009246858,0.0027624138,-0.011205831,-0.039078627,0.007583121,-0.017855376,-0.0364243,-0.011427638,-0.013036026,-0.03437876,-0.051291596,-0.01812298,-0.016717937,0.009205176,-0.017048445,-0.0017904185,-0.016969996,-0.0841832,0.02672436,0.048447624,0.03387098,-0.049068775,0.03946659,-0.0056205876,0.011727594,0.02787665,-0.007139152,0.0070929327,0.044977926,-0.02717392,-0.016431075,-0.037904758,-0.015507538,-0.0113132065,-0.074080944,-0.054486707,-0.014864535,-0.03542532,0.07789015,0.029946841,0.03419747,0.02482567,-0.0353275,-0.06298695,0.0050576506,-0.13678256,-0.030201517,0.03031862,0.044265155,0.00073538895,-9.97e-05,-0.028618228,0.004537848,-0.010237412,-0.016406156,-0.07313322,0.07161916,-0.014824893,0.09065315,-0.0067740004,-0.0037433365,0.043446925,0.042030625,0.043540683,0.01135304,0.007709091,-0.028751688,0.052550636,0.007837957,0.010017812,0.092116565,-0.00060337986,0.00876145,-0.05197869,0.078233115,0.02349876,0.04381717,0.011387355,-0.029827312,-0.030460004,-0.03188348,0.011111642,0.0034920627,0.03161948,0.047446746,-0.0061532264,0.011722186,0.05029093,-0.0058375625,-0.017228398,-0.01830586,0.026942063,0.040315554,-0.008915353,-0.06854178,0.05983171,-0.054557577,-0.00035285272,-0.03955792,-0.03849198,0.047388837,-0.0071914354,-0.03554024,0.0159257,-0.037667252,-0.009427428,0.09943937,0.011630303,-0.016732592,-0.011955576,0.0062240367,0.026343735,0.017891264,-0.01779777,-0.05408128,0.038891744,-0.007508801,-0.043101776,0.003770454,-0.03968264,0.048724283,-0.008831745,0.03939865,-0.027268134,-0.020841325,-0.037358176,-0.044351745,0.051872898,0.025463728,-0.019748278,-0.0070223496,0.015019219,-0.03087324,-0.007860266,-0.027206432,0.016207794,0.024441123,0.03003846,0.0022903094,0.017040923,0.0013080148,-0.022646964,0.013997873,0.013942706,-0.025348643,0.05044485,-0.026887909,-0.015119407,-0.022738606,-0.025633229,0.0108860135,-0.007050554,0.006546877,0.025583718,-0.0068215663,-0.026845535,-0.10526334,0.03766669,0.03855956,-0.018709498,0.0015702044,-0.0058264425,-0.022840342,-0.06332332,0.07356263,0.04278409,-0.0027872145,0.044538796,0.01472599,-0.04276164,0.026766645,0.01323421,0.072871484,-0.0052689267,0.04800141,0.06033889,0.019204129,-0.006096083,0.029344236,-0.04011969,0.05036338,0.0016907109,0.04386461,0.05845052,-0.054380033,0.004239661,0.08396469,-0.021406384,-0.008504414,0.020823471,-0.00043124423,0.0013424099,-0.015516221,-0.008450246,0.039015617,-0.0402275,0.10729771,0.014811623,0.03770504,0.041504826,-0.0050367457,0.064129785,0.019778976,0.038823072,-0.008783357,-0.0085588,-0.0123637775,0.016491907,-0.021601334,-0.005366882,0.0056408155,-0.09305724,0.027658321,-0.09501014,-0.016263125,0.05384525,0.031978466,0.005765607,-0.024596997,-0.047899295,-0.016512234,-0.020101395,0.03334189,0.0024951803,-0.023402626,-0.069121465,0.012123232
TEST_002,-0.0042744745,-0.0037338824,-0.040072106,-0.004422024,0.09641391,0.008296909,0.042700917,0.015694898,-0.0020799732,0.041831218,-0.09627476,0.021442968,-0.0010586275,-0.05946944,0.022707753,0.035777044,0.003915927,-0.07275137,0.03548164,0.04010205,-0.00647382,-0.023643775,-0.024561951,0.019376067,0.06448328,-0.0007588033,0.07239761,0.064975165,-0.029442813,0.03724945,-0.043984707,0.009334196,0.01033084,0.034946542,0.04828584,0.029792244,-0.05013066,0.0130055,0.10552581,0.020812694,0.008501078,0.032711003,0.0074522556,0.040834446,-0.04602787,0.017757587,0.06400753,-0.06689203,-0.089096464,-0.032335773,0.084364034,-0.026384195,0.06106226,0.06253484,0.09479286,-0.047024976,-0.031958655,-0.00135556,-0.043629188,-0.053234234,-0.013780881,-0.038813163,0.004423854,-0.012848776,-0.011719387,0.06304661,0.004045231,0.04657831,0.050865445,-0.0006796507,0.02759329,0.051334925,0.0113480305,-0.02328163,-0.053304363,0.045183323,0.030647906,0.030684648,-0.00050052017,0.0010717153,0.003471991,-0.06989074,0.098451436,-0.016531635,0.057153523,0.031472586,0.03309303,0.014653738,0.009807773,0.062217146,-0.027407432,-0.008213295,0.06845854,0.03129292,0.025694903,0.034064654,0.008904859,0.008170595,0.05237185,-0.01087613,-0.016958307,-0.031001728,-0.00089003576,0.07541941,-0.035494436,-0.001661257,-0.023169028,-0.025445195,-0.057550885,0.034723252,0.062557854,-0.06490479,-0.06070419,-0.11900606,-0.0074832435,6.076973e-05,0.019439964,-0.0026748523,-0.046767708,0.030019177,0.017429667,0.004775555,-0.024188485,-0.0025720915,0.0012545113,0.006260826,-0.019010337,-0.056640126,-0.0096627055,0.01159869,-0.015927022,0.066492274,-0.036511976,-0.0885544,0.041385677,-0.016997429,-0.018674375,-0.02354256,0.009186986,-0.018007195,0.0015506517,-0.11591508,0.0043185977,-0.047292624,-0.06469652,-0.010735365,-0.038572107,0.06774149,-0.0124220755,-0.06416937,0.035034616,0.09342823,-0.02027022,-0.088258505,0.052878324,-0.08648512,-0.050729576,-0.03325746,0.07735795,0.043381643,0.0056525315,0.0033116457,-0.06280588,-0.008313945,-0.023136351,0.0049320636,0.06274744,0.0068872073,-0.02503032,0.026676768,0.0061428333,0.0009653528,-0.0032816718,-0.0600698,0.013940769,-0.022842728,-0.0009755294,-0.034209788,-0.03620031,0.040140808,0.025551876,-0.076938644,0.07164758,-0.004692113,-0.0030076818,0.019284196,0.017494317,-0.02423205,-0.02646989,-0.0009704688,-0.022652566,0.02888799,-0.026851164,-0.012883036,-0.02397691,-0.013081518,0.028892875,0.05260383,-0.07581728,0.02462971,0.04867869,0.07370961,-0.034848064,-0.011396076,0.04801582,0.017106317,-0.05317444,0.04116936,-0.06872717,0.05070037,-0.0045495103,0.12852696,-0.08226745,-0.12775482,-0.049937822,-0.048448533,0.07414044,-0.06890329,-0.019023739,-0.01709563,0.049638554,-0.029777262,0.022609016,-0.00025360263,0.0071894475,-0.010110279,-0.022223648,-0.07740762,0.040415436,-0.04683198,0.03901515,0.022546671,0.02454813,-0.004683407,-0.017488986,0.02982182,-0.022604201,0.01005501,0.053205047,0.06847907,-0.046363294,-0.0043333042,0.07023243,-0.010596837,-0.074006915,-0.0036586183,0.0041746553,-0.035236347,0.03352108,0.0052499105,-0.055655878,0.077089205,0.0043250555,-0.011137908,0.011298117,-0.025847265,0.01656639,0.03502278,0.02123219,-0.012844012,-0.0026828418,0.0139388265,-0.00980784,-0.026229676,-0.03765614,0.05262606,0.029977888,-0.05477486,-0.0019988,-0.0058458024,0.004664382,-0.07060768,-0.034424126,-0.0040407563,0.020361971,0.022914331,0.017141076,0.005555948,0.05658939,-0.045765683,0.029060366,-0.0022776963,0.048991602,-0.084193416,0.037878577,-0.004597646,-0.018298408,0.00932472,0.021706821,0.01947507,-0.025178833,0.015700895,0.017714249,0.026027296,-0.06268021,0.022883987,-0.050024018,0.006490223,0.015703075,-0.057443365,-0.0043954668,-0.059509095,0.06815812,0.03599644,0.018073564,-0.029857155,0.055029,-0.0019174782,0.091887526,0.026379308,-0.032604408,-0.019150257,0.021150317,0.041049454,0.018046135,-0.037519593,-0.048225388,-0.019428315,-0.006917953,0.04012124,0.051708266,0.033138968,0.012078869,0.009705226,-0.020665156,-0.0074110446,-0.0104932245,-0.040725544,-0.035208,0.011627121,-0.022408376,0.0015458531,0.039754692,-0.04786363,-0.080924936,-0.07117054,-0.0071003456,-0.01258311,-0.016801102,-0.006447378,-0.028664308,-0.02814257,-0.04861282,0.04518472,-0.009281604,-0.011439945,0.045682702,0.0072269603,-0.03221207,-0.026616972,-0.014021586,-0.0075946134,0.002470259,-0.03907087,-0.040431667,-0.009852472,-0.06453351,-0.004000605,0.016866405,-0.013488318,0.081290364,-0.0150737455,-0.03699094,-0.059132308,0.037558038,-0.02374154,-0.058379818,0.065007195,-0.08065753,0.05851139,0.04731858,-0.020161916,-0.010914511,0.0022513354,-0.042633634,-0.009597923,-0.012051566,0.06694226,0.026576191,-0.025120754,0.048162904,0.05363527,0.04491127,0.0026851022,-0.05605804,0.031727012,-0.027445065,0.02834305,0.02817408,-0.0012750524,-0.0038154589,0.016705677,0.09518531,-0.01988367,-0.069410235,0.06489702,0.04986465,0.012054292,0.07019803,0.062474854,0.046456456,0.0055678003,-0.07956111,-0.026409198,0.010668128,0.04974016,0.049504828,0.018445596,-0.042445675,0.017151928,-0.0025998268,0.022370804,0.0018434171,0.0461902,-0.04930634,0.0022674894,0.076420024,0.028449615,0.021143213,-0.013284131,-0.017058108,0.081816964,-0.037394807,0.019363387,0.045065735,0.04715663,0.013195306,0.0142073,0.029344322,0.0017206451,0.0038374304,0.05603738,0.023677085,-0.03899091,0.041008454,-0.0054734587,0.05265651,0.014074211,0.018316189,-0.019016976,-0.03347257,-0.023377595,-0.0139809195,0.006483657,-0.013501967,0.013488675,-0.026006073,0.04287019,0.02567998,0.007867579,0.038434293,-0.027369147,0.058034416,-0.0010900726,0.04152823,-0.014268162,-0.037870802,0.07296763,0.002949781,-0.04805458,0.017540587,0.063330986,-0.039484605,0.04838352,0.046998642,0.07421873,-0.01608895,-0.017974364,-0.0018776158,0.043094758,0.006049691,0.030300455,0.013525898,-0.013799946,0.028908407,-0.009541906,-0.015485604,0.027061686,-0.039716795,0.005104211,-0.039261404,0.010269103,0.056693073,0.020522362,-0.00620221,0.05139454,0.047285303,0.055044636,-0.0422127,0.044477485,0.029619617,0.014063585,-0.074321374,0.015825646,0.080442056,0.030539071,0.0050444817,0.016655875,0.01354132,-0.08251063,0.026208578,-0.011631383,-0.030582778,-0.007550157,0.021146873,-0.0010450591,-0.029015692,0.07029094,-0.0394601,-0.015843293,0.00011144951,0.007453977
TEST_003,-0.00028180378,-0.002140354,-0.032500044,0.001612898,0.10086969,-0.056338638,0.004032914,-0.0013800412,-0.030308807,0.019752162,0.06821164,-0.026257792,-0.05784094,-0.08474001,-0.02534584,0.012258348,0.08549688,0.0021543037,0.0013460286,0.01848693,0.033044536,0.028059954,-0.027101204,0.012581071,0.0536921,0.017952427,0.020912616,0.04601119,-0.07222003,-0.005600601,0.020080937,-0.078061484,-0.048554346,0.07880772,0.06210337,-0.009649643,-0.04314137,0.027066639,0.051338654,0.007926565,0.0014330877,0.039331056,0.061049737,0.08471597,-0.037878368,0.008869594,-0.00929901,0.05047438,-0.034955785,-0.019530335,0.043651532,-0.03805578,0.07773602,-0.03364462,0.016348239,-0.025985679,0.009821548,-0.033565436,0.0070233895,-0.009561456,-0.0115670245,-0.045720577,0.020511385,-0.0123260645,0.019584486,0.041464068,-0.05746159,-0.02755384,0.02614655,-0.00822902,0.05804952,0.011915215,-0.007859114,0.024517152,-0.06999053,0.057150062,-0.018922137,0.0055272845,0.015962984,0.04591541,-0.02387054,-0.07645139,0.03291871,0.0693307,0.07381924,0.025071422,-0.0038200351,-0.0074880905,-0.029497938,-0.011764937,-0.06423449,0.0027799683,0.024608841,0.006441086,-0.016260052,0.005454399,0.06318978,-0.07646711,0.095612004,0.03876756,-0.066895254,0.04109036,0.0051927213,0.039782133,-0.042101406,-0.02887625,0.032922696,-0.033812985,-0.11477543,0.03133539,0.035766803,-0.059179742,-0.032696653,0.006051368,-0.004748551,0.028445326,-0.0026961276,-0.017887823,-0.016506422,0.07325491,0.02885685,0.05489343,-0.08253722,-0.042117342,-0.050274193,0.019125847,-0.019350253,-0.0418266,-0.0011542444,-0.013569772,-0.0033114771,0.043970134,-0.076393776,-0.017410312,0.011294551,0.11575513,0.028663948,0.0025543165,0.045341786,0.0045073293,0.05836687,-0.0674786,-0.05479244,-0.032187745,-0.069207765,0.003922997,-0.047900084,0.108202584,-0.039056174,-0.053092774,0.06945208,0.06375102,0.031732615,-0.055742275,-0.009909794,-0.0803953,0.0055851056,-0.0022006447,0.057499435,0.018059026,0.014618604,0.017299363,-0.033233497,0.014495544,0.028927391,-0.0061954996,0.018918386,0.016100975,0.019862777,0.06572146,-0.025841013,-0.022102999,0.022501675,-0.0561568,-0.026695993,-0.016264837,0.006599987,0.00911464,0.013466265,-0.0025689509,0.04712007,-0.07342383,0.1138033,0.010724171,-0.05502478,-0.00022883195,0.0074528307,0.016259635,-0.04100148,-0.045615345,-0.014781654,-0.0005454877,-0.013551806,-0.030113984,0.0033257513,-0.0325288,0.009868967,0.019677075,-0.101057954,0.00821477,0.011388316,0.06867369,-0.074641086,0.0021665406,0.03837623,0.041157935,-0.04346984,0.06769785,0.006538554,0.040337365,-0.008923407,0.014282958,-0.093308665,-0.018678617,-0.03641375,0.0071894587,0.010262114,-0.026355485,-0.05257907,-0.029498525,0.053976756,-0.030570354,0.021895394,-0.030720783,0.0060454328,-0.063702926,-0.02113744,-0.01497335,0.05291843,-0.06357673,0.041270703,0.0054048453,0.0040999944,-0.009844163,0.042378806,0.09204744,-0.026159711,0.021128237,-0.014452562,0.055176184,-0.022173153,0.0055375965,-0.017936058,-0.055995613,-0.03166909,0.04692451,-0.022445412,0.0072650625,-0.0027256117,-0.012228185,-0.06873046,0.011636494,0.05186719,-0.01727999,-0.0031491518,0.045302533,0.00012169359,0.1120758,0.018700777,0.03146384,-0.010802284,0.050303172,0.0042482154,-0.024692975,-0.048508015,0.025605842,-0.02215671,-0.052869607,-0.051362332,0.0070029497,0.019394785,-0.10848313,-0.0471606,0.008064758,0.019609148,-0.047238242,0.016177619,0.06261081,0.06315587,-0.06199585,-0.0015314496,-0.041254524,-0.039200474,-0.05783013,-0.010220851,0.025807634,-0.017462485,-0.040588047,-0.019267367,0.031035624,0.043930005,0.004464208,0.0474219,0.017226396,-0.061543442,0.023437137,-0.063846014,-0.043760337,-0.004103879,-0.022406755,-0.009863236,0.024069104,0.03222523,0.062238537,0.02108145,-0.054974828,0.06310448,0.011691744,0.019223038,0.06523064,-0.046787597,-0.01601685,0.012870954,0.04774268,0.040857464,-0.048030123,0.011702306,-0.0078204,-0.016096234,0.09511322,-0.028597306,0.018227197,-0.06349311,0.066986196,-0.0996588,-0.018945733,-0.036854494,-0.09586706,-0.022385929,-0.039899815,0.018739406,0.0023885467,0.0073637096,-0.04628262,0.015282356,0.00994592,0.012059747,0.01863992,-0.03830318,-0.031348664,-0.015239105,-0.05553121,-0.026914457,0.049652044,0.0009896063,0.02187247,0.042981464,-0.065397985,-0.121376984,0.006953089,-0.011195783,-0.004383155,-0.021580758,-0.05187517,-0.024531255,-0.045117162,-0.099529415,-0.029080963,0.01722518,-0.022906048,0.01158462,-0.05950441,0.01297233,-0.11417864,0.004792833,-0.00068925926,0.012339464,0.07492587,-0.015662638,0.026701711,0.0009315244,0.010653467,-0.054757807,-0.007109977,-0.007996739,0.02939127,0.077754326,0.046939522,0.02475222,-0.008919245,0.095941395,0.001562152,0.020459736,0.07882295,0.005198104,-0.025244523,-0.032948922,-0.018129056,0.047359,-0.02671672,0.041022826,0.08330149,-0.0021167002,-0.088656,-0.04447087,0.0034351056,0.022579098,-0.044191804,0.029058713,-0.014651299,0.07728694,-0.00416472,-0.016920986,0.007885955,0.027269917,0.042977422,-0.0016755,0.043098718,0.033752218,0.06954545,0.014797226,-0.028724542,-0.01170938,0.042852733,-0.04797507,0.07427908,0.022312285,0.007520119,0.04506492,-0.045893036,-0.030315591,0.079657346,-0.08645616,0.045883175,0.06303893,0.018080465,0.0629833,-0.026868543,0.060081042,-0.038069963,0.026878925,-0.023599759,0.024441611,-0.0168788,-0.014562517,0.0064328555,0.0207207,-0.023507493,0.028073778,-0.009110785,0.014746043,-0.05898497,0.04632095,-0.06513163,-0.008260495,0.025665678,-0.019318849,0.0141338045,0.059397873,-0.018046053,0.037574567,0.0062671616,0.014849493,-0.098584175,0.094650105,-0.04450261,-0.07233328,0.0010383743,-0.022563497,-0.021996407,-0.03702331,-0.0014771727,-0.041098718,0.07921793,0.004224197,0.0629832,-0.017241368,0.026919357,0.022254987,0.006037646,0.038458027,-0.016210979,0.017817572,0.050741963,-0.0165516,0.094571784,-0.00080609444,-0.0015945934,-0.10155446,-0.0091071185,-0.0120151,0.020900982,0.042937703,-0.007144864,0.033260327,-0.036556963,-0.0060846023,0.027310966,-0.06686187,0.034396134,0.05182599,0.04442658,-0.04002116,0.038597707,0.08878015,0.023589527,-0.013063029,0.0046085147,0.030705694,-0.0440873,0.049684767,0.02050982,-0.0066702366,-0.03556682,0.012201529,-0.028831191,0.021442939,0.06392318,-0.022734422,-0.03852223,-0.020972827,0.009924652
TEST_004,-0.008516212,-0.03438192,-0.0020473774,-0.03163085,0.07608995,-0.07804649,0.004190709,0.054888453,0.06364599,0.012024062,-0.031084545,0.019803371,-0.0037729025,-0.077070296,-0.018384533,0.06221118,0.044929672,-0.03289448,0.0025986785,-0.008179819,-0.05972966,0.016031733,-0.016858421,0.028742692,0.0061232545,0.0064185765,0.05746775,-0.012128871,-0.048844684,0.005891193,-0.039374474,-0.06125724,-0.06159651,0.0130410455,0.046025295,0.023272874,-0.044300847,0.04818917,0.06404257,0.08351181,-0.022680525,0.01983518,0.0414696,0.011198263,-0.12816666,0.014969558,0.049803823,-0.03217026,-0.019626414,-0.045259792,0.08358997,0.023658352,0.0026142667,-0.01848851,0.022974692,-0.050332885,0.03310595,-0.060102258,0.019564973,0.014203369,-0.019564226,-0.035623297,0.027595712,0.022931965,0.03881801,0.045104723,0.0035720032,0.004526102,-0.040354475,0.017510725,0.06733572,-0.0007600068,0.08095185,-0.0027250156,-0.06644004,0.08944542,0.020938983,0.015448483,-0.025226962,0.040982354,-0.0047459477,-0.068505265,0.0695714,-0.00767337,0.008476824,-0.00039378225,0.01351051,-0.0027392667,-0.053898703,0.050602965,-0.030225465,0.012793887,0.042883076,-0.07790679,0.055992752,-0.001157105,0.0048444816,-0.01949863,0.017556554,-0.008757753,-0.0008472463,0.030318981,0.012941807,0.06436633,-0.042563237,-0.029034615,0.033958293,-0.0045189215,-0.045488868,0.03892745,0.077282496,-0.06862035,-0.025030175,-0.06620289,0.045634452,0.0078566205,0.02534564,-0.053358875,-0.032812845,0.006631454,0.026117545,-0.005455378,-0.014521446,0.0224536,-0.027025841,0.046148956,-0.028867133,0.00022924412,-0.040425643,0.021652533,-0.01764605,0.038197704,-0.04472151,-0.07324004,0.020464579,0.017068429,0.0030825315,0.0013361062,0.02629782,-0.015753804,0.043783013,-0.08016552,-0.04767302,-0.03922439,-0.027764076,-0.0019963773,-0.017395962,0.093925215,0.0006010709,-0.029526785,0.057551034,0.03802263,-0.048144955,-0.08657328,-0.052239407,-0.052139178,0.042096466,-0.03374532,0.04688843,0.009920969,0.015391965,0.045134675,-0.058576617,-0.014085082,-0.024655059,0.00216825,0.04181876,0.034152046,-0.025501763,0.015773457,-0.014675778,0.004860741,0.03182205,-0.031933453,0.03700153,-0.016034156,-0.028886285,-0.0015986948,-0.021451235,-0.013699622,0.026515907,-0.074201085,0.0081957625,-0.0020323913,-0.02400474,-0.0668805,0.043142993,-0.02838412,-0.0013011473,-0.02061852,0.0070437277,-0.022166122,-0.007912888,0.0034514924,-0.030582093,-0.037184898,0.0752081,0.08333868,-0.04288298,-0.036442775,0.018014861,0.0656706,-0.03286891,-0.01573212,0.061702047,-0.009895475,0.00033141405,0.052181173,-0.0022604603,0.055215903,0.0074759624,0.09730717,-0.08479205,-0.06266554,-0.010232521,-0.0057344297,0.039512068,-0.065799594,-0.0067117293,-0.01900422,0.03524384,0.035410408,0.07709903,-0.011524913,0.015758645,-0.020127172,0.05339509,-0.06879843,0.038873084,-0.07684392,0.05836846,0.00455393,0.04215605,0.054323256,0.027077526,0.10335396,-0.032897137,0.03447909,-0.021893213,0.075151995,-0.04324421,0.0027155315,0.035230804,0.0077932514,-0.02788686,0.026074918,0.00832862,-0.026602995,0.050814465,-0.031025596,-0.09622681,0.1049911,0.009722353,0.027452052,-0.012273428,0.035967454,0.024373261,0.0612263,0.0006571793,-0.022552721,0.012313087,-0.012695375,0.031473704,-0.009423454,-0.029589145,0.030175772,-0.010512531,-0.064522356,-0.0021121646,0.008528422,0.04490108,-0.10711448,-0.057016734,-0.010421372,-1.1751428e-05,0.035817247,-0.0023691594,0.019832904,0.05330307,-0.024260452,0.041219857,-0.012665498,-0.010707481,-0.07067934,0.026174251,0.015271367,-0.03732227,0.013731307,-0.050917696,-0.011509546,0.02752102,0.008326368,-0.016365211,-0.00068944634,-0.070966974,0.01639731,-0.044605657,0.012124053,0.008772831,-0.035462502,-0.029509805,-0.0054216553,0.01834319,0.042783942,0.029665241,-0.079690404,0.0014653177,0.022149289,0.029645797,0.0058274814,-0.02568132,-0.018436255,0.0059106695,0.016540796,0.033847596,-0.090709,-0.056002855,0.0061571505,0.004507576,0.046239804,0.016097805,0.0149713885,0.06463362,-0.026256409,-0.047323167,0.025051124,0.01120674,-0.012135169,-0.04382727,0.026991067,0.013767198,0.017835664,0.004844569,-0.05461499,0.013671635,-0.011980175,0.069750965,-0.013898012,-0.050097086,0.018681383,-0.048630096,-0.059807863,-0.06627029,0.044541873,-0.03374827,-0.013602205,0.05695499,-0.03768559,-0.0075703743,0.017714703,-0.019892968,-0.032189738,-0.020395268,0.012324935,-0.01773203,-0.0063476334,-0.07349541,-0.027158158,0.044783488,-0.026560266,0.08268548,-0.03056363,-0.010086413,-0.04887293,0.03952567,0.018542165,-0.069516785,0.002198458,-0.09495454,0.05495161,0.037977736,0.034071226,-0.012720901,0.06425898,0.022961559,-0.02103443,0.039801266,0.015507859,0.04925156,-0.031989425,0.009188643,0.05293382,0.016200162,0.05286723,0.015344319,-0.0015740758,0.007930198,0.028380606,0.028634777,-0.034582775,0.05104982,0.04986481,0.019557927,-0.022320867,-0.042049292,0.018337667,0.09929871,0.0473934,0.0074489373,0.0065455087,0.06534862,-0.020489333,-0.0048800274,0.030845879,-0.01906085,0.06547994,0.047216598,-0.016617328,0.006662789,0.032487445,-0.06720841,-0.012912746,-0.005891765,0.06295929,-0.0363622,0.02984619,0.04308236,0.044560853,0.024885032,4.3950975e-05,-0.05662111,0.055595044,-0.034640767,0.032891866,0.02685268,0.04250562,-0.0042662593,0.011028742,0.021112919,-0.03775278,0.0036323373,0.021785365,0.0028269235,0.005425887,0.048433896,0.03070314,0.025238449,-0.013071897,0.063113905,-0.005869358,-0.022911612,-0.056211296,-0.045275148,-0.0058872,-0.010843758,-0.0069912486,-0.056023423,0.017387819,0.05325133,-0.0013308449,-0.00048077942,-0.03028005,0.04296907,-0.012156408,0.048053056,-0.018959459,-0.019561624,0.05434829,0.005609974,0.0068763425,0.04073724,0.0060718376,-0.03365699,0.115526825,0.02291682,0.058708843,0.031290457,0.025906822,-0.0133546945,0.0012005031,-0.014046258,-0.04280416,-0.020229388,0.018477814,-0.0059441607,0.021838332,-0.016643453,0.009457949,-0.096955456,-0.015699526,-0.025714194,0.10724586,0.063272126,0.08609601,0.01843533,0.04325558,0.045621075,0.042114392,0.00041547752,0.020488614,0.054326165,0.059478972,-0.035860725,0.018053899,0.05022891,0.06708307,-0.0364634,0.028676052,-0.011849139,-0.063355856,0.058102198,-0.0142947445,-0.008362708,-0.008381311,0.025540438,-0.030937394,-0.006132423,0.048393924,-0.038231175,-0.020650769,-0.039661832,0.021890804
TEST_005,-0.014340989,-0.005172794,-0.0037825722,0.019251445,0.050824437,-0.017594032,-0.012617634,0.042234,0.05668762,0.052608132,-0.06774318,0.050589774,-0.013740289,-0.09133368,-0.0099012945,0.023984361,0.008110446,-0.060980417,-0.04422588,0.036302477,0.019546304,0.0124423085,-0.036477637,0.019640844,0.044223968,0.02738656,0.08274969,0.029847747,-0.06689515,0.017022246,0.023703283,-0.018991714,-0.05154962,0.016165331,-0.0003298927,0.01073097,-0.055973276,0.05319688,0.10060686,0.054039866,-0.017583277,-0.022556335,-0.028810382,-0.013994138,-0.03189489,-0.004755227,0.01372037,-0.03001606,-0.039823335,-0.021424226,0.054970156,-0.0057369503,0.05444458,0.0227437,0.06517254,-0.043381404,-0.019939715,-0.026139172,0.011885423,-0.030534705,-0.005662333,-0.049085025,0.044535387,0.028683983,0.026997907,0.052435894,0.027022092,0.031661905,-0.02149099,0.008883004,0.00623744,0.050527316,0.040624328,0.018277805,-0.10470703,0.054782365,-0.02183053,0.010613957,-9.477977e-05,0.027336245,0.012110088,-0.05439072,0.08811747,-0.0009997875,0.023015404,0.017571177,0.059443016,-0.033252485,-0.015145484,0.014652585,-0.0015813146,0.030837147,0.060655214,-0.03287468,0.018588673,0.018183596,0.023390142,0.017435463,0.041670512,-0.03718295,-0.0063754097,0.019072497,-0.031706657,0.061059326,-0.044444904,-0.00824343,-0.019163013,-0.034320552,-0.031244636,0.007061587,0.065441884,-0.04879749,-0.032741446,-0.086720355,-0.0054924916,-0.011332192,0.008958693,-0.044368148,-0.017323444,0.018191684,0.042725965,0.022339005,-0.013686676,0.030060254,-0.009963106,0.0002825316,-0.032721084,0.013557397,-0.043751728,-0.002616867,0.014426132,0.0077563263,-0.03038001,-0.06678298,0.058898024,0.006330666,0.0039550536,0.016865585,0.013808266,-0.019499311,0.004356516,-0.052125305,-0.02902778,0.013206355,-0.05483698,0.028846242,-0.06483979,0.062395394,-0.0031145609,-0.027893731,0.045915034,0.0727578,0.0020075701,-0.09996432,0.019330572,-0.01536798,0.033505134,-0.04027503,0.026984,0.05846132,0.013462873,-0.0070898184,-0.0024732265,-0.060541626,-0.049558584,0.02892795,0.02129433,0.039367195,-0.013815985,0.023856277,0.009062327,0.019365944,0.046861656,-0.070597075,-0.03389845,-0.0019025037,0.020886062,-0.011372898,-0.01204211,-0.006456367,0.025081538,-0.063612804,0.022278346,0.021021493,-0.0656106,-0.067576125,0.031812664,0.00624412,0.0069927773,-0.009587447,0.032245573,-0.040366553,-0.0042538033,-0.010574582,0.024349745,0.033278853,0.01674558,0.036694683,-0.055013504,0.007882348,0.046359167,0.082034834,0.0046078404,-0.039017603,0.043480285,-0.04330638,-0.026279522,0.04176406,-0.06376838,0.049044542,-0.03880772,0.10447058,-0.0781144,-0.101582356,-0.062748276,-0.025696306,0.04147349,-0.09561888,-0.015527789,-0.0061059403,0.026682494,-0.02774882,0.04567939,-0.009790997,0.014510749,-0.03643504,0.021961804,-0.03552824,0.04431629,0.021724822,0.018423827,0.010676322,0.034490317,0.0038877362,0.056313332,0.07875573,0.039588477,-0.030477146,0.028060736,0.047852103,-0.010137976,0.02979445,0.05821147,-0.043118674,-0.010662655,0.025153302,-0.043000534,-0.011629798,0.0027738544,-0.028685382,-0.024889052,0.04838497,-0.0015007944,-0.00710061,-0.0011772696,0.01780044,0.04796989,0.06385945,-0.018852647,-0.036898024,0.012512555,0.012797039,-0.02296858,0.015322937,-0.0668352,0.077079885,0.05536308,-0.018222539,-0.0214791,-0.061009396,0.0205238,-0.07516282,0.03120066,-0.008307126,0.019394718,0.031295296,-0.06082241,0.0344981,0.051249385,-0.02142747,0.020620707,0.0031812591,0.009866377,-0.110283144,0.026930377,-0.01954097,-0.013357081,0.041161824,-0.04332522,-0.035293814,0.00247966,0.016411465,0.065483294,0.039882537,-0.028863136,0.04944361,0.0019086073,-0.018090198,-0.00531174,-0.075041965,-0.013210169,-0.031552345,0.03631513,0.056154564,0.03737857,-0.067822844,0.02151947,-0.029754786,0.08739854,0.01871479,-0.03766191,0.0118504325,-0.019967783,0.021398166,0.023207985,-0.034297183,-0.07656076,0.053375054,0.010019813,0.04218567,0.06304132,0.05066967,0.026948228,-0.028851412,-0.050846662,0.012397708,0.029292848,0.026423015,-0.037158903,0.022159353,0.028003363,0.0017191229,-0.0033103258,-0.04980543,-0.09697896,-0.009329188,-0.0137800425,-0.033069517,0.029402139,0.05159461,-0.02083812,-0.039172743,-0.011147313,0.0048578167,0.016848803,-0.00648692,0.03974915,-0.026878363,-0.021954214,-0.0070210127,-0.027371287,-0.044258285,-0.029056026,-0.028303137,0.015457453,0.0021877168,-0.05238732,0.0025318284,-0.020299133,-0.016605137,0.031261537,-0.052545257,-0.06821941,-0.074107766,0.00047875242,0.014157234,0.00021625822,0.022395555,-0.05041273,0.042234883,0.052716155,0.012169232,-0.038819026,-0.0055554435,0.059806745,-0.034613296,-0.008980722,0.07566869,0.016539993,0.028584437,0.067635946,-0.034815475,0.008362472,0.016907202,-0.0327003,-0.0019102738,0.018269306,0.005800074,0.037228175,-0.059639953,6.85805e-05,0.02286742,0.058923587,-0.0037523424,-0.030436782,0.007846115,0.048544485,0.009650772,-0.044988915,0.042897295,0.062433347,0.011521174,-0.01089159,0.018553874,-0.004217539,0.026402233,0.04772278,0.02304676,-0.015683083,-0.0031044753,-0.067893155,-0.032769177,-0.051398505,0.018490706,-0.048404124,-0.007920612,0.04760008,0.07080984,0.044833764,-0.006239093,-0.031865917,0.014025399,-0.038246065,-0.028953327,-0.03700839,0.034660935,-0.031911023,0.010901158,0.026203603,0.03482892,0.001738733,0.036678363,0.026505124,-0.004123367,0.03262489,-0.00978822,0.08034726,0.01931633,0.0033776665,-0.024050146,0.0013564982,-0.044590466,-0.102027915,-0.03376283,-0.00080213876,0.011552729,-0.031242415,0.05871819,-0.022111025,-0.014179647,-0.0342454,0.025331527,0.02685805,-0.009790551,0.039856113,0.004415697,-0.03639073,0.06944408,0.015438001,-0.00029561901,0.029165218,0.027139232,-0.049041502,0.030342987,0.022951806,0.056032065,0.043934084,0.027811892,-0.02311581,0.023688896,0.02090365,-0.03904876,-0.035701055,0.014856789,0.025071686,0.019056581,0.010514505,0.05278048,-0.05602988,-0.003960409,0.05032923,0.04336055,0.052949283,0.019409146,0.041092258,0.037172113,0.02693294,0.03954644,-0.04711885,0.0044844854,0.0130222235,-0.0038579244,-0.015098489,-0.01491569,-0.014370578,-0.010036432,-0.008791512,0.025946641,-0.033755276,-0.061936777,-0.003213621,-0.023757007,0.016405797,-0.016699003,0.061290685,-0.032627597,-0.0047087567,0.060447242,-0.021009477,0.013155213,-0.010517847,0.0053417855
TEST_006,-0.0063592866,-0.019020708,-0.017693203,-0.040001478,0.11764673,-0.015167237,0.025531262,0.024691498,0.02081401,0.035733517,-0.060182743,0.018697051,0.002319287,-0.06893618,0.013850752,0.014230565,0.008743552,-0.03661388,-0.0030696613,0.016112648,-0.024578089,0.008570335,-0.046245705,0.0018819303,0.036638312,-0.0037580119,0.056574147,0.027845588,-0.036056716,-0.0075953812,-0.0818505,-0.014988097,-0.004617835,0.04746266,0.04893888,0.020544307,-0.033775855,0.040855475,0.05538329,0.012991377,0.012139519,0.01953712,-0.0068073445,0.031233713,-0.100477435,0.025123684,0.03620044,-0.009905747,-0.04566655,-0.014952893,0.07933752,-0.0069652656,0.03921977,0.033682104,0.05474103,-0.0643922,-0.0027667782,-0.0050138426,-0.04722303,-0.045455515,-0.027943254,-0.03839886,0.006797775,0.00553144,-0.017577043,0.035155114,0.003418343,0.012345136,-0.008415141,0.012520441,0.044881858,0.0011782317,0.06923339,0.0338165,-0.04226402,0.07386956,0.046419855,0.04013683,0.022248765,-0.0016664149,-0.01073575,-0.0762011,0.075813375,-0.009893163,0.013603914,0.009118901,0.032009028,0.008544298,-0.020443834,0.048027605,-0.033805374,-0.02537529,0.04575092,-0.03573365,0.016640315,0.02412378,-0.018253408,0.024754655,0.03518417,-0.01562883,-0.00029249955,0.0001209132,-0.017401984,0.098731466,-0.055117536,-0.012766313,-0.001998638,-0.031390365,-0.052868318,0.0008412742,0.067344934,-0.06680079,-0.044284116,-0.071998,0.011796879,-0.0105126975,0.042150605,-0.0045233136,-0.031681303,0.049662508,-0.01117693,-0.016782215,-0.008228851,0.008329874,-0.02088026,0.023461951,-0.042234704,-0.041181736,-0.033656165,0.0053556776,-0.0027165592,0.03148393,-0.0079186205,-0.060046483,0.057501037,0.001810494,0.00854526,0.007321182,-0.022588404,-0.0055653425,0.022406885,-0.110182665,-0.045898624,-0.028027598,-0.0528693,-0.0056926413,-0.06696527,0.08228943,0.007613928,-0.05538891,0.05270953,0.055863064,-0.010459376,-0.10273788,0.040468685,-0.083676696,-0.019323606,-0.0062190136,0.053525344,0.025031948,0.024907589,-0.0027399233,0.0019038224,-0.050000206,-0.0211438,0.0037949984,0.036160987,0.019194467,0.025153771,0.010125877,-0.008666693,0.030602925,0.019983675,-0.025130609,0.0016045657,-0.013612294,-0.003958133,-0.022228923,-0.0035625712,0.02177645,0.008625377,-0.074125834,0.024901671,0.041998733,-0.035464335,-0.033389594,0.019350912,-0.0020731862,-0.005813558,-0.017153878,-0.013061704,-0.022087263,-0.030863749,0.025208052,-0.030236583,-0.022798462,0.028309379,0.070722766,-0.082715,-0.01848602,0.02161107,0.09373618,-0.05408906,0.0048561385,0.05959243,-0.036349993,-0.016447283,0.03674615,-0.03330406,0.08818277,-0.025069004,0.11313247,-0.10036645,-0.11396182,-0.0417766,-0.046816118,0.04878719,-0.07740054,-0.031298723,-0.010940788,0.023260387,-0.023420194,0.05627196,-0.010988507,0.03620996,-0.014237752,0.03184034,-0.073539406,0.021451503,-0.04014589,0.03951928,-0.001333614,0.003381245,0.026531462,0.037259504,0.062692754,-0.019847954,0.01594053,0.02743416,0.054440517,-0.032382917,0.0056710388,0.067728244,0.010453032,-0.06426124,0.0034206437,0.0038933186,-0.024562696,0.019503921,-0.022027677,-0.05293686,0.09370694,-0.0006979768,0.007238755,0.0028792939,-0.01039827,0.020316493,0.044152256,-0.0033325183,-0.039737515,0.02512812,0.006080426,0.01726988,-0.026323205,-0.06968486,0.054718494,0.008567275,-0.029762642,-0.0059113204,0.016921973,0.008437154,-0.11525779,-0.035304934,-0.0017994087,0.018122783,0.018615063,0.006482298,0.024961665,0.062099695,-0.049283933,0.0426922,0.0080414675,0.0071885395,-0.08308438,0.0227103,-0.005784149,-0.01856115,0.0022322824,-0.017679678,0.014933343,0.013422778,0.027551532,0.01080801,0.037600763,-0.06383066,0.047459297,-0.039287753,0.02645554,0.008996754,-0.04559252,-0.034854237,-0.02646002,0.04253414,0.040287998,0.020286229,-0.02742923,0.016445665,0.01058257,0.06617953,0.008141035,-0.036927193,-0.0037443927,0.013565803,0.04845242,0.019010395,-0.06064548,-0.024118897,-0.0039048658,0.019253442,0.044728667,0.05736457,0.052745342,0.040073816,-0.008461671,-0.048317295,-0.022808693,0.012940734,0.012553966,0.00848693,-0.014348806,-0.0099928165,0.030149149,0.020072635,-0.050505914,-0.029577358,-0.05668696,0.004627043,-0.007055724,-0.004274805,0.005953835,0.007315902,-0.037001148,-0.052364405,0.008156035,0.0016793774,-0.012712542,0.022822637,-0.015995722,-0.004974395,-0.0067697503,0.00033029588,-0.01483723,-0.009250882,-0.006269676,-0.032523476,-0.021585612,-0.09749756,-0.011594759,0.024104215,-0.011587017,0.08225021,-0.021691106,-0.06279609,-0.037136707,0.026282404,0.029251738,-0.06272861,0.049183447,-0.11192703,0.05538514,0.041566677,0.0015722985,-0.018901853,0.043247256,0.03226873,-0.017918725,0.014882778,0.039952718,0.041235328,-0.0029919487,0.07294656,0.05888108,0.04385259,0.043137733,-0.028823936,0.00863923,0.0013955967,0.06332806,0.045546256,-0.026554463,0.018590633,0.013985876,0.06638761,-0.035026,-0.03799372,0.046586253,0.0743752,0.0417762,0.0392451,0.034634203,0.034895446,0.0064770887,-0.022616668,0.023853656,-0.024587175,0.04681817,0.050873548,0.01716787,-0.014199285,0.041535992,0.007067801,-0.002411923,-0.024592064,0.038038142,-0.05187726,0.006275173,0.029263241,0.014286332,0.039449014,-0.0034906107,-0.020549782,0.054455914,-0.040684618,0.013670465,0.042385332,0.062202804,-0.014864209,0.025655484,0.026926842,-0.03199916,-0.026263962,0.023783501,0.0007836845,-0.036126524,0.034274,-0.024588889,0.03607425,0.016440278,0.018037463,-0.011677468,-0.04420438,-0.046345543,-0.032242805,-0.0057247994,-0.0024477511,0.049126487,-0.027119298,0.02504245,0.04303795,-0.017332539,0.015218623,-0.021974023,0.034030102,-0.02937705,0.028326603,-0.034563653,-0.019017309,0.06963641,0.041479822,-0.034853306,0.007698606,0.037723828,-0.01226175,0.05874641,0.034165163,0.07596392,0.0439949,-0.006562073,0.020973062,0.022671847,-0.0077945157,0.018952573,-0.024361666,0.022911435,-0.036127914,0.008294905,0.008265238,0.034207128,-0.06159481,-0.02473313,-0.035709772,0.040721133,0.028731415,0.009141994,-0.0077499743,0.056522526,0.020294692,0.05156642,-0.046369523,0.022589281,0.06668312,0.05303841,-0.045690134,0.021183895,0.06524161,0.020121032,0.009829456,-0.004317756,-0.003419182,-0.07133409,0.013626743,0.03838467,-0.03645482,-0.0076545207,0.024183787,0.004451176,-0.014158269,0.0804413,-3.4639554e-05,-0.027523883,0.0111368485,0.010062477
TEST_007,0.03583969,0.052739836,-0.03502789,-0.038330484,0.07736175,-0.06843227,-0.015584846,-0.04022096,0.021278935,0.014498583,-0.0059238835,0.0058360375,0.011264618,-0.0664301,-0.019827273,0.062373653,0.020699969,-0.01906236,-0.0122240195,-0.051635616,-0.0666133,0.03228565,0.0137678115,0.0042496226,0.029545952,0.028203294,0.082142256,-0.005391608,-0.008110906,-0.031913303,-0.029024715,-0.037877273,-0.05565934,0.020196874,0.05941366,-0.02540895,-0.029793726,0.038825754,0.038217794,0.04842681,-0.031156829,0.033500604,0.055511154,0.032370582,-0.19503063,-0.012285821,0.047348443,-0.010661305,-0.013575577,-0.033104572,0.09847779,0.07473056,-0.01623013,-0.037411418,0.01665327,-0.05083064,0.03752559,-0.06042133,0.008402265,0.041194916,-0.04701882,0.0029605029,0.007138328,0.002143455,0.036774583,0.008400606,0.043701697,-0.058909964,-0.056976564,-0.001113384,0.027522188,0.009471184,0.0012434477,0.0001461748,-0.07705075,0.07653953,0.02809871,-0.03296023,0.002834446,0.064854585,-0.047887135,-0.074929185,0.038285866,-0.05028657,-0.012007406,0.012689668,0.004784215,0.0240534,-0.02171742,0.011073568,-0.0031937833,-0.007785394,0.042121165,-0.08444089,0.061171837,-0.021823194,0.0036569426,-0.06343639,0.0149390325,-0.012717808,0.016645243,0.016050734,0.0044041877,0.05445848,-0.034029186,-0.025917964,0.041403715,-0.008071916,-0.08596627,0.011518762,0.0583251,-0.06900784,-0.0060553984,-0.037081487,0.028625969,0.08352464,0.0031471548,-0.07113948,-0.01955843,0.025688747,-0.0009689219,0.0057955044,-0.02361341,0.02029228,-0.04190073,0.010055484,-0.0147512,-0.035751805,-0.040133737,0.046986334,-0.0058537186,0.017729389,-0.009751834,0.0047243745,0.016155964,0.012686797,0.011166742,-0.032774746,0.005565879,-0.0035713946,0.065210745,-0.061026808,-0.020959418,-0.079171166,-0.036295112,-0.036933348,-0.012600213,0.057724223,-0.021231988,-0.029889707,0.042205088,0.0140591655,-0.051684644,-0.06297939,-0.046034105,-0.056131657,0.042377137,0.035154045,0.02985299,0.007820925,0.051408164,0.057835422,-0.055265516,-0.014257277,-0.07573402,-0.026107628,0.064278595,0.028144274,0.0067289094,-0.016799109,0.0074445126,0.011864463,0.060332835,0.0065099876,0.043458372,-0.00444931,-0.041266352,0.02841647,-0.00789421,-0.046255358,0.0377623,-0.07062369,-0.01905486,0.0030429675,-0.12289324,-0.08429595,0.034097962,-0.009826488,-0.011304291,-0.06828374,-0.0032334207,0.0014106221,-0.011145122,0.0021480327,-0.035839673,-0.023442889,0.06101767,0.063347,-0.013922956,-0.060449623,0.027555892,0.05024914,-0.046060808,-0.0077799256,0.028383592,0.012774285,-0.017540772,0.056036223,0.02074916,0.054374576,0.018875716,0.07292783,-0.09136457,0.0070844446,-0.020082137,0.016687946,0.021567121,-0.049290832,-0.034981053,-0.038253784,0.040725097,0.009873593,0.07806027,-0.01799238,0.03965749,0.01964803,0.06871767,-0.06946191,0.007906569,-0.04439332,0.053392377,0.024424823,0.061022416,0.07331025,0.017334316,0.091137975,-0.022565477,0.045010984,-0.015916603,0.07400677,-0.02157017,0.018342126,-0.017095422,0.025755513,-0.04535238,0.016455583,0.022607703,-0.032191362,-0.0020178815,-0.0377136,-0.12068695,0.07885951,0.0052663772,0.0409944,0.01438155,0.01437546,-0.010140649,0.09741801,0.032575876,-0.025821919,0.023228107,-0.0046710107,0.011788284,-0.009554845,-0.021132363,0.036443345,-0.03271346,-0.0760655,-0.015060203,0.01606815,0.036879968,-0.08805015,-0.03133296,0.009746696,0.047151085,0.054444935,0.025787596,-0.022957968,0.050894003,0.029941771,0.030031454,-0.029113712,-0.023236984,-0.051100302,-0.05711978,0.027944392,-0.012063518,0.026312286,-0.03144873,-0.07295381,0.010039449,-0.0010799044,-0.013242116,-0.026140623,-0.08543481,-0.0010414884,-0.006547596,0.067414425,0.013041964,-0.0268248,-0.020740673,0.00041074117,0.014552052,0.050851785,0.022008086,-0.062231313,-0.03351013,0.030018238,0.028020471,-0.050503828,-0.04339579,0.01103535,0.0008597055,0.038081296,0.050879456,-0.08341692,-0.046523366,-0.014696497,-0.024661338,0.0021923862,0.006907823,0.022747358,0.025008284,-0.013705352,0.00032133423,-0.02990236,0.0043040575,-0.0518075,-0.02807045,-0.022267738,0.023028221,0.020452665,-0.01503946,-0.02612378,0.04804435,-0.035886426,0.08185751,0.061074995,-0.03510156,-0.040174205,-0.018008916,-0.10613558,-0.04467124,0.06879646,-0.0601282,-0.019383281,0.040640328,-0.006504164,-0.032977413,0.0130551,-0.027922343,0.01566504,-0.029111655,-0.019142354,0.0012694399,-0.021472085,-0.061979502,0.0010034697,0.062099215,-0.05050584,0.059717342,0.038969275,0.003094405,-0.0653744,-0.0054749483,-0.00055997627,-0.0516114,0.023297498,-0.09121905,0.06261291,0.046541546,-0.00912684,-0.030391322,0.06767985,0.024777371,0.02070934,0.06263365,-0.06899373,0.058210917,-0.05184448,0.045442697,0.069360755,0.034142874,0.05099536,-0.00797775,-0.0068518766,0.026506864,0.022576382,0.04969458,-0.0058343485,0.047456812,0.03646918,-0.012020322,-0.027738608,-0.015297224,0.04494069,0.12813824,0.040144116,0.0058956165,0.01870144,0.031768136,-0.022886235,-0.03000938,0.049550246,0.018481998,0.11379799,0.033552397,0.036731195,-0.02781435,0.068256155,-0.033168305,-0.02553677,-0.02305493,0.022396015,0.0055880393,0.0227159,0.08083884,0.07520894,0.042440373,-0.010984529,-0.08981707,0.069106,-0.024337376,0.02201061,-0.0013215473,0.021220617,0.005575666,-0.0066777435,0.04157301,-0.020670488,-0.026317798,0.035546076,0.004916378,-0.01368854,0.032472502,-0.00049876265,0.023100894,0.0010486568,0.040113512,-0.04925228,-0.03975807,-0.059532154,-0.012712953,-0.018058943,0.002678953,0.0035057976,-0.036157805,0.022125881,0.048648655,-0.0030260745,-0.03786553,-0.08055312,-0.0026156292,-0.004255652,0.04029041,-0.030261146,-0.021466956,0.055698328,-0.012915195,-0.020488929,0.049479183,-0.020040127,-0.046717387,0.09116024,0.07105118,0.05469234,0.0075206757,0.025186654,-0.053887792,0.0051052417,0.020188464,-0.016603276,-0.0016543159,0.043204617,-0.016581286,0.05134693,-0.023534346,0.025607739,-0.099338114,-0.03155173,-0.028542336,0.07530234,0.05155097,0.053214006,-0.021072675,0.0036067318,0.060152978,0.029872367,-0.011758606,0.06114856,0.0097275935,0.058374923,-0.035856087,0.030989865,0.042022783,0.047772124,-0.07666349,0.040606987,-0.026009329,-0.069349274,0.11103042,-0.018970242,-0.0040018978,0.031698596,-0.07724783,-0.039848853,0.0023604792,0.061968267,-0.018241392,-0.059267938,-0.040542606,0.019024584
TEST_008,0.042345416,0.0048894794,-0.07096771,-0.025610028,0.08571273,-0.056074742,0.009833957,0.052895103,0.053720657,0.02998991,-0.032486945,0.022273311,0.022181544,-0.058040973,-0.011856152,0.031072285,0.013694775,-0.032906927,-0.004350185,-0.007621923,-0.072951086,-0.014104212,-0.013254118,0.013256649,0.06290635,0.032289628,0.06153738,0.051582973,-0.034101367,-0.019750996,-0.008848191,0.01040813,-0.03475951,-0.024146264,0.046963766,0.02854417,-0.02392108,0.020063605,0.03775978,0.03175188,-0.016380692,0.024334427,0.03880229,0.04953684,-0.09756686,0.013146414,0.0673289,-0.056444522,-0.027849214,-0.03480102,0.08361011,0.034688197,0.030341817,-0.0071905246,0.045081757,-0.06883256,0.016884714,-0.056919664,-0.0027291912,0.018746376,-0.0074384133,-0.052600898,0.03574197,-0.0018878327,-0.019949233,0.011373414,0.032256287,0.04239424,-0.013539245,0.014341358,0.046233024,0.0056680925,0.00038506833,-0.007084417,-0.0099470625,0.046359617,0.014571748,0.015440386,-0.024893314,0.04411555,-0.011000457,-0.07428087,0.034438867,-0.061160322,0.03181563,-0.011656894,0.03786931,0.06310837,-0.044933453,0.031560067,-0.004678254,0.00082496536,0.04965593,-0.027178995,0.05722314,0.00024738954,-0.016661655,-0.024024967,0.008622409,0.037559934,0.0001645824,-0.0029165568,0.015549201,0.09665117,-0.06727933,-0.018080581,0.04713078,0.007517355,-0.04893011,0.024910089,0.042366583,-0.061250072,-0.036602754,-0.05662894,0.019995581,0.00092738186,0.025408542,-0.05267707,-0.032078955,0.004726421,0.011372638,-0.060090687,-0.013229997,0.047601268,-0.023858692,-0.02352424,-0.021051181,-0.042225882,-0.0037543364,0.06751241,-0.02157716,0.00018417253,0.021215761,-0.09080552,0.02827017,-0.05118342,-0.004402575,-0.015923334,-0.008953521,0.011971164,0.028823815,-0.082401484,-0.027818166,-0.002567151,-0.051186334,-0.0022020203,-0.03520957,0.09989668,-0.031775195,-0.030989591,0.07199177,0.068996355,-0.009907865,-0.061440967,-0.004976266,-0.08610572,-0.04043539,-0.018374786,0.09728871,0.011037475,0.03761247,0.038095035,-0.080766164,-0.02898476,-0.044834785,0.0142410565,0.060289007,0.031431668,0.00043011978,0.01931569,0.019975325,0.00035349277,0.029742034,-0.04492889,0.04535312,-0.035087936,-0.007580532,0.019517697,-0.02344619,0.011577811,0.018441206,-0.023885658,0.019081473,-0.046908405,-0.050619174,-0.057237327,0.011682028,-0.029483674,-0.04605852,0.025862932,0.029591411,0.0020231614,0.009253716,-0.017362352,-0.041546617,-0.02032989,0.0448384,0.043506227,-0.007403019,-0.008693623,0.023384765,0.07748528,-0.038622748,-0.027635796,0.011039027,-0.0019699428,0.011334007,0.06522304,-0.025495779,0.04918694,0.03015738,0.10700811,-0.030047718,0.011150832,-0.031935554,0.0025197805,0.042891502,-0.052613564,-0.012482097,-0.03948517,0.05951887,0.0010556382,0.08282362,-0.0066223936,0.031367842,0.006605232,0.040628273,-0.06877649,0.05409133,-0.022764308,0.068445556,0.024127435,0.0487514,0.039570473,-0.02739764,0.059600815,-0.0058872337,0.013262969,-0.009626924,0.054425582,-0.026194766,-0.0025202178,-0.035680685,0.009282114,-0.010272154,-0.062286958,0.026911225,0.0049674087,0.0022733323,-0.009628232,-0.056398768,0.048838466,0.019544011,0.0029181652,-0.042397756,-0.019200208,0.029052943,0.03716539,-0.010494782,0.008011162,0.011258382,-0.020645307,0.022510722,-0.010823456,-0.0068367356,0.03510395,-0.02500939,-0.039718054,0.016203705,0.0453524,0.072777934,-0.08892847,-0.055616546,0.023238692,0.021219032,0.061214957,0.018195026,0.025099268,0.05685891,-0.013349518,0.029300869,-0.010352085,-0.052376546,-0.05593449,0.048138678,0.013847957,-0.00079136976,0.021373922,-0.035004452,0.01681064,-0.021872105,0.017398003,0.030757941,-0.029199125,-0.04920138,0.022139069,-0.013788171,0.01888366,-0.0010319961,-0.043310843,-0.015567938,-0.012834014,0.036931835,0.055892244,0.0039232457,-0.06297322,0.022556437,0.028243788,0.09608342,-0.00067717466,-0.056664225,0.0017185848,0.035198037,0.024512935,0.025104694,-0.06478578,-0.075204425,0.0033136588,0.038552362,-0.0022812046,0.05613497,0.0038077543,0.08443519,-0.0055879876,-0.0005333303,0.033425394,0.017617404,0.032526653,-0.032362252,0.016575966,0.031796645,-0.009347221,0.034001186,-0.047013417,-0.041732445,-0.043778088,0.05503825,-0.004528985,-0.049653087,-0.039250292,-0.05117502,-0.055050515,-0.036853228,0.06691825,-0.018616127,0.014049208,0.020405872,-0.02905201,0.0022475414,0.02354164,-0.049082387,-0.00043492272,-0.0046572424,-0.022544654,-0.015766712,0.013512241,-0.021301769,0.005832996,-0.016233288,-0.040374562,0.05513245,-0.03098733,-0.024825998,-0.053593125,0.03016845,0.019765027,-0.034667127,0.010040905,-0.053416133,0.07099112,0.027570099,0.010195247,0.0059240214,0.06176308,0.0057662274,-0.032078013,0.02765992,0.0039714216,0.030898772,0.02054799,-0.019266602,0.00067106984,0.046629995,0.034324188,-0.055281244,-0.016013483,-0.0016928955,0.014856468,0.07800942,-0.016564254,0.043473028,-0.008625628,0.046481684,-0.008732254,-0.035246532,0.060062025,0.07228742,0.04833674,0.0025055555,0.049190264,0.040735926,0.0022677244,-0.065603845,0.04911913,-0.008565234,0.07237685,0.060379434,-0.012466792,0.008982657,0.03807464,-0.018262984,-0.008484101,-0.009444865,0.051974785,-0.02693829,-2.684258e-05,0.0696007,0.05681093,0.048628256,0.011230751,-0.036697328,0.02044482,-0.06502002,0.056211837,0.0092255855,0.039667998,0.0007012916,0.021419076,0.030370513,-0.009226202,-0.039260034,0.025970517,0.038100857,-0.028956097,-0.012254894,0.015240652,-0.0019235634,-0.029146655,0.047364138,-0.027398223,-0.016336875,-0.06399251,-0.025545975,-0.053582393,0.0042067217,0.008707019,-0.052677486,0.06992173,0.064042136,-0.023935089,0.0018814207,-0.040974427,-0.0023376439,0.030438533,0.01988881,-0.032568205,-0.05343469,0.052493505,0.013931496,0.0014115032,0.050826095,-0.0334775,-0.009858095,0.059576396,0.036565598,0.05227945,0.0053768833,0.016289916,-0.08723796,0.025413329,-0.030137034,-0.050529595,0.00797835,-0.021258192,-0.023180377,0.075202666,-0.031920195,-0.019116633,-0.05448067,-0.0026110832,-0.047604088,0.06210023,0.048433103,0.06328234,-0.009913795,0.046235748,0.028714817,0.030689437,-0.02661361,0.02007987,0.016043006,0.052618157,-0.044012014,-0.0029236176,0.0514074,0.057714302,-0.049465567,-0.0029511524,-0.051087696,-0.07479397,0.037925374,-0.063381955,-0.000111086294,-0.002902854,-0.038829308,-0.043134723,-0.03818997,0.028922329,0.011236993,-0.016813638,-0.04165688,0.05509476
TEST_009,0.031554595,-0.027765322,0.021268453,0.0032386424,0.12280805,-0.029015014,0.038694248,0.021331502,-0.00651338,0.023456674,-0.009449679,-0.00802904,-0.004505378,-0.109822564,0.021728743,0.01176488,0.059176546,-0.009459417,-0.008732613,0.045261044,-0.0049656904,0.016485762,-0.016801948,0.0016170774,0.108563185,0.013649108,0.026624853,0.052899435,-0.066758566,-0.023477172,0.0012831008,-0.033692613,0.01690556,0.04470294,-0.01083025,-0.024521234,0.0025343301,0.005729387,0.059543293,0.0054744743,-0.017572073,0.049622674,0.042761896,0.036767717,-0.08280027,0.04307337,-0.0076440414,-0.009075769,-0.087225825,-0.044478446,0.0754462,0.012116603,0.057892866,0.050675254,0.050675534,-0.05624401,-0.013307274,-0.021538036,-0.0044753905,-0.00710592,0.0084738,-0.018762887,0.031741224,0.0062844325,-0.024939453,0.040622603,0.008777759,0.052613147,0.027689347,-0.0006835725,0.08150394,-0.012020199,-0.017827868,-0.0035758747,-0.047949497,0.07659998,-0.018659675,0.06857645,-0.00051838666,0.031212403,-0.015381634,-0.080963716,0.04353931,-0.015147889,0.08161458,0.0261177,0.07422338,0.022639923,-0.0042313407,-0.010183946,-0.06703493,-0.0056377277,0.05566374,-0.043513343,-0.0022499906,0.038550846,0.004185188,-0.0067117,0.08364874,0.006529919,-0.029761022,0.016231213,-0.05257248,0.055525422,-0.05469676,-0.06524177,0.004972417,-0.026461227,-0.05727755,0.043001357,0.02262732,-0.05100529,-0.031728085,-0.05518893,0.0017393226,0.027471168,-0.006176124,-0.00025822036,-0.005828049,0.04003419,-0.024180729,-0.030646948,-0.054762904,0.003959708,-0.023514206,0.04140001,-0.005279342,-0.07497278,-0.01568083,0.0037917471,0.0019623113,0.07832928,-0.057233956,-0.035073742,-0.020394176,0.006376517,0.022573888,0.0034295581,-0.00951513,-0.005153719,0.028412238,-0.05935397,-0.075693816,-0.06177064,-0.07257809,0.009198358,-0.070789605,0.07399425,0.0025869596,-0.031322792,0.043512974,0.056996785,0.013007942,-0.06925591,0.027794281,-0.057847857,-0.041963123,-0.022266403,0.0137758255,0.031870626,-0.012860801,0.02217203,-0.04589182,0.0007755806,0.0016420777,0.0014149509,0.02769246,0.019174686,0.0021167332,0.04012703,-0.013189647,0.023840502,0.017047489,-0.02304453,-0.015905421,-0.019966979,0.04574643,0.014884081,0.014335868,0.033460278,0.057012286,-0.11851711,0.023585714,0.046880513,-0.03699922,-0.032673933,-0.02475437,-0.03318543,0.012344017,-0.026833897,-0.055681895,0.009178775,-0.014152401,-0.015780352,-0.0026665984,-0.014166641,0.010793645,0.041318215,-0.096231505,0.033617985,-0.010842858,0.078346014,-0.07421895,-0.008110395,0.019309713,0.0015037642,-0.0033900207,0.07698678,-0.06280114,0.0961647,-0.03017968,0.07104742,-0.087763645,-0.11791785,-0.048247837,-0.017538372,0.04703083,-0.060541,-0.01734316,0.022187619,5.947333e-05,-0.039531138,0.062000334,0.033350524,0.012774821,-0.038791183,-0.030607603,-0.059541475,0.024320163,-0.09953963,0.028030084,-0.032795932,0.033184156,-0.041080557,0.021779662,0.012397321,-0.013837293,-0.0041887756,0.00109524,0.06960063,-0.03826908,0.020346327,-0.0021524287,-0.011498422,-0.043574523,0.013353435,-0.020149337,0.019082323,0.0045755487,-0.015589364,-0.029826852,0.03467626,-0.0015588115,0.00024551526,0.012458073,-0.039548364,0.030261202,0.0068051685,0.021498233,-0.0052088844,0.0011274443,0.040747784,0.04587856,-0.035943642,-0.060804367,0.041470144,0.054274764,-0.10350519,-0.044256844,-0.07301755,-0.02273286,-0.03355066,-0.015093668,-0.014764113,0.045460984,-0.005916087,0.0038475872,0.04379365,0.028674483,-0.06358873,-0.019291626,-0.04827427,-0.01226403,-0.074259244,-0.019807415,0.00579057,-0.019789265,-0.029151611,-0.024473444,0.015723662,0.029856194,0.030820958,0.041157007,0.040471707,-0.051372886,0.035173304,-0.037736528,-0.07011476,-0.027668718,-0.017852178,0.0007117229,-0.014721318,0.05072062,0.031130372,0.021223204,-0.04265836,0.033344537,0.049098223,0.052977834,-0.010047315,-0.06308415,-0.0009308629,0.004601798,0.04489526,0.0051713423,0.0028876138,-0.014493347,-0.013728008,-0.037650153,0.090893775,0.014834932,0.058247875,-0.032929786,0.03469044,-0.12648706,-0.0033321378,-0.043823026,-0.052643746,-0.008744358,-0.005892685,-0.0020348872,-0.0042119194,0.07902839,-0.024095867,-0.055614594,-0.043678273,-0.020768741,-0.021733148,-0.015423901,-0.025986247,0.023095312,-0.042142846,0.017080398,0.017123325,-0.049846712,0.0022365742,0.049457002,-0.0063398234,-0.012527389,0.009787582,0.012729237,-0.0018075352,0.007574338,-0.027664546,-0.035240334,-0.049411073,-0.06556123,-0.010626798,0.0060321637,-0.04248969,0.03721952,-0.006550944,-0.07784626,-0.028092531,0.033403147,0.021012617,0.0058077388,0.10126852,-0.056174017,0.04812861,0.020600433,-0.03559428,-0.022840718,0.06624579,-0.011573939,0.020855617,0.021505883,0.07142473,0.043325726,-0.011859375,0.04147503,-0.008988196,0.020037029,0.045677394,-0.0005028238,0.025501972,-0.003973309,0.007836175,0.041217428,-0.0021806813,-0.0043798983,0.047323015,0.024607291,-0.044169605,-0.050020766,0.07904381,0.0640781,0.012796655,0.06259551,0.047198623,0.039832354,-0.005044751,-0.037711512,-0.037259392,-0.013585379,0.0797969,0.023192665,0.055749413,-0.037561227,0.015244428,-0.022655468,-0.0032334984,-0.046504933,0.027414363,-0.04164628,0.03898895,0.06226595,0.067593925,0.08104754,0.040031977,-0.035192642,0.06301121,-0.055099413,0.021169504,0.05394002,0.022303496,0.0120774815,-0.020016229,0.026000626,0.005408259,-0.014012927,0.025291888,0.02417981,-0.045732394,-0.015746089,-0.014829663,0.013697062,-0.015006428,-0.012440459,0.020111518,0.0074037747,-0.05944714,-0.0064894105,-0.03220225,0.011392721,0.033223253,0.01661912,0.0043748966,0.030782418,0.0018597534,0.08714092,-0.03551048,0.017697973,-0.0148392245,0.051500432,-0.056915972,-0.045302287,0.062239952,-0.018386533,-0.046976775,-0.010285893,0.03185357,-0.08727408,0.051091764,0.06731325,0.07814851,0.006032201,0.012971659,0.054005716,0.06841746,-0.023497151,0.020800134,-0.028286465,0.047263693,-0.05280833,0.041407958,0.009659271,0.040506057,-0.05036306,0.0026663,-0.018262379,0.0077780536,0.02523118,0.020361148,0.010606739,-0.025592955,0.05221795,0.08450754,-0.060055718,0.027299784,0.06220461,0.021160858,-0.031235687,0.017257357,0.06763669,-0.017226718,-0.0017885133,0.0536012,-0.028079,-0.057605006,0.04593216,-0.024302304,-0.013753858,-0.016334895,0.061651405,0.025377296,0.024750913,0.033855926,-0.02873419,-0.032437764,0.008574612,0.035122734
TEST_010,0.0011856336,0.006264549,-0.005944332,-0.028143132,0.0918946,-0.015645035,-0.06159478,0.111399636,-0.0023402232,0.03851294,0.041534036,0.04595792,0.011936707,-0.05055483,-0.022172498,0.044432286,0.00571749,0.0006834612,0.0066341027,-0.018852375,-0.021203099,0.020154951,-0.05082249,-0.003226372,-0.0048183952,0.063721254,-0.03254404,0.03372944,0.068601675,0.00065833755,0.0049129445,0.0052085035,-0.021693792,-0.008234471,0.037881806,-0.055866476,-0.02902638,-0.006175576,0.071606785,0.03227818,-0.029840622,0.0032021166,-0.038317733,0.00071303535,-0.17375526,0.017848685,0.06814966,-0.005116701,-0.03144555,-0.01942566,0.0741126,0.05799836,0.020663926,0.037539225,0.003080931,-0.021784628,0.027214406,-0.025781108,0.049954034,0.0029038987,-0.02004102,-0.0035290497,-0.015722442,-0.0138276545,-0.015247871,-0.011498218,0.089696676,0.015462747,0.01783526,-0.04110307,0.047141824,-0.001893662,0.017596664,0.043859962,-0.08908009,0.06587,0.006091023,0.0573565,-0.009974997,0.037452575,-0.039234962,-0.066783704,0.07488355,0.00979034,0.02408839,-0.0008045494,0.027189892,0.023607336,-0.0050448948,-0.0148430625,-0.040761184,0.003922502,0.023463096,-0.005606956,-0.010958945,-0.01481134,0.044782583,-0.0013205794,0.050096013,0.07954261,-0.029728502,-0.05583818,0.02218529,0.072614245,-0.0733782,-0.02840555,0.09315174,-0.0032445646,-0.050008625,0.0038152924,0.046356704,-0.055662606,0.00032467954,-0.038850583,0.042556535,0.04413615,-0.030148936,-0.019987503,-0.032158293,0.05172038,-0.0010734755,-0.025463386,0.010192088,-0.0038753455,-0.016184062,0.010591977,0.00666622,-0.07632727,-0.017377207,-0.025480753,0.021187859,-0.011418123,-0.04998716,-0.062485334,0.037522536,-0.017254587,0.02765883,-0.011962195,0.01172291,-0.00015156064,0.00974795,-0.11244743,-0.055398934,-0.04790522,-0.0940856,0.00535148,-0.04991452,0.044226244,-0.022169352,-0.04698553,0.023693906,0.047536064,-0.0051374016,-0.03658389,-0.017992333,-0.05895794,-0.014567516,0.005534563,0.06128978,-0.026517397,-0.030991603,-0.008849351,-0.08218104,-0.065744676,-0.0230291,-0.038964964,0.054652702,0.022526713,0.02104201,-0.018719468,0.018571109,-0.002309916,0.02727058,0.023188291,-0.008457754,0.005046634,-0.018000912,-0.030093906,-0.06683545,0.047679927,0.0433488,-0.013095805,0.038484573,0.04101443,0.010552569,-0.04619624,0.010963783,-0.011141419,0.032467823,-0.08154625,-0.05270514,-0.005795131,-0.026039274,-0.006634148,0.020606546,0.023761883,0.05063248,0.09488537,-0.027067317,-0.073739864,0.048818406,0.05942886,-0.048470605,0.01304946,-0.06886465,-0.037641283,0.022186743,0.04531502,0.012224425,0.006291597,0.020511562,0.06993188,-0.11374195,0.03761238,-0.04521477,0.03918917,0.03557047,-0.047283437,-0.0123093445,-0.02107087,-0.0001491867,0.0049810773,0.03210255,-0.024881184,-0.011863042,-0.017883707,0.043145,-0.04925314,0.02801358,-0.08918554,0.031205298,-0.016374663,-0.0017092947,0.042093612,0.061314225,0.05076719,-0.026954878,-0.08538533,0.016750013,0.034710992,-0.03015769,0.064907216,0.034764927,0.019531842,-0.0213797,-0.05971657,0.0073160315,0.0065388926,0.006345349,-0.071321815,-0.044051174,0.07227008,0.06353773,-0.011020742,-0.0053463266,0.074357525,-0.024214057,0.07386587,-0.036250252,0.03559392,-0.018141469,0.020542478,0.03464982,-0.044847686,-0.022419155,-0.012157748,0.0106678605,-0.024879867,0.00081396237,-0.02110689,-0.008455919,-0.09187635,0.019383445,0.00837294,0.04534895,0.044688266,0.021701839,0.020627784,0.0482238,-0.0019681754,-0.02854787,0.0073022665,-0.042148788,-0.021454142,0.013416049,-0.007029022,0.009145007,-0.04857471,-0.047402624,0.0227373,0.002175424,0.006481256,-0.016449617,-0.07855544,-0.028122913,0.025003403,-0.008417272,0.042309437,-0.008214569,-0.05894936,0.0070353835,0.0513336,0.039716866,0.05124431,0.054694843,-0.034873914,0.009968606,0.09939629,0.042223167,0.043058395,-0.06032934,0.021070855,-0.04683996,0.06179954,0.01540025,-0.047889244,-0.016715,0.041794445,0.008713064,0.027299955,0.023380874,0.06802313,0.009279603,0.02167901,-0.0059281057,-0.053280354,-0.044429395,0.0032196897,-0.011886656,-0.02004297,0.021406615,-0.006199941,-0.012334576,-0.033555936,-0.023857156,-0.064432316,0.0759937,0.020258406,-0.015260813,0.00427429,-0.03148739,0.0073985797,0.0070039933,0.027914234,0.00048558178,0.011044636,0.035108164,-0.0153768435,0.018335346,0.021058897,-0.006630271,-0.023734588,-0.04623713,-0.042402055,0.030789234,-0.0048850714,-0.05795845,-0.044530462,0.015323365,-0.008135953,0.0941067,0.008098319,-0.03541875,0.00021431845,-0.022843603,-0.004569489,-0.010018108,0.07765263,0.002355127,0.042026557,0.061622165,-0.005018249,-0.038291674,0.003947573,0.052872512,0.037325203,0.034274194,-0.026633717,0.016499124,-0.033018686,0.028034866,0.0014618335,0.027843706,0.053691294,-0.06271347,-0.008764363,0.06588828,0.017626498,0.022464903,-0.029026266,0.05406976,0.045196924,0.037856333,0.00082787854,-0.0020554066,0.055383332,0.017356802,-0.017557388,0.029127423,-0.035660006,0.004158672,0.02163458,-0.08628237,0.07007039,-0.0040801405,0.081346124,-0.0143926665,0.012390684,-0.00032822817,0.0054791914,-0.033247586,-0.043350425,-0.0014904306,-0.031637054,0.028670209,0.01918643,0.033938363,-0.024042344,0.046737622,0.003607874,-0.0449056,0.05182188,-0.022696666,0.037302326,0.030004326,0.03313302,-0.026613265,0.021059215,0.03556255,0.00901402,0.034106243,-0.064556345,0.013589612,-0.0878014,0.041174557,0.018656855,-0.07148929,0.016179457,0.02199631,0.013537552,-0.022658244,-0.050989326,-0.020986633,0.009928661,-0.029021157,0.013357312,-0.029864583,-0.01937057,0.046268534,0.029723372,-0.0391817,-0.008946463,0.014963732,0.02158927,0.013203056,-0.052050192,-0.011382961,0.106326476,-0.04292723,0.0028815905,-0.003360142,-0.007700997,-0.06133351,0.10364175,0.028306348,0.07280182,0.03053142,0.020995611,0.034187384,-0.0052568587,-0.010421921,-0.01436697,0.031465597,0.02196144,0.048377953,0.06459829,0.054631736,-0.0124250995,-0.10229541,0.04553661,0.014980783,0.10403833,0.06419279,0.016401213,0.016861366,0.03240259,0.048780277,0.05480225,-0.023065135,-0.04837331,0.06940437,0.021432692,-0.040674567,-0.021113994,0.08621262,-0.0046078633,-0.06624126,0.004574229,-0.0065850774,-0.09147896,0.022773676,-0.0012240183,0.022342497,0.016348235,0.053474255,-0.021749493,-0.024548678,0.053029183,-0.016466513,-0.02536684,-0.04813047,-0.0060239313
TEST_011,-0.0695038,-0.010232922,-0.0010142251,0.024034066,0.1158974,0.0043690703,0.017105957,0.084135376,0.014649007,0.035448223,-0.026127314,0.043908756,-0.018329151,-0.109459326,0.022883002,0.0039428733,0.050778702,-0.040511176,0.046469364,0.06259394,0.0042642416,-0.005977755,-0.06180401,0.040257264,0.027169919,0.0033723798,0.050464787,0.014985081,-0.033938874,0.024366207,-0.022013431,-0.06716622,0.012003868,0.0024464934,0.020270469,0.027906755,-0.027621364,0.0065049613,0.046953045,0.019838046,-0.032739017,-0.0026144641,0.019786911,0.002626976,-0.045914125,0.03145979,0.033441104,0.00023745571,-0.050126866,-0.02151893,0.023695234,0.0048716664,0.044138063,0.047066633,0.067190185,-0.025357874,-0.021762775,0.009682936,-0.017903076,-0.055450417,0.027029626,-0.028002188,0.06628669,-0.025479065,0.03806843,0.01000179,-0.0483479,-0.006516847,-0.016866263,0.022712339,-0.032119,0.032941647,0.04016729,0.052575223,-0.08419566,0.09600188,0.028380198,0.032890897,0.0032601226,0.012046534,-0.0011862855,-0.07284934,0.06882181,-0.040445697,0.022855408,-0.006126159,0.071895495,0.008069272,-0.03649913,-0.00052876805,0.01403719,-0.048708595,0.090229504,0.027279478,0.004212452,0.021474784,0.032387406,0.005118581,0.04927158,-0.0022645013,-0.015320942,-0.0043735635,0.007160443,0.057548925,-0.055339642,-0.029123517,-0.023417963,-0.043606967,-0.043310024,0.009666785,0.021870429,-0.05404155,-0.050574698,-0.033974454,0.018367758,-0.07180845,0.019405985,0.026937813,-0.024044387,0.038880277,0.06948919,-0.02279323,0.0051688286,0.009398582,0.047104936,0.0743792,-0.048727196,-0.042144712,0.0002921233,0.032972537,0.04713834,-0.011278205,-0.0004727023,-0.015623083,0.03918378,0.026099047,0.032184236,0.032282814,0.0027611388,-0.0050689667,-0.024062078,-0.02932432,-0.020767303,-0.00813567,-0.023113592,0.0035628176,-0.047179207,0.08308397,-0.005522896,-0.03335329,0.029629,0.08542781,0.012775252,-0.0047201538,0.012413951,-0.030285928,0.012234883,-0.038479563,0.03237412,0.0146432305,0.027476791,-0.018857902,-0.069865726,-0.052727718,0.04884155,0.06520131,0.058387812,0.024501018,-0.020185247,0.041062772,-0.016016142,0.016533462,0.018121665,-0.052041743,-0.012820642,-0.023826983,0.01931459,-0.010148906,0.0112375505,0.055241514,0.044171177,-0.038269907,0.09717212,0.015287508,0.018189993,0.025841378,-0.00674618,-0.0054275617,0.0054303785,-0.018211229,0.036353134,-0.045607787,0.005776885,0.035622474,-0.001829528,-0.0056714,0.03615812,0.053143714,-0.037221752,-0.007828917,0.017728537,0.07001856,-0.013699779,-0.04672262,0.05133705,-0.02531743,-0.010234552,0.03034789,-0.037873577,0.080342166,0.009989465,0.08765326,-0.08313187,-0.064181894,-0.016905237,-0.011042912,0.032154243,-0.051850706,0.033854634,-0.014544364,0.030104956,-0.040642355,0.08986964,0.028566007,-0.024949072,-0.024553541,-0.0031576108,-0.030339764,0.032354806,-0.060675424,0.070180066,-0.012637638,-0.01687538,0.024130551,0.020537108,-0.0037787,-0.053952437,-0.025533937,0.024806116,0.025962727,-0.011029275,-0.006878533,0.026618768,-0.0013398343,-0.021781258,0.008737739,0.019310232,-0.022985483,-0.024390755,0.0072013475,-0.044232365,0.08735598,-0.0020924138,-0.038765393,0.018187,-0.07347987,0.11585565,-0.0013745178,0.031419173,0.027718036,-0.010798843,-0.011358805,0.021305447,0.0046628206,-0.07325647,0.007105561,0.013076111,-0.03554663,0.027604852,-0.03758894,0.025162708,-0.039712284,-0.01834575,0.02866072,-0.0316584,-0.010157836,-0.033319946,0.103512175,0.07425393,-0.03678187,0.05241712,-0.025026081,0.021285728,-0.06843677,0.015038221,-0.020759076,0.017663276,0.01916715,-0.019146943,-0.042353913,-0.005111586,0.037131347,0.02204105,0.0669177,-0.034589756,0.04458209,-0.059243098,-0.07215526,0.010592821,-0.059306465,-0.06642425,-0.10875781,0.04106825,0.029614752,-0.011983958,0.0066210954,0.032135837,0.044439804,0.0396202,0.036065456,-0.026390055,-0.02286808,-0.014022476,0.031152787,-0.044684373,-0.035601977,-0.032478195,0.022153918,0.018495657,0.057806775,0.016522598,0.0065881438,0.0060965726,0.008872045,-0.068472885,0.014348048,-0.016123582,0.026105046,-0.007781263,-0.0005244814,-0.0346299,-0.0072187744,-0.00717278,-0.04323683,-0.086930975,-0.058696646,0.019223547,-0.009094962,-0.020990951,0.04368262,-0.00656291,0.02437,-0.056617834,0.029622383,0.0018479202,-0.04908696,0.015906328,-0.04546121,0.052056883,-0.028647574,0.02525213,-0.021730332,0.029768074,-0.014165488,-0.054395366,-0.010992098,-0.04514853,-0.068173386,0.0017239044,-0.012485592,0.035346247,-0.007854917,-0.053709175,-0.0579985,0.052018385,0.021109976,-0.0060063316,0.09302679,-0.07900192,0.04104066,0.02519579,0.07251128,0.014868603,0.019925643,0.02881327,-0.013726494,-0.03250166,0.03425902,-0.012982704,0.062709294,0.048745967,0.018674476,0.038447104,-0.00045312333,-0.054389074,-0.028789215,0.0076750754,0.04543851,0.049999032,-0.02833803,0.015705697,0.027216075,0.059522644,0.006581355,-0.06024135,0.047008153,0.12706156,0.014161413,0.035973012,-0.022150867,0.114935406,-0.007725709,-0.024010852,-0.034836262,-0.039175067,0.018352639,0.050995667,0.012361816,-0.021529557,-0.015547578,-0.014506136,-0.016828835,0.011340996,0.043756206,-0.04566757,0.019339575,-0.0027292306,0.019386834,0.0025297792,0.021977417,0.026902504,0.04733004,-0.055791695,-0.001414791,0.05398875,0.020589707,0.101277195,0.018329848,0.015039804,0.026542196,0.003531563,-0.0016078994,0.003585117,0.012875892,0.03325095,-0.0022437996,0.071743205,-0.039326724,-0.030878117,0.02286232,-0.001977447,-0.030333288,-0.072800145,-0.029261904,-0.0076095364,0.05160308,-0.007901733,-0.07812032,0.03384305,0.0007928387,-0.0065593235,0.05671405,0.017265037,-0.03149709,0.009304089,-0.029779175,-0.048556622,0.049453735,-0.0044508986,-0.018827021,0.014763275,0.053693593,-0.03967357,0.061384868,0.00422029,0.034392912,0.0097740665,-0.004691454,-0.0010319912,0.0011905894,0.014545488,-0.025856772,-0.00921864,0.008396316,-0.11626206,-0.009940903,0.04964319,-0.004199253,-0.012072481,0.043803338,-0.032534193,0.017530503,0.035858374,0.0059897806,0.0087058265,0.042942923,0.055350088,0.047453515,-0.04374037,-0.013663717,-0.004601895,0.0019744546,0.024475832,-0.034469746,0.028164158,0.020387037,0.00019642897,-0.001065903,-0.002208031,-0.046116117,-0.054694723,0.029383218,-0.02479852,-0.031063797,0.07458194,-0.022865431,0.023157407,0.029693516,-0.029815936,-0.05686695,-0.037039258,0.012220118
TEST_012,0.018263683,0.03950685,-0.02672803,-0.015279502,0.050353106,-0.076849215,-0.011075674,0.00061988964,0.04895163,0.011955705,-0.010292007,0.017591596,-0.009916932,-0.057437617,-0.03155941,0.073038414,0.034429256,-0.013722627,-0.009797633,-0.031157611,-0.026363418,0.020711893,0.014254346,0.014933623,0.010576831,0.050554387,0.0606537,-0.0047688643,-0.04246444,-0.027635185,-0.013106779,-0.03796984,-0.06726357,0.004475931,0.050588287,-0.050211683,-0.025252232,0.043408033,0.0552983,0.0683899,-0.024781615,0.019352406,0.05770392,0.03570121,-0.17615385,0.006570725,0.08526185,-0.034994695,-0.013424116,-0.02229479,0.093334876,0.037363864,0.0016756732,-0.022504192,0.025447596,-0.045866977,0.039302845,-0.062036484,-0.0016664764,0.059708454,-0.028156856,-0.055651758,0.0062620775,0.0022799266,0.013914429,-0.0035952376,0.00524261,-0.027192831,-0.008942948,-0.0023070904,0.043259475,0.027235856,0.033699434,-0.009647089,-0.09596121,0.083627366,0.030640123,-0.0065838257,-0.02224399,0.052126408,-0.022421815,-0.0709979,0.08694702,-0.052696347,0.013138004,0.023980115,0.025946729,0.011565401,-0.030470237,0.018282656,-0.00012053782,0.022200247,0.047425978,-0.08903706,0.05672119,-0.009431712,0.021846171,-0.03579777,0.017272472,0.016922772,0.012021298,0.010066359,-0.013654369,0.058037676,-0.04643407,-0.024934415,0.064525664,-0.014475807,-0.07339964,0.032652885,0.061543256,-0.062090706,-0.042797294,-0.048169393,0.036791153,0.065037146,0.0030847383,-0.06988453,-0.041665476,0.054569967,0.025732752,-0.007981511,-0.030770374,0.016328739,-0.04534125,0.04259544,-0.014946008,-0.012633293,-0.050643016,0.024549356,-0.009896214,0.03741948,-0.0103810765,-0.043995053,0.013378912,0.0061618215,0.03301419,-0.0196567,0.02096095,-0.016948031,0.052350897,-0.082631275,-0.04466599,-0.06920978,-0.020201135,-0.023631033,-0.05182912,0.052069206,-0.01222851,-0.06646437,0.044008482,0.019093774,-0.047721036,-0.06387347,-0.015078084,-0.06636157,0.024916945,0.0031756316,0.043268267,-0.025689688,0.043719705,0.04265575,-0.061277084,-0.032133844,-0.03349872,-0.004161491,0.06806302,0.019517392,0.0070544025,-0.018985083,0.011789436,0.014684791,0.049033333,-0.023236105,0.039492495,-0.019747451,-0.054202262,0.015219765,-0.031634234,-0.009302284,0.047596455,-0.054080892,-0.003135693,-0.015920943,-0.08099675,-0.0683685,0.04497524,-0.030837951,-0.04424087,-0.036149103,-0.012911908,0.0039299526,-0.010123803,0.0154105835,-0.03370643,-0.014231656,0.057607185,0.062570475,-0.04255814,-0.062539466,0.0330653,0.045900937,-0.031327143,-0.01842526,0.0036116936,0.007771522,-0.018874027,0.056769907,0.016505517,0.071856014,0.0011776258,0.097069494,-0.07548767,0.0035195206,-0.04034461,0.0043193293,0.02666413,-0.074984916,-0.021720415,-0.032664437,0.005975132,0.016834572,0.093531355,0.0072285803,0.030362863,-0.024981314,0.04236101,-0.090408325,0.027146328,-0.046330657,0.045337703,0.0064483555,0.05285179,0.050032638,0.0061940956,0.09268254,-0.013289034,0.009906067,3.0131603e-05,0.063013114,-0.009596435,0.036367364,0.013256486,0.038764484,-0.026318787,0.01208351,0.007938133,-0.009030809,0.030008882,-0.022555135,-0.10610043,0.09851647,0.024500553,0.0037967493,0.0024209355,0.023465933,0.002470228,0.106125094,0.01979976,-0.018109534,-0.011912446,-0.012411649,0.027958663,-0.025316987,-0.021230321,0.028809858,-0.004662752,-0.043658115,-0.029684203,-0.012440876,0.06263279,-0.10124498,-0.019673055,0.006254228,0.037842043,0.060561053,0.001391493,0.005409095,0.059003737,0.032795314,0.051423,0.0017028947,-0.04154873,-0.034564294,-0.03561547,0.014915474,-0.05588632,0.015793158,-0.0395443,-0.036563516,0.012097872,-0.015044089,-0.046397783,-0.053393632,-0.07025816,0.00240139,0.010604582,0.049717553,0.020753426,-0.043152474,-0.03926817,0.0059900396,0.028378408,0.04035796,0.040650498,-0.09006902,-0.01992102,0.016784146,0.0487109,-0.020398134,-0.058833044,0.01402071,0.0065081986,0.0456315,0.04016812,-0.062443946,-0.051200047,-0.0024230746,-0.032784417,0.009575256,0.025712676,0.04472145,0.040335085,-0.010281058,-0.0045054643,-0.01334447,-0.012341725,-0.029156884,-0.041567426,-0.016957665,0.003746106,0.0058206497,-0.016770644,-0.01834605,0.022343365,-0.02436838,0.056917246,0.041545838,-0.052655272,-0.010771645,-0.034963742,-0.08560441,-0.048288047,0.053435218,-0.045337796,-0.05207814,0.053378373,-0.01614687,-0.014699182,0.026098393,-0.018728554,-0.0014766854,-0.0431636,-0.03456174,0.0074865646,-0.010924681,-0.06157575,0.007111549,0.05032268,-0.06303205,0.060804784,0.027974976,-0.0060270806,-0.08167309,-0.0016617234,0.016305795,-0.039043885,-0.011686985,-0.09172269,0.021971324,0.01782228,-0.00020479411,-0.018558264,0.051961146,0.00911651,-0.005261766,0.04601585,-0.014137746,0.051403236,-0.03430992,0.03438043,0.053028006,0.028692875,0.035478037,-0.022355182,0.012555744,0.03178336,0.018420054,0.08221703,-0.025375335,0.0062510786,0.06126096,-0.012493527,-0.024748811,-0.03700737,0.041975476,0.11697565,0.024050139,-0.007928096,0.0464355,0.03944088,-0.007789079,-0.044159144,0.051828273,-0.0057086735,0.115718424,0.03587182,0.03591108,-0.01939903,0.08260123,-0.047687467,0.00043582864,0.009861714,0.015939735,-0.021023812,0.027600545,0.051013585,0.046321247,0.060036983,-0.011673172,-0.084975705,0.041012686,-0.04980818,0.02084942,0.00674997,0.017427541,0.009765255,0.009297548,0.04861339,0.011710468,-0.0021879817,0.030171674,-0.010846047,-0.027807346,0.026624853,0.011050967,0.024565268,-0.007821392,0.028139664,-0.024375068,-0.004527777,-0.05082906,-0.030668221,-0.022662766,-0.0064618015,0.016065633,-0.019375315,0.014267789,0.053003106,-0.006318432,-0.01080992,-0.040695187,0.012823521,0.007387074,0.05591525,-0.025568344,-0.024025956,0.053155232,0.0028381299,0.0069421907,0.053722776,-0.010077815,-0.06867895,0.08443508,0.06215763,0.041052952,0.02353833,0.016583424,-0.051963307,0.0065454706,-0.0050918977,-0.057895966,0.0074340375,0.035528433,-0.04984364,0.043348424,-0.028105317,0.023255063,-0.103255436,-0.025835553,-0.0022239243,0.087876394,0.08574486,0.05000281,-0.008760652,0.016651858,0.060146715,0.041781243,0.007370358,0.03694868,0.024461847,0.03534376,-0.0140449,0.0013546419,0.023792122,0.048095465,-0.0807946,0.032972198,-0.024613857,-0.08328603,0.07242595,-0.018873671,0.008360985,0.022840003,-0.026641773,-0.05823906,0.015406131,0.06051788,-0.008182614,-0.014803722,-0.033204626,0.0051392415
TEST_013,-0.0050709504,-0.030158345,-0.0036528313,-0.0005889963,0.116217285,-0.030077325,0.029506177,0.08106446,0.06322963,0.02288125,-0.079626575,0.028414823,-0.017572919,-0.08518202,0.0091379825,0.007216117,0.047249205,-0.0028685604,0.0037087759,0.044020165,-0.038234208,-0.004625118,-0.030054314,0.018629419,0.056466587,-0.02480702,0.0301828,0.016887486,-0.06649194,0.013664717,-0.03512984,-0.055904843,-0.035003293,0.032947265,0.046621077,0.007883472,-0.03613175,0.03241487,0.071436144,0.03291735,-0.01921033,0.033117145,0.023132289,-0.010964006,-0.10595039,0.053668145,0.01358543,-0.032037403,-0.040097196,-0.021629265,0.06446827,0.020499296,0.06856594,0.019359298,0.050083857,-0.05423927,0.0008887637,-0.008209918,-0.0003091693,0.007258298,0.0014114571,-0.027762948,0.030885328,0.010791003,0.045470163,0.0575371,-0.013669933,-0.025209323,-0.048416667,0.051728602,0.028330972,-0.00917327,0.088874206,0.034959525,-0.054121837,0.078736626,-0.025791222,0.025195701,0.035878945,-0.015230653,-0.013575851,-0.07688203,0.0800493,-0.0040359604,0.01991968,0.0036286744,-0.007684216,-0.01724005,-0.04312282,0.029309604,-0.07354642,-0.024340712,0.07708439,-0.03125173,0.039058067,0.035811737,-0.018266847,0.013751784,0.04188945,0.012245913,-0.034307014,0.019016376,-0.033554904,0.06857808,-0.061862916,-0.015953027,0.03173175,-0.0147550525,-0.061288882,0.024354644,0.03623647,-0.05806889,-0.062737174,-0.081153005,0.019768242,-0.030239463,0.05155615,-0.051620685,-0.033919316,0.025737906,-0.018982982,-0.009686944,-0.047500078,0.01064118,-0.02224454,0.0063921413,-0.049203888,-0.035205875,-0.024025086,-0.02628622,0.0021240255,0.009581659,-0.025536874,-0.06344176,0.009046953,0.0039755995,0.00026047742,0.036946386,-0.0034412646,0.001960751,0.00797158,-0.07111504,-0.039654396,-0.0065959706,-0.06560616,0.020061668,-0.005755546,0.07249117,0.025503576,-0.012518645,0.0689669,0.057348784,-0.0016293344,-0.0963116,-0.0019295993,-0.030885264,0.03811761,-0.0131923305,0.03716985,0.036353543,0.014562395,-0.026908467,-0.02605886,-0.056448027,-0.046418298,0.031795964,0.023645226,0.05270286,-0.012106523,0.0065001217,-0.025115862,0.008781608,0.042299293,-0.009568757,-0.012428114,-0.037896596,0.0044165105,0.039973993,0.019247007,0.014740981,0.026327172,-0.05934305,0.014861134,0.038028747,-0.006953215,-0.06399115,0.00065157446,0.005886729,-0.008993107,0.029037101,0.025557535,-0.02635189,0.020051926,-0.012230187,-0.02676922,-0.010451272,0.049064647,0.054102845,-0.10519139,0.012351523,0.0524741,0.091538444,-0.07713288,-0.036224734,0.025974242,0.008822821,-0.009141049,0.0671481,-0.064518794,0.122135535,-0.0010226321,0.14651588,-0.042792525,-0.06967448,-0.03810752,-0.028183602,0.05952584,-0.08283339,0.0037380941,-0.018393096,0.050968256,-0.031839006,0.066762425,-0.025670405,0.02855872,-0.024639245,0.04101995,-0.007342884,0.060991615,-0.052230638,0.060413837,-0.027083242,0.0049720253,0.027946379,0.031803817,0.06366761,0.017265048,-0.0107754655,-0.0148761645,0.052463777,-0.0064873556,5.4300763e-05,0.047626797,-0.032220073,-0.033809945,0.034172535,-0.006690519,-0.014314266,0.026242921,-0.03251251,-0.03246616,0.061803505,-0.01963579,-0.002267386,0.0032870714,-0.008617958,0.03704754,0.037920512,0.029920805,-0.017275695,0.008947894,0.0037086105,0.031110382,-0.013347031,-0.09409727,0.029137893,0.018016705,-0.04113345,-0.020275231,-0.01878613,0.012666554,-0.098150074,-0.020828873,0.019135386,-0.0012872249,0.002439765,-0.0012383767,0.035911165,0.061523538,-0.050334282,0.02582472,-0.0097596655,-0.0122155305,-0.08247529,0.018949185,0.0056957346,-0.0002821968,0.011036219,-0.018561643,-0.0075801234,0.023401454,0.033392396,0.023912337,0.07215484,-0.05329546,0.036490433,-0.023929818,-0.01698173,-0.011929799,-0.04632507,-0.027208721,-0.043624796,0.046180412,0.028320763,0.034585167,-0.044934385,0.041761562,0.017621035,0.039981358,0.036706965,-0.06594904,-0.00092589896,0.04251908,0.0550021,0.010533756,-0.06334632,-0.07315974,0.022940924,0.0024281172,0.06749227,0.08535013,-0.017241169,0.04219521,-0.023756377,-0.069084294,0.03782383,0.00872095,0.024794046,-0.020021599,-0.009591951,-0.005250363,0.011296315,0.035990432,-0.05326713,-0.020767333,0.011341814,0.019725427,-0.045139037,-0.031944532,-0.010092234,0.011927277,-0.040435895,-0.04916603,0.027858445,-0.023842704,0.01875554,0.04780264,-0.05613037,-0.01766568,-0.0046879184,-0.032416724,-0.027661433,-0.012164158,-0.008041969,-0.017961971,0.0018248447,-0.06989235,0.0047604046,0.012982394,-0.015029317,0.03429856,-0.056434922,-0.056907147,-0.040678564,0.040825747,0.070014805,-0.017181594,0.058091786,-0.076433085,0.099020965,0.013367794,0.03913782,-0.022034004,0.051551905,0.029681668,-0.046587687,0.03895445,0.05754557,0.03340625,-0.0052686245,0.07385738,0.0053122914,0.015798727,0.033124864,-0.0141568165,0.03304551,-0.0049808086,0.026487596,0.019622773,-0.017610107,0.013358527,0.016141178,0.0145318955,-0.02582712,-0.07091517,0.020859579,0.08943692,0.020852385,0.040109195,0.027928136,0.06752464,-0.017035829,-0.01586745,0.036167327,-0.042658873,0.049217142,0.008421521,0.012507233,0.012211531,0.022710608,-0.0009144454,-0.02315802,-0.028994638,0.057128556,-0.052473493,0.00095938373,0.009713681,0.05071221,0.033625778,-0.016150074,-0.015628701,0.07072366,-0.067835726,0.033567104,0.0406459,0.042189904,-0.01651888,0.020755183,-0.016860472,-0.027859727,-0.021393094,0.025747515,-0.023881808,-0.0017821272,0.029441,0.017882315,0.03314018,-0.0018865118,0.00448807,0.036063403,-0.024962695,-0.057765044,-0.07179777,-0.0041169105,0.0138643645,0.02740165,-0.041780647,-0.034250453,0.08864243,-0.029093115,0.006570663,-0.005866764,0.024338434,0.006539328,0.027750274,-0.010972445,-0.0914467,0.06489385,-0.005296842,-0.026067322,0.011541356,-0.002598322,-0.03354053,0.11277661,0.008915588,0.07558847,0.026969869,0.012014379,0.006830303,-0.008357649,0.0073535065,-0.019717742,-0.02332454,0.0063902256,-0.058317795,0.0024949415,0.035815608,0.022370694,-0.06538066,-0.008019662,-0.013649249,0.06578125,0.031592675,0.056180842,0.012093659,0.013970394,0.010820176,0.037207913,-0.012722669,0.0013745031,0.051897906,0.06629475,-0.0040168935,0.018342106,0.058031745,0.02476225,-0.026154073,0.010659329,-0.020575574,-0.03967974,-0.016540846,-0.003736983,-0.011634692,-0.06469234,0.06674119,-0.015608269,-0.013581509,0.07086458,0.0013690061,-0.032523897,-0.0048217075,0.033227585
TEST_014,-0.0055916267,-0.00025058823,-0.023466112,-0.020491783,0.11975664,-0.013576187,0.010712982,0.011689252,0.034490924,0.011972757,-0.0535674,0.0151386345,0.00032436755,-0.034323912,0.0021138012,-0.0033298074,0.04724969,-0.023829745,-0.029509142,0.017775314,-0.008175513,0.017036665,-0.04644358,0.009478553,0.01960167,-0.026901796,0.015110579,0.037992854,-0.07592819,0.019781575,-0.020937832,-0.004659574,-0.030401291,0.042649005,0.05400371,0.048253216,-0.022028064,0.049973503,0.030861638,0.007099153,0.024454849,0.05570814,0.0057736854,0.06808988,-0.030615784,0.023301749,0.032942902,-0.02268437,-0.02513203,-0.006193569,0.065613285,-0.02798406,0.04855491,-0.017531022,0.057599425,-0.051581547,-0.0048894333,-0.06318965,-0.0149234785,-0.0215083,-0.0021059758,-0.04612208,-0.009340553,-0.048281126,-0.054682508,0.010638597,-0.039351724,0.0051347357,0.044424124,0.037257053,-0.031136451,-0.004968116,0.06816955,0.03884507,-0.0032807412,0.071164235,0.056897163,0.053450182,0.010708924,0.037429176,0.003927277,-0.07617216,0.050608702,-0.016240282,0.032894332,0.023208724,0.011309066,0.003268593,0.004365628,0.085764125,-0.038639337,-0.038603585,0.045932658,-0.03052371,0.050485935,0.022194937,-0.009667134,-0.007201798,0.046401504,-0.011452828,-0.0023887455,0.028845115,-0.01304701,0.05643359,-0.06652154,-0.0037654599,-0.020386681,-0.06954041,-0.05658812,-0.004826235,0.05788316,-0.055856768,-0.0556787,-0.031562448,0.026877418,0.024738735,-0.016381044,-0.0025933224,-0.0291148,0.02660295,-0.015666438,-0.03626772,-0.006572515,0.03592842,-0.024881177,-0.012444356,-0.07318236,-0.04521418,-0.004600631,0.018299473,-0.021474335,0.023192428,0.0042299703,-0.0592843,0.03919513,0.0057467287,0.006148077,0.007869745,0.0131373415,0.056224372,-0.001600252,-0.102762386,-0.033640977,-0.052539375,-0.034341924,-0.005019561,0.012828804,0.08176468,-0.017669698,-0.01673755,0.044825543,0.12572253,0.040870756,-0.07345696,0.00042271876,-0.022952123,-0.019917252,-0.0037297406,0.10261602,-0.021907162,0.025610434,0.009275464,0.022519032,0.011548314,0.015342175,-0.038299475,0.029358812,-0.002744344,-0.016917728,0.04383044,0.005654968,0.0012126149,0.034831118,-5.699112e-06,-0.011786039,0.017276093,0.025581354,-0.02839598,-0.018135037,0.04701777,0.018598396,-0.06729899,0.033461824,0.011739555,-0.049274094,0.015388273,0.023002945,0.005162012,-0.037835687,0.034832876,-0.012656317,-0.041038677,-0.029965453,-0.0036707462,-0.03241001,0.020375796,-0.014706942,0.047808576,-0.08717015,0.08212477,0.012237549,0.07397272,-0.051228996,-0.025023231,0.08161171,-0.020908115,-0.037283815,0.017860692,-0.008837281,0.036324386,-0.04851517,0.11056785,-0.07188087,-0.044650707,-0.055717293,-0.015165083,0.03899157,-0.036271106,0.00032566814,-0.040559787,0.06405962,0.0054401825,0.00042870556,0.005292369,0.016066218,0.04594544,0.016240422,-0.052853446,0.058571536,-0.035901323,0.0612133,0.020780008,0.021757716,-0.004013039,0.035650156,0.06191412,-0.03892926,0.018792907,0.031833246,0.021726847,-0.019170573,-0.012016943,0.0620336,-0.057149913,-0.0060713077,0.040438734,0.00030518603,-0.011681841,-0.00091143884,0.007490265,-0.060207818,0.046726994,0.003655965,-0.05478887,-0.0106330225,-0.026415471,0.027740423,0.037425824,0.006816293,0.0154282,0.004298781,-0.044109426,-0.015169236,-0.019649332,-0.044505958,0.034856074,-0.0201248,-0.050834633,-0.028242143,-0.0161556,-0.03932261,-0.109738596,-0.051372346,0.02601137,0.023639401,-0.024265002,0.044719905,0.0560805,0.047637746,-0.10187259,0.048280668,0.002617516,-0.0019445091,-0.10377797,0.031893153,-0.0034697573,0.012270044,-0.022135323,-0.021089736,0.00964464,0.026266241,0.009624454,0.032573987,-0.009961762,-0.044702925,0.03069757,-0.025971405,0.021019489,-0.004522793,-0.06312513,-0.032935735,-0.07155855,-0.0192272,0.04705539,0.022667544,-0.03931009,0.06463224,-0.00048965303,0.06918879,0.038539346,-0.019983435,-0.04665523,0.04140036,0.035337165,-0.009790793,-0.05234886,-0.019630924,0.005489061,0.017966034,0.07406177,0.0807123,-0.0002493795,0.0032768142,-0.014080808,-0.008322644,-0.013546257,0.025806485,-0.020080786,0.004779607,0.003670109,-0.021257734,0.0045760516,0.02000211,-0.052425414,0.0093046175,-0.029236123,-0.0046581235,-0.030646784,-0.042021714,-0.057366587,0.016559714,-9.676663e-05,-0.033148635,0.043419514,0.03934501,0.0312724,0.005211084,-0.07507023,-0.034614567,-0.05105191,0.022551307,-0.028027767,-0.06034172,-0.0054809013,-0.018293628,-0.010630747,-0.096819,0.0099502625,-0.04110281,-0.016524617,0.057452515,-0.049943626,-0.022669103,-0.03539687,0.026633708,0.0051781707,-0.042411454,0.028519552,-0.05118956,0.01252544,0.024590492,0.018926488,-0.0019015779,0.035378233,-0.019076759,-0.009507165,0.046468586,0.050735667,0.018483436,-0.0033131111,0.044704452,0.03826172,0.06361023,0.060112253,-0.0044813417,-0.012555412,-0.012966219,0.0600244,0.0787317,-0.01887613,-0.0020442454,0.020969227,0.013728745,-0.06698918,-0.052906968,0.07246117,0.003296953,-0.015584542,0.02839958,0.047132023,0.051827613,-0.013134604,0.011090513,0.004169008,-0.016898016,0.03098438,0.064504385,0.034064807,0.02120532,0.07008677,0.010220258,0.039138287,0.045853753,0.039399195,-0.045986284,0.009466747,0.040093843,-0.011230147,0.035711586,0.014266477,-0.0065155653,0.071395025,-0.09313382,0.059538413,0.025006117,0.07361237,-0.030626649,0.050694495,0.054684646,-0.042295158,-0.081163056,0.012373555,-0.013192826,0.0070630535,0.036854282,-0.031234965,0.038019214,0.035249237,-0.011614027,-0.013900193,-0.010186402,-0.035639547,0.013958725,-0.030004345,-0.03359069,0.027889946,-0.05587499,0.03728058,0.07757876,-0.015828766,0.006001905,-0.033778705,0.02275534,-0.0906697,0.034476373,-0.074440494,-0.06424655,0.004872357,0.054780338,-0.038025286,0.016419295,0.048328094,0.0071591213,0.071136385,-0.0025001976,0.06084511,0.02684744,0.007011332,-0.022335725,-0.056347582,0.02856027,0.003122474,-0.022598952,0.0019704048,0.015799966,0.026937371,-0.0037591222,0.0033458383,-0.061227582,0.038570296,-0.026109135,0.010938231,0.040510315,-0.020121127,0.001045352,0.022699382,-0.01472217,0.0068198345,-0.008870226,0.028002225,0.054714147,0.060963683,-0.05162686,-0.004460892,0.08423896,0.0815536,0.03943235,-0.009070248,0.005441548,-0.051473342,0.0040416163,0.05536771,-0.0060248594,0.00129214,-0.015952988,-0.028833317,-0.0016647273,0.0721963,-0.019185724,-0.00095288607,-0.04733849,-0.012544137
