id,vec_0,vec_1,vec_2,vec_3,vec_4,vec_5,vec_6,vec_7,vec_8,vec_9,vec_10,vec_11,vec_12,vec_13,vec_14,vec_15,vec_16,vec_17,vec_18,vec_19,vec_20,vec_21,vec_22,vec_23,vec_24,vec_25,vec_26,vec_27,vec_28,vec_29,vec_30,vec_31,vec_32,vec_33,vec_34,vec_35,vec_36,vec_37,vec_38,vec_39,vec_40,vec_41,vec_42,vec_43,vec_44,vec_45,vec_46,vec_47,vec_48,vec_49,vec_50,vec_51,vec_52,vec_53,vec_54,vec_55,vec_56,vec_57,vec_58,vec_59,vec_60,vec_61,vec_62,vec_63,vec_64,vec_65,vec_66,vec_67,vec_68,vec_69,vec_70,vec_71,vec_72,vec_73,vec_74,vec_75,vec_76,vec_77,vec_78,vec_79,vec_80,vec_81,vec_82,vec_83,vec_84,vec_85,vec_86,vec_87,vec_88,vec_89,vec_90,vec_91,vec_92,vec_93,vec_94,vec_95,vec_96,vec_97,vec_98,vec_99,vec_100,vec_101,vec_102,vec_103,vec_104,vec_105,vec_106,vec_107,vec_108,vec_109,vec_110,vec_111,vec_112,vec_113,vec_114,vec_115,vec_116,vec_117,vec_118,vec_119,vec_120,vec_121,vec_122,vec_123,vec_124,vec_125,vec_126,vec_127,vec_128,vec_129,vec_130,vec_131,vec_132,vec_133,vec_134,vec_135,vec_136,vec_137,vec_138,vec_139,vec_140,vec_141,vec_142,vec_143,vec_144,vec_145,vec_146,vec_147,vec_148,vec_149,vec_150,vec_151,vec_152,vec_153,vec_154,vec_155,vec_156,vec_157,vec_158,vec_159,vec_160,vec_161,vec_162,vec_163,vec_164,vec_165,vec_166,vec_167,vec_168,vec_169,vec_170,vec_171,vec_172,vec_173,vec_174,vec_175,vec_176,vec_177,vec_178,vec_179,vec_180,vec_181,vec_182,vec_183,vec_184,vec_185,vec_186,vec_187,vec_188,vec_189,vec_190,vec_191,vec_192,vec_193,vec_194,vec_195,vec_196,vec_197,vec_198,vec_199,vec_200,vec_201,vec_202,vec_203,vec_204,vec_205,vec_206,vec_207,vec_208,vec_209,vec_210,vec_211,vec_212,vec_213,vec_214,vec_215,vec_216,vec_217,vec_218,vec_219,vec_220,vec_221,vec_222,vec_223,vec_224,vec_225,vec_226,vec_227,vec_228,vec_229,vec_230,vec_231,vec_232,vec_233,vec_234,vec_235,vec_236,vec_237,vec_238,vec_239,vec_240,vec_241,vec_242,vec_243,vec_244,vec_245,vec_246,vec_247,vec_248,vec_249,vec_250,vec_251,vec_252,vec_253,vec_254,vec_255,vec_256,vec_257,vec_258,vec_259,vec_260,vec_261,vec_262,vec_263,vec_264,vec_265,vec_266,vec_267,vec_268,vec_269,vec_270,vec_271,vec_272,vec_273,vec_274,vec_275,vec_276,vec_277,vec_278,vec_279,vec_280,vec_281,vec_282,vec_283,vec_284,vec_285,vec_286,vec_287,vec_288,vec_289,vec_290,vec_291,vec_292,vec_293,vec_294,vec_295,vec_296,vec_297,vec_298,vec_299,vec_300,vec_301,vec_302,vec_303,vec_304,vec_305,vec_306,vec_307,vec_308,vec_309,vec_310,vec_311,vec_312,vec_313,vec_314,vec_315,vec_316,vec_317,vec_318,vec_319,vec_320,vec_321,vec_322,vec_323,vec_324,vec_325,vec_326,vec_327,vec_328,vec_329,vec_330,vec_331,vec_332,vec_333,vec_334,vec_335,vec_336,vec_337,vec_338,vec_339,vec_340,vec_341,vec_342,vec_343,vec_344,vec_345,vec_346,vec_347,vec_348,vec_349,vec_350,vec_351,vec_352,vec_353,vec_354,vec_355,vec_356,vec_357,vec_358,vec_359,vec_360,vec_361,vec_362,vec_363,vec_364,vec_365,vec_366,vec_367,vec_368,vec_369,vec_370,vec_371,vec_372,vec_373,vec_374,vec_375,vec_376,vec_377,vec_378,vec_379,vec_380,vec_381,vec_382,vec_383,vec_384,vec_385,vec_386,vec_387,vec_388,vec_389,vec_390,vec_391,vec_392,vec_393,vec_394,vec_395,vec_396,vec_397,vec_398,vec_399,vec_400,vec_401,vec_402,vec_403,vec_404,vec_405,vec_406,vec_407,vec_408,vec_409,vec_410,vec_411,vec_412,vec_413,vec_414,vec_415,vec_416,vec_417,vec_418,vec_419,vec_420,vec_421,vec_422,vec_423,vec_424,vec_425,vec_426,vec_427,vec_428,vec_429,vec_430,vec_431,vec_432,vec_433,vec_434,vec_435,vec_436,vec_437,vec_438,vec_439,vec_440,vec_441,vec_442,vec_443,vec_444,vec_445,vec_446,vec_447,vec_448,vec_449,vec_450,vec_451,vec_452,vec_453,vec_454,vec_455,vec_456,vec_457,vec_458,vec_459,vec_460,vec_461,vec_462,vec_463,vec_464,vec_465,vec_466,vec_467,vec_468,vec_469,vec_470,vec_471,vec_472,vec_473,vec_474,vec_475,vec_476,vec_477,vec_478,vec_479,vec_480,vec_481,vec_482,vec_483,vec_484,vec_485,vec_486,vec_487,vec_488,vec_489,vec_490,vec_491,vec_492,vec_493,vec_494,vec_495,vec_496,vec_497,vec_498,vec_499,vec_500,vec_501,vec_502,vec_503,vec_504,vec_505,vec_506,vec_507,vec_508,vec_509,vec_510,vec_511
TEST_000,-0.0013289728,0.030482428,0.021362653,-0.036033493,-0.012455179,-0.015028882,0.025206473,0.09216242,0.06710301,0.013660832,0.02166289,0.0053465487,-0.028523693,0.0011547194,0.021283606,0.05947016,0.0143435225,0.046591926,-0.03637077,-0.0142840715,-0.08604617,0.030964583,-0.022142308,-0.04426125,0.054550853,0.007062254,0.015894953,0.0034723019,-0.007815042,0.044179752,-0.0130563695,0.025778115,0.045256294,-0.06627282,0.050373197,0.017555384,0.079201266,0.025410425,-0.03600496,0.033063192,0.06837797,-0.008839859,-0.007345528,-0.026378123,0.086004764,0.048935864,-0.049359497,-0.10174119,-0.00041972983,0.02466534,0.017210113,-0.023894591,0.011437019,-0.014094938,0.03890743,0.0173658,-0.0015558625,-0.01384721,0.006502385,-0.0010878409,-0.08112648,-0.046857476,0.014413625,-9.163865e-05,0.040988017,0.03329297,7.5476244e-05,-0.04735249,0.003988208,0.040692244,0.018892964,0.0021633331,0.031080425,0.030659664,0.0040791524,-0.04333462,0.049301617,0.037013985,-0.014357665,-0.004912531,0.0035130545,-0.08924899,0.08074784,0.050091945,-0.019699575,-0.045377318,0.06293193,0.000683835,0.026165254,0.054376204,0.010185553,0.00087235845,-0.017384307,-0.018210268,-0.09423467,-0.009779858,0.016216632,-0.081711456,-0.02148877,-0.023614788,-0.050915886,-0.06392263,-0.0074327565,0.054433335,-0.027875317,0.012530366,0.0592663,0.05125899,-0.022689033,-0.002170604,0.02910971,-0.007928711,-0.047437247,0.030298896,0.014010498,-0.012290516,0.035248507,0.034498513,-0.023759646,0.00952693,0.038471453,0.06997976,-0.023669697,0.08587525,-0.016697213,0.034891397,0.014802836,-0.02714149,0.04407143,0.042844456,0.044938277,0.010972175,-0.037405156,-0.047654238,-0.028511543,-0.058960285,0.032454163,-0.03283619,-0.04167543,0.03610575,0.0028828732,-0.089139074,0.023329599,-0.045165773,-0.019927368,-0.023268191,0.012275344,-0.041933134,-0.028636763,0.016710281,-0.032535262,-0.004560954,-0.008377254,0.027735561,-0.018492935,-0.046899118,0.013440528,-0.02837138,0.024180602,-0.051641677,-0.025434196,-0.03659711,0.10231656,0.0133220535,-0.035065353,0.027699836,0.009666995,0.025950754,0.020559343,-0.043086912,0.050087575,-0.002035397,0.015767954,-0.016190523,0.010536405,-0.034651555,-0.036123432,-0.032336418,-0.02872738,-0.022914343,0.03873762,-0.022439614,0.05620271,0.087195985,-0.024392761,-0.07585859,0.04448885,-0.038047098,0.017677242,-0.09373874,0.0017928642,-0.010979125,0.021682486,0.02776955,0.005435248,0.019041076,0.059514698,-0.010311103,-0.053866863,-0.038914237,0.04409192,-0.021022065,-0.009716069,0.040147945,-0.050554447,0.04125596,0.005210666,-0.025856588,0.07605577,-0.027963517,0.08278046,0.026459856,-0.027540833,0.020797253,-0.027140295,0.003474533,-0.005333245,-0.038616814,0.046684362,-0.066048466,0.0069455323,0.034876306,0.06242387,-0.001490011,-0.017465113,-0.04230563,-0.010754499,0.04432331,-0.015019588,-0.03013483,-0.052346915,-0.029008416,-0.009086813,0.009285266,-0.033615563,0.0714696,0.0074895225,-0.026444217,-0.02194814,0.0066303606,-0.0375191,-0.033297714,0.0074957362,0.024485797,-0.014984241,0.040646583,0.0018682448,-0.0293001,-0.076472186,-0.06128473,0.028688729,0.0063449778,-0.056648586,-0.06720257,-0.026094131,0.016630465,0.0129770525,0.011367669,0.03420293,0.04606637,0.03985063,0.015397426,0.042626802,0.027474377,-0.02165759,0.019272527,-0.04816013,-0.04176166,-0.047006067,0.062085513,0.039066385,0.025768898,0.05367367,-0.0121907,0.0569304,-0.053428225,0.0057536466,-0.012748854,0.018793311,0.020811858,-0.0012696106,-0.049087252,0.055313278,0.025987554,0.042346906,-0.030203277,-0.030293856,-0.015257103,-0.030274533,0.048633903,0.022188324,-0.012466581,0.018024584,0.033800498,-0.10517421,-0.04252549,0.020794233,0.015397071,-0.011601,-0.012302132,-0.0051660747,-0.03676812,-0.024339369,0.010611812,0.09994354,-0.017915444,0.008578123,-0.07018881,-0.010917354,-0.0368386,0.03424414,-0.04428005,0.004293299,0.0012378244,-0.039290667,-0.029980903,-0.04647887,0.0141025605,-0.019851997,-0.013132048,0.0027836848,-0.007766823,-0.07034859,0.044164255,-0.01354828,-0.04490153,-0.024400659,0.0033659365,-0.03912897,0.051303662,-0.023369951,0.00883008,0.03923319,-0.07192491,-0.009679234,0.0082287155,-0.06903279,-0.002103465,0.0005806487,0.020746328,-0.090350084,0.045170803,0.008656086,0.061078258,-0.009082945,-0.028797738,0.06828956,0.08926181,-0.008714103,-0.06326255,-0.03412514,0.023231221,0.059453018,-0.06232007,0.007347576,-0.03100082,-0.013502411,-0.046429016,0.031008843,-0.033543624,0.05455163,-0.0010659153,0.0021732354,-0.067476824,-0.025288362,0.05569326,-0.017100958,0.034820788,-0.031528298,-0.04071956,-0.11417887,-0.012066975,-0.016990168,0.008443266,-0.05498603,0.063494906,0.012733116,0.0029977916,0.023692543,-0.04976336,0.1046753,0.021273244,-0.013572264,-0.06957299,0.007571243,-0.023139298,-0.041304804,-0.0028609612,0.056139268,-0.011248514,0.033118814,0.05511217,0.0125625655,-0.05342017,0.056476,0.022565095,0.029641116,0.03143793,0.0030446793,-0.021237563,0.046124358,-0.052555516,0.043455265,-0.032594275,-0.0046902797,-0.031472187,-0.021732861,0.05340559,-0.075375885,0.019913623,-0.0052078343,-0.0459202,0.05600379,-0.0059835305,-0.008677877,-0.05539401,-0.01498627,-0.02485824,-0.024531884,-0.015078033,0.08135534,0.085222214,0.014268101,-0.005779908,0.09869485,0.049841765,0.041241102,-0.060954142,-0.006402403,-0.036982745,0.0025986168,0.028119858,-0.07764215,-0.013300136,0.052553385,0.08379397,0.024749674,0.03255967,-0.010520433,-0.04804812,-0.014657783,-0.052953985,0.03479834,0.037966393,-0.021299854,0.028310275,-0.055359215,-0.03319073,0.0060574426,-0.029608341,0.004226691,0.009373133,-0.005596471,-0.09868872,0.055212528,-0.05527972,-0.0037896761,-0.05942334,0.013323677,-0.0389288,0.019457554,0.07293231,-0.041304972,0.0624757,0.02497219,0.11094555,0.00829768,-0.027167112,0.0137902675,-0.121628486,0.03996279,0.02730941,-0.012918426,-0.019954424,-0.087226056,0.019035572,-0.044752244,-0.017175244,-0.07857904,-0.06694827,0.013838406,0.04621097,0.0139781125,0.019007329,-0.042198256,-0.081877485,-0.0041950066,0.016801944,-0.040253248,-0.052884832,-0.007208959,0.033329953,-0.019072874,-0.009479219,0.036091454,-0.03889285,-0.03766984,-0.033940233,-0.06475634,-0.02997586,0.041982803,0.02852987,-0.005508582,0.0019066995,-0.025703669,-0.02573426,0.032642864,0.020671634,0.037990198,0.022696102,0.01742321,0.06011812
TEST_001,-0.007991039,0.041731518,-0.05892448,0.024841793,0.036405887,-0.01988605,-0.022381632,-0.05672613,-0.03121062,-0.02196263,-0.1053493,0.042310726,-0.0049636206,0.008594617,-0.069858685,0.0075529898,0.06403207,0.020713914,-0.03570418,0.0105055,-0.035064492,-0.032439813,-0.07805793,0.02218175,0.07691615,0.042600036,-0.008553024,0.07385906,-0.02465253,0.008062274,-0.01544805,0.08597151,-0.00062501285,-0.009415434,-0.0056697354,0.019395212,-0.025306156,-0.023128876,0.052042533,0.056841094,0.09746475,-0.018092431,-0.020837363,0.011206398,0.020031525,0.018741379,-0.0054415353,-0.058326997,-0.09384444,-0.059003755,0.06480045,0.02137194,0.06667243,-0.0034369994,0.029796721,-0.003625094,-0.021951577,0.023408243,-0.03910584,-0.05617799,0.056569677,-0.030825954,-0.0013857712,-0.02002333,-0.062685125,0.036526527,0.03160755,-0.0008400784,0.026390659,0.008014295,0.1408427,0.05065529,-0.011906099,-0.10786843,0.019743877,-0.058804885,-0.0573505,0.02269352,0.0019727692,-0.008109694,0.01683956,-0.051734116,0.02766234,0.037552975,0.041861128,-0.018887665,0.0643824,-0.07633134,0.029838584,0.032892942,0.040955547,0.07525454,-0.046144,-0.0018004504,0.023472747,-0.044524953,0.018443901,-0.029347744,-0.011710366,-0.00020623737,-0.02668449,0.029445933,-0.07080275,0.048771508,0.0028437723,-0.018901996,-0.020405548,0.007372547,-0.021604288,0.01782605,0.006574813,0.07695753,-0.049836624,-0.007519655,0.080066815,0.018628657,0.04986414,-0.08304355,0.09004602,-0.022694351,-0.013262746,0.002250573,0.0526535,0.040725265,-0.009872101,0.030732028,0.031525593,-0.011745531,-0.017458348,-0.020849934,0.0013254281,-0.0063531203,-0.043470137,-0.01222096,0.048282627,0.016532268,-0.017470848,0.010061143,0.028720964,-0.008038975,-0.005483891,-0.09517396,-0.009813542,-0.027834805,-0.12757108,-0.010628014,0.007699392,0.05682849,-0.009545203,0.09581397,-0.023417883,-0.071888626,-0.029862117,-0.030183444,0.07222848,-0.009421014,0.011569659,-0.03688128,-0.0058245766,-0.0004960675,0.008361634,-0.12685283,0.010823323,-0.018496312,0.023670793,-0.02155338,0.087334335,-0.050502013,0.02983699,0.0052303784,0.0021386757,0.06734278,-0.08736469,-0.085590534,-0.06433304,-0.13199343,-0.12006136,-0.028506853,0.06394746,-0.0644073,0.066961214,0.06011305,0.052492574,-0.032119084,0.015479308,-0.08292762,-0.066609755,-0.0046682735,-0.054329332,0.005980497,0.012804386,-0.03332783,0.018022886,-0.013388059,0.017780073,-0.0057873954,0.017370857,0.027960012,0.013735302,-0.019826137,0.06429422,0.03454738,0.04617693,0.049782515,-0.015565536,-0.0025952894,0.011972496,0.010932587,-0.050367348,-0.027650751,-0.0171846,0.0049637845,0.0009745431,-0.08784053,-0.04427987,0.040149365,0.051298164,-0.005891623,-0.006277059,0.026091233,0.02187997,-0.08543385,0.024001632,-0.024173548,-0.024137005,0.023843428,-0.010401416,-0.031502277,0.017416699,0.084686466,0.0031046674,0.012605685,-0.043395422,-0.005645364,-0.018785043,0.06725859,-0.037039656,0.0021148329,0.049401868,0.061143704,-0.042044636,-0.06884059,-0.003314636,-0.04427638,-0.037469883,0.022993319,0.027346753,0.016500091,-0.01215313,0.014688941,0.07031634,0.04741607,-0.025281291,-0.020349886,-0.008911909,-0.044265658,-0.009301648,0.027465278,0.013350502,0.021218246,-0.009339811,0.032844838,-0.06712079,0.05814814,-0.009430049,0.01193195,0.07055419,-0.04772509,-0.054918095,-0.00128642,0.05621121,0.059026,0.0036571873,0.0028076633,0.020136937,0.010075595,-0.0123495385,-0.041802905,0.023915779,0.03204477,-0.060993362,0.057601865,0.022867607,-0.03800373,0.0013048823,0.017999109,0.008460644,0.00117208,-0.015235605,0.036137465,0.03413306,0.000713284,-0.043767158,0.04991611,0.04011015,0.011116816,0.032481678,0.016583016,-0.03578854,0.09232159,0.051478997,-0.0346944,0.042529397,0.0097398115,0.017806394,-0.080268584,0.026488584,0.0036967904,0.058398288,0.006333353,-0.060664147,0.036719628,-0.040527195,-0.044125766,-0.008466329,0.026564186,-0.008304328,0.037250064,0.007291966,0.011903707,0.04353849,-0.011497219,-0.009828694,0.013426392,0.024824036,0.016213194,0.0552984,0.00798359,-0.005376021,0.04629758,0.045900032,-0.06869176,0.027791055,-0.04835574,0.011423243,0.016447386,-0.00205383,0.01538271,0.0075329114,-0.050303016,-0.06360622,0.0073455893,0.0007339128,0.027203687,-0.06815306,0.072136156,-0.0036055602,0.047262087,-0.009092149,-0.038230058,-0.066309445,0.010958632,0.107080065,-0.07662079,-0.018369237,-0.016529659,-0.015938062,-0.007189111,0.034510024,-0.034795485,-0.05493807,-0.005144876,0.021267321,0.021741828,-0.013431,0.022965763,-0.0034582245,0.03530672,0.013701517,-0.01653291,-0.021645794,-0.021008711,-0.03827665,0.055480525,0.008748457,-0.0035684349,-0.07587391,0.055480838,0.1650549,0.056647718,-0.037945207,-0.0148767885,-0.05537387,-0.0057237926,-0.04004352,-0.004555633,-0.05569411,-0.015054682,0.05212243,0.02385133,0.052327313,-0.06639249,0.011879057,0.038599536,0.03768494,-0.0422375,0.026819944,-0.030609654,-0.051641088,-0.013309981,0.011911696,-0.009170866,-0.00782011,-0.03289612,0.0021123516,0.016834214,-0.028849056,0.0013038064,-0.08229412,-0.0047181346,-0.018930469,-0.019216802,-0.014067764,0.018236581,0.027420672,-0.05466529,0.0012897821,0.003977876,-0.022971587,0.03468327,0.0017573196,0.114051595,0.05983395,0.03173367,0.031185456,0.02441532,0.00937903,-0.010296831,-0.03861505,0.054744773,-0.01616835,-0.009224367,0.06551612,-0.047087558,0.04566531,0.027965827,-0.035908416,0.05464484,0.0023167403,0.020636344,0.074545145,0.10258355,-0.021401221,0.062469866,-0.03254233,0.05253938,-0.029928563,0.0033555385,0.003744337,-0.0019043975,0.061271645,-0.022578923,0.02589883,-0.011189498,0.033184487,-0.0069770482,-0.028539484,-0.03551523,0.009959035,-0.040953364,0.07469439,0.0691214,0.004632177,0.0026676364,0.04270501,0.0446794,0.0075336425,0.022484275,0.0009452819,-0.04913634,-0.030665483,0.056294713,0.0073906356,0.097007915,-0.06188519,0.013831827,-0.058265854,-0.041957933,-0.03407753,-0.014871794,0.047483165,0.018762602,-0.060580824,0.054611232,0.042659212,0.00082767365,-0.016202576,0.065324545,-0.054000605,0.047312185,-0.0123862885,0.015197613,-0.07777341,0.0012663903,-0.0095849,-0.018441558,0.04988148,-0.019027758,0.032658115,-0.046905763,0.0825185,0.008329598,-0.04257069,-0.036240708,0.034218535,-0.017201627,0.011890683,0.036238506,-0.02930042,-0.0067077205,0.043391477,0.0043900567
TEST_002,0.05229712,-0.051623706,-0.027735123,-0.0611973,0.075990394,-0.052573826,-0.02372227,-0.046474688,0.014746353,-0.043432824,0.028286792,-0.025142923,-0.016842932,-0.07339977,-0.009245232,-0.018228762,-0.06626439,0.052055966,-0.00056140946,0.008696156,0.036016855,0.095039696,-0.013011383,-0.010229553,0.056687478,-0.04063887,0.0067047593,-0.018187892,-0.012267266,-0.026970148,-0.02784981,0.03366411,0.008602666,-0.0432554,-0.0460757,-0.030926952,0.0297902,-0.017737076,-0.031033795,-0.0034286268,-0.021229059,0.019001512,0.04971682,-0.036336176,-0.10455929,0.002654502,-0.024996465,0.009678553,0.014777312,-0.07792699,0.048012506,-0.010099398,0.062111024,0.04765719,-0.044099253,0.01988122,0.09867558,0.0066591785,-0.014981107,0.0072422726,0.012037787,0.00030377135,0.068109676,0.016687494,-0.037262913,0.047855727,0.07277067,-0.01457643,-0.06260394,-0.04649861,0.004004387,-0.01683748,-0.07392403,0.049434315,-0.006804823,-0.0182529,0.033081718,-0.0065934784,0.02069705,-0.060891077,0.03549297,-0.059880413,0.017802129,-0.019505816,-0.07972019,-0.036183137,0.050549917,0.0021947313,0.07285242,-0.015451238,-0.021024713,-0.016766604,-0.032625254,0.013535461,-0.01715169,-0.107685246,0.0506097,0.023488533,0.02923612,-0.015276834,-0.026934583,0.015545522,-0.029354595,-0.03520898,-0.029819839,-0.04815785,-0.031129207,0.029575318,-0.0051444457,0.010872919,0.018143814,0.092829145,-0.03888126,0.014141527,-0.0072723953,-0.02317444,-0.01447903,-0.009814555,0.096035935,0.009201594,0.033712044,-0.0007975058,0.03907644,0.005690057,-0.0076348507,0.021565033,-0.044502668,-0.025366174,-0.030899368,0.066554554,-0.00683562,0.048071276,0.02822614,-0.006872316,0.008318443,0.06820238,-0.014884166,0.047460467,0.023929829,-0.051628966,0.046454657,-0.0040126382,-0.023264606,-0.055076584,-0.008955847,0.029176207,-0.07138479,0.044898897,0.02232826,-0.01679521,-0.0008522206,-0.13207489,0.014705884,0.028373418,0.028309857,-0.07585892,-0.011650315,0.0406299,-0.00080506253,-0.033187207,0.013154801,-0.09630784,0.001873806,-0.004188517,0.058694508,0.08586354,-0.0029001436,-0.066998184,0.04261073,0.016208582,-0.01680225,0.012435984,-0.0042325817,-0.0059839357,-0.09626278,-0.009196591,-0.023342295,-0.0482296,0.04313073,-0.008591559,0.0307018,0.033870667,0.0035545325,0.017849522,-0.06443644,-0.019129753,0.022540146,-0.01434202,0.019600019,-0.1248164,-0.02690671,-0.08596027,-0.08977296,-0.029388951,0.047601294,-0.012867605,0.014737803,-0.03311542,-0.00061425933,-0.008378252,-0.057255905,0.05007195,-0.030772086,0.038031384,0.055110652,-0.049450003,-0.007868216,-0.00954198,0.048536416,-0.043408524,0.019297604,-0.036749713,0.018205546,0.01403452,0.031364147,0.012885403,0.026393399,-0.022818064,0.014263292,0.026612844,0.008458397,0.006510429,-0.010029922,-0.025121346,-0.0005908934,0.04340761,-0.016962513,-0.002049229,-0.07195269,0.039090388,-0.010479486,0.029525513,0.023647474,-0.0061863554,-0.031505756,0.027195746,0.02400181,0.029328665,0.025822463,0.047985673,0.042690102,-0.003951232,0.0033522358,-0.013212318,-0.07913097,0.0055974913,-0.07999773,0.014721649,0.030858044,0.013293012,-0.003337142,-0.022048855,0.028671991,-0.017817995,-0.022160742,0.0035809563,0.064981446,0.06073998,0.013969474,0.031890552,-0.000748459,0.021139672,-0.016546575,-0.007870777,0.03775045,0.03509979,0.027302708,-0.041881308,-0.027376905,-0.014978833,-0.03509372,-0.066793084,0.07331156,0.015665848,-0.004152781,-0.041750178,-0.08434892,0.06319214,0.06349643,-0.027811054,0.026719665,-0.06841836,0.021446547,0.0103279725,0.023460314,-0.014168369,-0.025702916,0.01342113,-0.037015323,0.04547361,0.03210954,-0.076485865,0.015136633,0.012511021,0.059124224,-0.01622788,-0.02467594,-0.0010335668,0.057385795,0.049926996,0.0094281025,-0.07723265,0.026665239,-0.033143997,-0.030210728,-0.016904559,-0.013989654,0.039892137,-0.032220468,0.022665376,-0.022283716,-0.010494032,-0.08159989,0.038541105,0.00849786,-0.027126689,-0.018009206,-0.009167625,0.0453879,0.0028233938,0.0014939308,0.0117787225,-0.05587102,0.061872903,0.017844118,-0.0151904,-0.04047283,-0.03125858,-0.011011108,0.059790056,-0.01533841,-0.048135705,-0.00084462744,-0.03882488,-0.007758649,-0.07769308,-0.012245836,0.02456972,0.017646216,-0.046867285,0.035169,0.012468876,0.008724101,0.01223253,-0.029852858,-0.033120215,0.037016448,-0.02734157,0.005772881,0.021023758,0.003924842,0.009977675,0.031069003,-0.05330873,-0.04625525,-0.07037268,0.0573453,-0.019549832,-0.021840071,-0.045763258,0.025078088,-0.013946129,-0.053975217,-0.063887425,0.003355253,0.027093453,-0.020364057,0.04308872,0.015242669,0.0045272796,0.014919739,0.009268411,0.015519755,-0.014427629,0.07273084,0.018392239,0.038929865,-0.013460319,-0.007965926,0.033470318,0.09871985,0.051498216,-0.0041197278,-0.0046750354,0.063600294,-0.05454737,-0.06565338,0.005965491,-0.009507328,-0.037995525,-0.06401078,-0.030563619,-0.07993936,-0.02166372,-0.06997972,-0.068307646,-0.01614208,0.065902375,0.04573818,-0.032292172,0.037335627,0.03180994,0.07975726,-0.0070596975,-0.010921231,0.003721126,0.03119733,0.013104049,-0.03969326,-0.016133681,-0.082832366,-0.047090624,-0.022983473,0.038748004,-0.0371265,0.019956479,0.063301764,0.044109628,-0.03377118,-0.0342797,-0.05987152,-0.05432457,-0.0029465936,-0.0500137,0.028131627,-0.045201205,0.08536152,-0.013144735,0.055777367,-0.029594501,0.009977483,0.009925537,0.019571465,-0.015992368,0.037753846,0.04423821,-0.05489269,0.05492007,0.030013489,0.007519813,-0.0009890272,0.060253806,0.012224159,-0.050630458,-0.02981456,0.08799846,-0.075094044,0.008887847,-0.012504643,0.03149478,-0.024173507,-0.005460941,0.0071030827,-0.039056037,0.12046274,0.0030595541,0.005570829,0.050221324,0.0064591626,-0.036998495,-0.013567397,0.022437837,-0.011734623,-0.07686067,-0.063678354,-0.035218596,0.022342408,0.02117771,0.045586552,-0.06443845,0.029588945,-0.005885152,0.006304486,0.080947615,-0.004342371,-0.008961094,-0.03444144,-0.0028028847,-0.033347175,-0.024633177,0.0382509,0.024821132,-0.07592547,-0.080508284,0.007987669,-0.0074096913,-0.023382032,0.040256187,-0.069620326,0.038445167,0.032225296,0.012404049,-0.017198062,-0.054731127,0.016347535,-0.0052311807,-0.034709956,-0.045131743,-0.009733238,-0.029078234,-0.0018092977,0.011449095,-0.035853844,-0.0018227802,0.09350161,-0.018174084,0.0065119816,0.0006815101,-0.03034398,-0.036027063,-0.009696287,0.012858171
TEST_003,0.0066659446,-0.016950702,-0.023039615,0.019693611,0.053547136,0.00636422,-0.011330229,-0.010210684,-0.056707446,0.023530737,0.082695976,-0.042919964,-0.07616437,-0.06704563,0.011577063,0.096963614,0.03277043,0.05369794,0.025839074,-0.009662256,0.030611401,-0.04570069,0.042790554,0.00764168,0.02432358,-0.0024696402,0.028225798,0.052145813,-0.022079507,-0.04675588,0.00483252,-0.017124008,-0.004930966,0.04960572,-0.003101503,-0.06845266,0.014725924,0.010493161,0.012067313,-0.0031012858,-0.043702435,-0.014322969,0.07245059,-0.013292938,0.028710207,-0.0039071804,0.0027576284,0.008145091,-0.11164135,0.04062435,0.046343632,0.01863877,0.03432933,-0.030470232,-0.029872907,0.0141725,0.028821448,-0.05712415,-0.0018100188,0.025795262,-0.026119187,-0.04651579,0.020773789,0.018702867,0.018529797,0.08601647,0.0035227884,0.0010718605,0.03502793,-0.0044024633,0.0010501764,0.06077908,-0.04128402,-0.01913233,-0.0242636,-0.027072586,0.05333127,-0.05156976,0.029463481,-0.029548714,0.0030546456,-0.06991789,-0.04356369,0.06562444,0.011722745,0.0347537,0.010288739,-0.03878609,-0.050378356,-0.027388595,-0.106065005,0.016406877,-0.002546243,-0.056151267,-0.01966944,-0.021233933,0.09205123,-0.02087664,0.044664066,0.055598337,-0.07570161,0.00030399679,-0.020120325,-0.026742514,-0.0038107093,-0.031481385,-0.01568684,-0.021562876,0.00077890797,0.07090311,-0.002426819,0.0354759,-0.0169876,-0.10508186,-0.056344006,0.03661381,-0.06619801,-0.060992792,0.118721105,-0.006339724,0.0375686,0.032566175,-0.08453325,-0.003787088,0.016471095,0.0056711985,-0.013560485,-0.035996072,0.05053483,-0.09067757,0.014077975,0.0693442,-0.005692032,-0.058959015,0.034428045,0.037874904,0.0244511,0.0074265846,-0.031057317,0.011189476,0.035320748,0.0019256395,-0.04041795,-0.018843949,0.03755041,-0.040349424,0.013242357,-0.0044796434,-0.069360204,0.044006232,0.01685344,0.14036253,0.00919819,-0.018907031,0.055592604,-0.042940307,0.015271497,-0.040215556,-0.035141636,0.074541025,-0.01848665,0.0001875168,0.10014516,0.029171022,0.016584214,0.004799877,-0.093974866,-0.048263047,-0.009559544,0.02664398,-0.048804004,0.017026672,-0.050510976,0.039920237,0.0237649,-0.047711488,0.00328674,0.07609401,-0.00051878806,0.012813069,0.04285117,-0.084990814,0.11120172,-0.017215474,0.05326498,-0.069372475,0.07518758,-0.009327141,-0.02136208,0.0005224109,-0.03949327,0.018345917,0.02455736,-0.059005123,0.017891388,-0.03727444,0.045695715,-0.056711633,-0.05508526,0.062197383,0.03436489,-0.008336525,-0.11556647,0.062325437,0.0008315277,0.036613442,0.049658604,-0.016712537,-0.012748403,-0.02409988,0.013003816,0.026832463,-0.02612218,-0.03597509,-0.021783857,-0.0008119051,0.02133989,-0.05704575,-0.0037000116,0.042065892,0.050387256,0.0029184765,-0.03716423,-0.036326647,0.02912494,-0.09492858,-0.061804347,0.046065297,-0.06534531,-0.02569927,-0.0823608,0.020203773,0.010848635,0.054829407,0.003375487,-0.03220222,0.029718772,0.029534573,-0.060113918,-0.089107275,-0.10703333,-0.009098413,-0.09882717,-0.029526453,0.07238081,0.03145055,0.010065698,0.037035506,-0.036662716,-0.06706201,-0.013073318,0.0053203893,-0.06544868,0.0130566675,0.039831854,0.017875098,-0.025184494,0.020831384,0.03391303,-0.021118553,-0.0048779435,0.042323947,0.021549515,-0.012614309,-0.014326123,-0.05290714,-0.030798016,-0.09148821,-0.011167382,0.008245509,0.022139413,0.019538062,0.049574204,-0.043963213,-0.04162728,0.013075014,-0.012294462,0.09512347,-0.073361,-0.0041007926,-0.009974365,-0.07211983,0.060091127,-0.028611308,-0.068147056,0.07060978,-0.0032201116,-0.012814488,-0.0009922542,0.0045170877,-0.014988217,0.026366696,0.021195445,-0.019396976,-0.063584015,-0.10175516,-0.10564644,-0.05048613,-0.027404524,0.03797258,0.05831322,0.017622737,0.04033594,-0.07970711,0.010373088,-0.0059439344,0.092432745,-0.016705189,-0.00915788,0.005125412,-0.03765388,0.074259974,-0.030307095,0.02677264,-0.05477717,0.05177823,0.03882356,-0.0008079594,-0.019309174,0.046444453,0.080237545,0.0043517877,-0.091305114,0.06212577,0.045942996,-0.012891931,-0.06558708,-0.07498471,-0.012616088,-0.0129252365,-0.01648453,0.019692225,0.062387746,-0.01590458,-0.06708787,0.009412743,0.024333842,-0.004424562,0.04078874,-0.027656915,-0.051335197,-0.0024535714,0.009016624,0.08172242,-0.014610013,-0.050810877,0.051765013,-0.06261507,-0.05651122,-0.08989005,0.0015357437,-0.03713344,-0.0040322966,0.028704029,-0.08843968,-0.0060762656,0.08568022,0.035655987,-0.07207351,-0.037088733,0.020220172,-0.028355295,0.016163548,-0.005791306,-0.07264008,0.018413397,-0.023863511,-0.016193533,0.07649178,0.09619318,0.039894603,-0.059535094,-0.02901692,0.013307475,-0.04667694,0.013523925,0.010024056,0.016704839,0.028520225,-0.036866248,0.041923165,-0.05688883,-0.074838035,0.014228732,0.07015695,-0.022887554,-0.028278228,0.07560528,0.0022052012,0.017253874,-0.048851565,0.032350447,0.03980656,0.0007066786,-0.004595085,0.033291668,-0.008937333,0.009764959,0.028523054,0.008450445,-0.023172313,-0.040169634,-0.0919332,-0.016858796,0.07189852,-0.010734261,-0.020583542,0.009225685,-0.0730529,-0.0104513625,-0.0077478453,0.007880128,0.028237326,0.05746517,-0.06198894,0.021135591,0.044334516,0.04939478,-0.036260374,-0.010200387,0.010071265,0.055757098,-0.035212126,-0.029191745,-0.028160933,-0.009644293,0.046040457,-0.015482095,-0.003998109,0.010026253,0.06412802,0.032759447,0.039586693,-0.0017968424,0.020900652,-0.017245283,0.009647925,-0.014378932,0.025315968,-0.01840574,0.024883658,0.04599964,0.0199649,-0.026746066,0.055458818,0.043514896,0.00042810288,0.022493247,-0.0019784023,0.011069512,0.072954446,-0.022033017,-0.026375774,-0.017135965,0.040097084,0.014538158,-0.084090136,0.006881138,-0.07162617,-0.06294806,0.00054105365,-0.02195489,-0.022633174,0.055142798,0.03007275,0.02300673,0.0012628203,0.03350394,0.05288634,0.033235442,-0.04239233,-0.04285677,0.0066264197,0.0021165751,-0.0036866649,0.069433615,-0.012410365,0.0050516967,-0.015504606,-0.022755021,0.056873392,-0.018419746,-0.023188254,-0.011815374,-0.010050827,-0.049095243,0.036296483,0.008129669,-0.023169672,-0.051231038,0.07856039,-0.035764948,-0.04861877,0.026055146,0.064740606,-0.0517658,-0.0012491306,0.012342368,0.0026250207,0.019499546,0.05417173,-0.13535391,0.0057754675,-0.025498264,0.06166071,0.010567144,-0.0031164165,-0.050959542,-0.0057662125,0.020811742,-0.01835868,-0.005793002
TEST_004,-0.038549777,0.017099107,-0.03503619,-0.0073115537,0.08285396,0.0007095303,0.059641875,-0.00042672406,-0.03447676,0.040115293,-0.039705314,0.07517059,0.01593736,-0.005898464,-0.034634855,0.008982449,-0.019421445,-0.020919792,0.005268455,0.020062666,-0.010383255,0.0024197611,-0.06427258,-0.004243583,0.07581103,0.02031538,0.006399687,0.11570472,0.027739607,0.04319513,0.04833016,-0.086494364,-0.0241259,-0.036917415,0.08147535,0.02067365,-0.029235486,0.0230969,0.017249605,-0.038562674,0.009283981,0.024138696,-0.0069391187,0.056540035,-0.0010860837,0.0036473053,0.004208995,-0.05923328,-0.10302524,0.01449723,0.05913426,0.059313744,0.038139306,0.059922606,0.09682427,-0.045394894,-0.02450689,0.037971325,-0.024712678,-0.040362205,-0.011409861,-0.023347763,-0.0056477673,-0.014251859,-0.0377103,0.02413412,0.0016988285,0.025878247,0.08296737,-0.0392836,-0.031124277,0.023194106,0.025023205,-0.040010247,-0.0034224133,0.005551346,0.011228578,-0.036177546,0.001587608,0.007999368,0.02262299,-0.074207716,0.031782765,-0.013412887,-0.0012655978,0.017043019,0.066645585,-0.02179585,-0.0035861805,0.030262038,0.013803343,-0.05895026,0.020577664,0.006140449,-0.013665835,0.017216584,0.050203767,0.0078277085,0.050210707,0.052903153,0.03300335,-0.041576866,0.005436627,0.036141135,0.018399563,-0.0019755606,0.040192965,-0.04109022,-0.003463176,0.034870915,-0.032141548,-0.013153796,-0.0279558,-0.04229708,0.025432732,-0.038321793,-0.012260459,0.004502551,-0.018726053,0.0029180238,0.015202409,0.0027263688,0.03437843,0.09180967,-0.0041306,0.05944015,0.043504186,-0.032263454,0.0029599185,0.06515876,-0.04358765,0.03439568,-0.0011350417,-0.019278066,0.045316104,-0.048484247,-0.02003625,0.057230666,0.005325284,0.020901024,-0.050688423,-0.112548895,-0.011435787,-0.057653125,-0.045574248,0.023419702,0.027526367,0.051656026,-0.019682975,0.017003996,0.00057276787,0.080419034,-0.025514258,-0.02102843,0.018498242,-0.010314723,-0.04583887,-0.124345675,0.033045907,0.05685933,0.009793284,-0.02864468,-0.015394295,0.003155796,-0.0028807581,0.011081717,0.053098474,0.021460185,-0.09485496,-0.008947254,-0.0036044999,0.052578,0.049918674,-0.045152817,0.03218115,0.037904244,0.017418597,-0.006008929,0.033121902,0.024470406,-0.01370568,-0.056917947,0.0614658,-0.018019315,0.059758432,0.035358757,0.024915554,0.034666695,0.017932497,0.052261893,0.060033314,0.00331973,0.018907556,0.053354517,0.008712276,-0.049951695,0.01894554,0.032903474,-0.026745092,0.040544376,0.040723555,0.06377257,0.037170514,-0.002041345,0.037035726,0.014525782,0.03091206,0.03179734,-0.0054462333,0.022976514,-0.0142938215,0.037551295,-0.07066283,-0.00986786,0.025037521,0.05432796,-0.0013552412,-0.048921365,0.006237925,-0.021297531,0.021275125,0.01572767,0.0014538253,0.033032507,0.019606734,0.014920251,0.017144803,-0.03673375,0.010423746,-0.06260195,0.056310218,0.008150895,-0.009065107,0.026338724,-0.09616473,0.033495747,-0.024176534,0.021979878,0.01918607,0.015343673,-0.028868712,-0.040877987,-0.0035310336,-0.040382408,-0.05537235,-0.00927139,-0.006486288,-0.02771655,0.040185608,0.037305757,-0.019545719,0.04607418,0.026387965,-0.005075274,0.020430112,-0.058063403,0.022998659,-0.047900777,0.036574144,0.030510785,-0.030159853,-0.056867816,-0.034094654,-0.007270588,0.035096712,0.040873874,-0.0017050251,-0.023285845,0.0067189927,0.022471255,0.05299679,0.04722446,-0.028277665,-0.020058412,-0.036664154,0.045576915,0.0033540728,0.0020131196,0.05339653,-0.007589131,0.0769723,0.0006656385,0.058047514,-0.029544136,0.10063026,-0.066662915,0.04484285,0.024884416,-0.020403933,0.019843642,-0.0064994777,0.0441866,-0.004385705,0.086868905,-0.04823028,0.05827003,-0.022204347,0.024785703,-0.028227417,-0.04838432,0.06703947,-0.09684699,0.00997536,0.017966604,0.023489373,-0.027556388,0.06728648,0.047647666,0.09141006,0.026577834,-0.010180468,-0.06128108,-0.016683212,-0.011368766,-0.068766266,-0.038660455,-0.050535645,0.023236979,0.051081084,0.07919233,0.09433255,0.08477531,-0.027669182,0.057744503,-0.06665991,-0.04211112,0.035810955,-0.057185344,0.001195856,0.075051285,0.008586804,-0.017213779,0.038703997,-0.060620096,-0.02945876,-0.08425097,-0.0105261495,-0.026932588,-0.0009004165,0.018991105,-0.05666871,0.033381965,0.005800318,0.038675994,0.004715725,0.013698232,-0.075261876,0.045763116,0.008169687,-0.041598868,0.04105836,-0.008156162,0.011618423,-0.021004252,-0.06854693,-0.04670122,-0.033483118,-0.0029001231,-0.08876815,0.017757997,0.07416629,0.0024310267,-0.024560025,0.015198914,0.01513913,-0.014184859,-0.08005137,0.000610901,-0.02705281,0.002212725,0.05410579,0.052218433,-0.014675704,-0.017999014,0.041723344,0.0539367,-0.12465354,0.046770502,0.018812623,0.01661855,0.02060841,-0.009779081,-0.020908441,-0.036280267,-0.058224954,0.044523172,-0.049792923,0.027578112,0.056823548,0.0037636505,-0.050751045,-0.042247124,0.08146335,0.042456973,-0.04484077,0.04989063,0.063130245,0.078571476,0.008046982,-0.025056303,0.036127098,-0.003473384,-0.034671165,-0.00020431774,0.014075251,-0.03712925,0.02146338,0.057732,-0.060935326,0.016430134,0.027220596,-0.027663482,-0.04279933,0.021131046,0.015514892,-0.0303164,0.017274933,0.027226469,0.039070364,0.022852048,-0.01999467,0.042297382,-0.06996004,0.00838066,0.046089664,0.018300636,0.032569814,-0.0062119532,0.0110884225,-0.004433834,-0.026749182,-0.0034684914,-0.0117229875,-0.028494516,0.03146888,0.015041069,0.029169051,0.02408148,-0.034748126,-0.015989494,0.029807543,-0.053721104,0.021745084,0.03837811,-0.016584551,0.016365279,-0.089947365,-0.019907119,-0.016030194,0.0018491382,0.045184787,0.03206481,0.03612574,-0.021371987,0.017363427,-0.0068325507,0.017159486,0.004521398,0.028740393,-0.025012566,0.044218414,0.084027596,0.012402366,0.03266289,0.06256528,0.057450987,0.010018501,-0.04404594,0.016503252,-0.0400614,0.013431224,0.011468313,0.0500367,-0.01008544,-0.0026456085,-0.05753816,-0.04130598,0.0013597924,0.018541057,0.020437818,-0.061292548,0.04534218,-0.043390457,-0.0005657151,-0.008874047,0.0556595,0.024723168,0.11017125,-0.06389562,-0.009881308,0.031090228,-0.022333095,-0.07429946,-0.035396785,-0.023788804,0.056738853,0.07789799,0.014128685,-0.0061121047,-0.042892773,0.0022410366,-0.004017802,-0.014321153,-0.01792714,0.025908018,0.015318256,-0.043546442,0.021368572,0.023235308,0.023238817,-0.01603531,0.03444752
TEST_005,0.014302208,-0.00079113664,0.0011987892,-0.0069502546,0.064760916,-0.020130161,-0.057259213,-0.05618591,-0.015935084,0.056606162,0.011343605,-0.013618732,-0.023821793,-0.08805029,-0.009268225,0.055278324,0.004709436,0.021129243,0.030512067,0.034901235,0.08047498,0.0019424522,-0.012699648,0.037413638,0.04453793,0.01287335,0.016070878,0.05451013,-0.00980509,-0.04203983,-0.020589849,-0.025623051,0.020837508,0.012862232,-0.0563449,-0.0032369567,-0.013343352,0.016035581,-0.016382413,0.042235363,-0.02460134,0.013226294,0.029051218,-0.05559744,0.049793884,-0.0043457625,-0.041898828,0.00059515244,-0.09187924,0.018059619,0.01800257,0.027922621,0.05138336,-0.045243125,-0.006587994,0.0103647355,-0.011211841,0.00813504,-0.013226583,-0.0018277798,0.015282853,-0.029275523,0.050241537,0.025599103,-0.02153143,0.08713689,0.034590278,0.027018743,-0.01371106,-0.055746354,-0.050401073,0.10836241,-0.0459186,-0.01448957,0.02696278,-0.034284662,0.034311377,-0.01009973,-0.016329525,0.008688666,0.023337996,-0.058059257,-0.08214793,0.029640688,0.046454683,0.0691135,0.07694449,-0.03519554,-0.07194581,-0.034420647,0.019265737,0.017500285,0.038210835,-0.073173344,-0.030631999,0.037420798,0.06268005,-0.028709842,0.007960438,0.025030306,-0.029432157,-0.012283905,-0.02954227,-0.08316637,0.0007590938,-0.054584768,-0.027008045,-0.04270501,0.005758438,0.04241728,-0.014738792,0.09552677,0.022166751,-0.0788429,0.0019197417,0.027700478,-0.051720303,-0.03371043,0.09778199,0.027586607,0.044206332,0.050879918,0.00550682,-0.024603538,-0.0006866063,0.020134695,0.043324642,-0.021708246,0.014691909,-0.017065996,0.012043468,0.033153895,-0.007294775,-0.044912703,0.050575536,0.028842283,-0.008873943,-0.0008751217,-0.027456634,-0.00724347,0.07837152,0.0275636,-0.010944813,-0.031552255,-0.006682011,-0.011161624,-0.058696143,0.015780896,-0.058364373,0.07764315,-0.021196268,-0.041479357,-0.011506595,-0.046017587,0.056001723,-0.0021451863,0.037548885,0.027890943,-0.019729085,0.032889213,-0.03390879,0.049229555,0.05099856,0.012908326,-0.02564431,-0.005866323,0.031520832,-0.101552844,-0.013272728,0.05130249,-0.10577812,0.08009929,-0.019618103,-0.025448099,0.00088478625,-0.035307128,-0.021490557,0.04840445,0.009841184,0.0028685622,0.023707671,-0.017539619,0.029519556,0.018508447,0.052010912,-0.057726998,0.08908655,0.021355279,-0.025837429,-0.015328196,-0.032503862,0.00016339123,-0.021393107,-0.06826879,0.011993316,0.015807323,-0.012788657,-0.054260556,-0.0568865,0.07347671,0.018638043,0.018388247,-0.041050687,0.013932601,-0.0030764595,0.003956249,0.007578205,-0.0011022883,-0.004729717,-0.02871805,-0.061116755,-0.032025818,0.017810056,-0.094085544,-0.017711619,0.0492942,0.0040514693,-0.052941334,0.007929601,0.018529927,0.010355171,-0.011201618,-0.008529003,-0.0010135424,-0.014670191,-0.017686557,-0.042481553,0.017749526,-0.035002988,0.01465623,-0.07662945,0.013978895,-0.00024157763,0.008173064,0.05088054,0.025556067,0.017248586,-0.027412284,-8.3204766e-05,0.101318575,-0.03470447,-0.040421728,-0.02697461,0.004374405,0.025233481,0.026642045,0.0016609885,-0.0035659804,-0.043541744,-0.022611162,0.011220583,0.018163707,-0.019992754,0.05183747,0.025729705,0.001692069,0.019650782,0.059540067,-0.0065556555,-0.021878595,-0.0027991773,0.042211827,-0.04635996,-0.021743875,-0.036985483,-0.0020750782,0.042575065,-0.11208323,-0.057823338,-0.06803295,0.017386291,0.0067282426,0.016683357,-0.08088635,-0.0434681,0.0503326,-0.069747806,0.07961266,0.00017468125,0.0031115732,0.03353952,-0.009510489,0.050352436,-0.008591102,-0.081628956,0.023242734,0.032798383,0.039499376,-0.01741339,-0.0325852,0.020601045,0.014741075,0.00083697477,-0.022741346,-0.03436711,-0.034083672,-0.05551933,-0.074676864,0.008928954,0.043924727,0.02710867,0.0078770695,0.011871264,-0.012338387,-0.0075174365,-0.034041997,0.08384969,-0.0478782,-0.043330163,0.017749362,-0.047035784,0.035682008,-0.09140646,0.10971609,-0.04124893,0.0029396524,0.044196136,0.049123,0.0257151,-0.00226178,0.050130747,-0.016312918,-0.07606742,0.0020966746,0.04174998,0.00986866,0.008397132,-0.040443853,0.0020234112,-0.0071701896,-0.018324602,0.04941303,0.1047885,0.0024840343,-0.061446186,0.010147486,-0.010859086,0.031669594,0.066528715,0.00033335667,-0.005002142,-0.044544008,0.021289473,0.028204517,-0.0037583658,-0.087858506,-0.005701528,-0.069710076,-0.03665082,-0.05207189,-0.018196909,-0.017624078,-0.021535069,0.0056399624,-0.0824494,0.0028356537,0.04944509,0.011489506,-0.03517089,-0.017493244,-0.010553889,-0.07144903,0.027361196,-0.07446908,-0.015592394,-0.02580329,-0.019048834,-0.05777283,0.064634964,0.05421013,0.063574165,-0.062264014,-0.10813157,0.017120121,0.004149047,0.034253735,-0.008164867,-0.015758816,-0.0066493805,-0.03485426,0.0025656507,-0.09675167,-0.031098695,0.01676615,0.051302608,-0.016106289,-0.012486952,0.017388716,0.008670138,0.035098687,-0.005158658,0.042992547,0.019837778,0.0073465323,0.04021152,0.0075530494,-0.008118363,-0.0579327,0.024167418,-0.0065378845,-0.019806465,0.021051027,-0.053918224,-0.0053129382,0.03300709,0.014854644,0.05256361,0.039707743,-0.0536154,-0.02455745,-0.01991947,-0.034899227,-0.018886346,0.020530308,-0.015358468,0.03140064,0.03088646,0.03754373,0.05871529,-0.032576215,-0.004919865,0.027220193,0.03186183,-0.027237432,0.017466921,-0.046590388,0.039455656,0.0018432119,-0.0382879,0.0027142914,0.075981714,0.04342167,0.056540035,0.03565652,0.049179174,0.0070489147,0.0037458544,-0.03745599,0.00025364233,-0.031091284,0.03465679,0.006591273,0.00511523,0.028935378,0.03850622,0.023582298,0.0024017962,0.008721166,-0.022713464,-0.013077187,0.06361005,0.021812003,-0.008437453,0.004149929,0.009452088,0.063848406,-0.010469707,0.007830558,-0.024230149,-0.019685527,0.02348736,-0.040791523,-0.04996196,0.0039352775,0.019639712,0.054792754,-0.024167027,0.061948083,0.063529395,-0.003346174,-0.02835583,-0.032062616,0.011539359,0.04892968,0.061866727,0.016717628,-0.029001903,-0.0030323602,-0.013620673,-0.045474928,0.07891829,-0.012992265,-0.034890536,-0.026413426,0.033624098,-0.06670116,0.061866675,0.048519414,-0.053980943,0.011974402,0.07013265,0.007833653,-0.021779364,0.024799503,-0.016077295,-0.058259714,-0.023733938,0.0317551,0.011217784,-0.017086873,-0.0036249354,-0.10811991,0.04702231,0.0018094986,0.035860248,0.05225395,-0.09013563,-0.017208261,-0.04272064,-0.018602896,-0.046979878,0.0024100794
TEST_006,-0.01720249,-0.009495756,0.030351972,-0.041476827,0.12898445,-0.027480934,0.04742383,-0.022789592,-0.034186106,-0.0016163066,-0.042027716,-0.0073254714,0.0143396035,-0.026936816,-0.014455879,0.0027079436,0.01881659,-0.039111726,-0.037462562,-0.04512883,-0.008207698,0.0301444,-0.033841237,0.024257084,0.08070012,-0.021517957,-0.0012861199,-0.00086708646,-0.014327193,0.058292594,-0.029462242,-0.065720186,0.041486923,-0.041974746,0.0021217985,0.016074006,-0.0064475564,-0.01076828,-0.017706482,0.010844889,0.06988124,0.001141717,-0.038099356,0.031882,0.0077998433,0.029578948,-0.05147978,0.043856613,-0.076534085,0.043704417,0.037781633,-0.0044449638,0.013026862,-0.01849914,0.06119638,-0.0023450763,0.020002116,-0.043332458,-0.022771724,0.026322111,0.017744668,0.0033209166,-0.027063113,0.0048935646,-0.10665187,-0.010440156,-0.060003843,-0.0021146722,0.032850776,-0.027083745,0.038173217,0.027035857,-0.00749626,0.0009357717,0.01647445,0.05588065,-0.016819779,-0.0077982605,0.027310895,0.070218176,0.006978853,-0.07967896,0.06984701,0.043427274,0.04818878,0.059601974,-0.0062472075,0.052599195,-0.013775054,-0.03042707,-0.010476779,-0.015711177,0.0593937,-0.011197859,0.0057792775,-0.0055817836,0.0004974624,0.014012266,0.0031550264,0.016989358,-0.034066137,-0.0058964496,0.015582182,0.048954185,8.698221e-05,-0.09694957,0.01642082,0.045162197,-5.456037e-05,0.024784038,-0.021952042,-0.0725539,0.016074223,-0.05956372,-0.034124628,-0.042641822,-0.007841744,0.070047304,0.029068932,0.023738306,-0.020756422,-0.021110702,-0.008439177,-0.017829878,0.009150779,0.031655263,-0.00490517,0.050844256,-0.037608847,0.032038517,-0.0033778877,0.038365025,0.004915642,-0.0114191715,0.022486128,-0.025385458,0.029260816,0.0026200688,-0.012468298,0.073810205,0.019742781,-0.042864602,-0.051951025,-0.04809279,0.04791483,0.0068077827,-0.030355105,0.048159886,0.02889018,0.026604999,0.05741694,0.029839428,-0.032887716,0.022069829,0.057943895,-0.044226497,-0.027335122,-0.018566018,0.041153148,0.00044569696,0.017741324,-0.008285011,-0.029340092,-0.040992577,-0.031184422,0.05400692,0.036305927,0.030817574,-0.0954136,0.06301055,0.0050509367,0.008842154,0.07040992,-0.07603948,0.033474628,0.024571685,0.009296193,-0.036620457,0.028642436,-0.0030287104,0.030307148,-0.04892366,-0.025661767,0.037451748,-0.015752025,0.022223711,-0.0007969741,0.0047948253,0.018875739,0.00013788277,-0.049378175,0.045271926,-0.008182811,0.078552805,-0.0126774935,0.025031824,-0.042728245,0.052855004,-0.021350404,-0.0013474392,-0.05104215,-0.040610477,0.018360754,0.03836751,0.037116375,0.010640152,0.032747403,0.05088299,0.007528513,0.06260058,0.014829569,-0.006921317,-0.021976197,0.026197482,0.021203471,0.044465296,0.0232285,-0.0008188419,-0.057487924,0.016079161,-0.025254969,-0.02474929,-0.07109139,-0.0069454256,0.03797942,-0.02155082,0.0132539645,-0.005907459,0.008237568,-0.067717925,0.051349632,-0.019086843,0.018763589,0.02176844,-0.043092057,0.086730205,0.02100806,0.051014714,-0.007208701,0.090841115,-0.021705959,-0.038642667,-0.056101546,-0.001364207,-0.025548419,0.021039044,-0.030185863,0.009901567,0.05597617,0.015551502,-0.021614386,0.060781524,0.017115135,0.051890794,-0.016377686,-0.07058584,0.029481107,-0.046765238,0.0032329545,0.017866487,-0.02532742,0.013021886,-0.04440918,-0.04964948,-0.00770374,-0.0059297,0.00967698,-0.0033651723,0.0051665683,0.0056764106,-0.063785,-5.248608e-05,0.062912285,-0.01862831,-0.02600285,6.578653e-05,0.013432975,0.025799274,0.0314236,-0.04152532,0.044101484,-0.020240968,0.03156606,0.027971428,0.051234785,-0.025304435,0.011056256,0.004170092,-0.03544751,0.0454864,-0.0194331,0.020682842,-0.04536692,0.11987573,-0.0896676,-0.0054410086,-0.0363038,-0.06265969,-0.015332319,-0.019154994,0.04405764,-0.04025731,0.020479254,0.0627297,-0.00708294,-0.022752697,0.06013101,0.032690953,0.005064567,0.013035545,0.06416255,-0.08454571,0.06428614,0.03916063,0.00018629595,-0.014975228,-0.0048592556,0.029544868,-0.07877853,0.013236206,-0.0032271994,0.031746272,-0.0070489016,0.0362824,-0.02842691,-0.038144257,0.030650374,-0.014531838,0.07439666,-0.0024638483,-0.00563975,0.012945904,0.07071754,-0.042307746,-0.054036986,-0.010385321,-0.029437622,0.05341751,0.015847875,0.028849402,0.021283004,-0.028708592,-0.041704573,0.018573826,-0.030447828,-0.027960641,0.028095184,0.043691583,0.009279679,-0.0248598,-0.0013809544,0.011499458,-0.04196581,-0.033836756,-0.043562237,-0.080255866,-0.09425886,-0.012329476,-0.033258755,0.04665782,0.09129636,0.00819285,-0.023177344,0.00028037716,0.022114256,-0.0143100675,-0.03654777,0.08325985,-0.007599691,0.006074215,-0.04338223,0.020717775,-0.042421468,0.047638934,0.03641037,0.030156542,-0.048670206,-0.006337226,0.023066869,0.042206172,0.042657807,0.009198422,0.0065515214,0.032675408,0.0757932,-0.025039136,0.05839691,-0.033504333,0.01742484,-0.037081227,0.024135897,0.026066056,0.05504425,-0.034426194,-0.019171497,-0.042398773,0.083231665,0.071197465,0.037285697,0.017498182,0.0727879,0.05820404,-0.03705989,-0.061356947,-0.023289395,0.054130282,-0.03344769,0.00033770874,0.0039985194,0.016472913,0.05495052,-0.032494277,-0.08074073,0.042990763,-0.069209665,0.06511991,-0.008930782,-0.030585038,0.1213197,-0.0008909253,-0.03378079,0.03176166,-0.04306369,0.05965899,0.06697434,-0.02005738,0.032628175,-0.044635084,0.033740427,-0.0512483,0.021014227,-0.03975474,0.013179961,-0.00026922533,-0.023001108,0.09931422,0.010160773,0.019751633,-0.007019373,-0.044328034,-0.009504763,-0.0025148462,0.029387048,-0.028812349,-0.016938208,0.004109223,-0.019778114,-0.049504135,-0.0046258597,0.008574587,0.06354873,0.028183045,0.044697836,-0.011532925,0.0039994894,-0.0819627,-0.050903212,-0.048021376,-0.05014165,0.0027852852,0.044447057,0.01651861,-0.0037134711,-0.019356487,0.008646598,0.07597126,0.013265994,0.017243207,0.03828932,0.020602427,-0.010202445,0.03580493,-0.0124276215,-0.0069951783,-0.0095733125,-0.050017122,-6.6864304e-06,-0.06175392,0.022547122,0.0007445181,-0.009605537,-0.01067574,-0.012862643,0.032961614,0.0031056234,0.006016575,0.035226487,0.033745624,-0.10699226,-0.003493562,0.06826614,0.0042309696,-0.01459876,-0.03262355,0.035215117,-0.0077995076,0.04079445,0.049468387,0.019116268,-0.03798966,0.008747138,-0.03527503,-0.08553187,0.068005845,0.015713139,0.008225334,-0.026416667,-0.0022212933,0.04978869,0.007424787,-0.031274356,0.01075785
TEST_007,0.06288374,0.010903474,-0.012887709,-0.0044932985,0.011608917,-0.007888908,0.06671407,0.04410752,0.013391275,0.051439032,0.0724006,0.07601187,0.0011691399,0.044557683,-0.037310768,0.06066699,0.03409251,0.011076413,-0.060746863,-0.044331674,-0.0272093,-0.008717245,-0.052319787,-0.017381156,0.018003145,0.05861393,0.025244426,0.05068677,0.0024394852,0.055961583,0.01747824,0.032307636,0.006766467,-0.028530559,0.072314516,-0.006108213,-0.0077961176,-0.007976435,0.032227527,0.025798382,0.04043628,-0.0015544769,-0.0068228794,0.0036040915,0.029419834,0.066611595,-0.018738158,-0.06796546,-0.112678386,0.0008073997,0.05743153,0.0010975657,0.04648387,0.043309066,0.04758241,-0.018067118,-0.0046804533,0.023180377,0.08135891,-0.029317973,-0.02224729,-0.069708645,0.0057073454,0.010161877,0.03991045,0.056102004,0.081873015,0.0036844723,0.073854856,-0.06465558,0.014344369,0.026985265,0.033433598,-0.025686055,-0.0064407424,-0.029426455,-0.019379115,0.037160236,-0.009321816,-0.022068843,0.0261544,-0.08299573,0.042721283,0.021895232,0.00712263,-0.015742946,0.036311977,0.018318322,0.022395793,0.024292696,0.07713505,0.00223431,-0.04746295,0.045442577,-0.07582925,-0.0038832086,0.029072763,0.023463707,0.007902832,0.024189383,-0.01371819,0.00228686,-0.01455231,0.049539413,0.0041106124,-0.013478497,0.08554779,0.019123226,-0.032120526,-0.024966909,-0.011081915,-0.03242858,-0.04745963,0.06252826,0.029833775,0.005253398,0.015096984,-0.048735347,-0.024727294,0.02532603,0.023825543,-0.03021026,-0.028998718,0.103193544,-0.005875218,-0.010369054,0.071407296,-0.034723118,0.0435297,0.05276869,-0.0013716646,-0.003159949,0.014885866,0.0044358224,0.040460467,-0.012576693,0.04175804,0.05391021,0.033528235,0.017703047,-0.0022972662,-0.09100341,0.026504012,-0.081409544,-0.06494724,0.053975854,0.02283441,-0.0010721382,0.022964299,0.012258737,-0.056810826,0.0019471237,0.013941677,0.075658575,-0.036572974,-0.034549907,0.008527927,-0.04987962,-0.026382217,-0.030045183,0.027750112,-0.040021654,0.02554053,0.010780798,-0.017458405,-0.004040125,0.06164912,0.0116533935,-0.043193333,-0.07912648,0.04454281,0.02924125,0.011817742,-0.062047698,0.025277207,0.025111668,-0.014904878,-0.047945157,0.0031120756,-0.0069309585,0.027317861,0.004325915,0.047520984,-0.028585931,-0.0072737094,-0.04751083,0.018192003,-0.012129687,0.005167774,0.00217971,0.06946795,0.038525503,-0.008994486,0.015061059,0.006290561,-0.029436603,0.074093916,-0.0016315384,-0.048328407,-0.031425722,0.055752374,-0.022667639,-0.017518623,0.007991225,-0.018200157,0.012095693,0.020353477,0.02107346,0.030680807,-0.0353721,0.006573414,-0.009119096,-0.05468439,-0.0061922935,-0.038021203,0.03305617,0.04286055,-0.023515202,0.013894791,-0.002173405,-0.025533635,-0.014213514,0.06896265,0.030930111,-0.021812517,-0.005562348,0.018170888,-0.03751382,0.03210199,-0.01846264,-0.08449266,0.039255146,0.01983716,-0.0040067323,-0.06131586,0.08290999,0.034088384,0.019842498,-0.0039666127,0.0071718893,-0.06733673,-0.01497151,-0.029157998,-0.008859873,0.02075135,0.04963579,0.031838734,-0.030035432,-0.019858569,0.004416728,0.08711346,0.04254441,-0.004155454,0.011660237,-0.030362558,0.013586368,-0.03894595,-0.034097906,0.063856654,0.04180306,-0.00011074112,-0.06346268,0.03656879,0.035852544,-0.04955956,-0.019543355,-0.042331386,-0.054452877,-0.046555717,0.02806828,0.034364704,0.08594707,-0.04173852,-0.021644298,0.069290675,0.007918976,0.022820113,-0.011720855,0.016036056,0.015924511,0.037028674,-0.04950606,0.012615739,0.001935542,0.039017893,-0.0438904,0.06346708,-0.01738662,-0.061647065,-0.022734553,0.049484592,-0.0023418092,0.0003029192,0.014555006,-0.04864189,-0.011128097,0.0073598525,0.05528325,-0.014014015,-0.026355483,0.041900605,0.03424414,0.015149272,-0.0036193677,0.08458053,-0.043434817,0.013817163,0.046559755,0.04658249,-0.004845871,-0.012315831,-0.022771662,0.0035146964,0.006054628,-0.07782484,0.009751,-0.04996832,-0.0365011,0.034442246,0.027041435,0.06321306,0.059476756,-0.03997605,0.1051146,0.0036853165,-0.031084336,-0.007908352,-0.056676876,-0.015273614,0.03159336,-0.032778535,-0.012614791,0.027744753,-0.03570203,-0.027020968,0.019904012,-0.022399005,0.03511894,-0.00841026,-0.0124173295,-0.08068112,0.009028838,0.037806857,0.07614436,-0.018377354,0.06187733,0.0067294626,0.023125341,-0.032936744,-0.083417036,-0.00023811078,-0.0015564858,0.035962477,-0.0004731356,-0.05212326,-0.023384865,-0.004007916,-0.013322433,-0.01833163,-0.029066363,0.012532132,-0.002671301,-0.01709582,0.022594234,-0.050045576,0.049985416,-0.03732031,-0.026726512,0.07423917,-0.024138886,-0.023920573,0.104536586,-0.030056676,-0.055402998,0.035613097,0.03996351,-0.09714132,0.008493139,0.030880587,0.010202022,0.06383183,-0.018971173,-0.002437668,-0.06014781,-0.029516254,0.025789196,-0.023819283,-0.030644804,0.039552383,-0.01929172,-0.081790924,0.030599222,0.0071078353,-0.0071111894,0.008915696,0.051029198,0.02334953,0.030187838,0.032671127,-0.030501341,0.009926923,-0.022260988,0.026164858,-0.021712922,0.0007687158,0.05968127,0.0051653967,0.10360128,-0.01971128,0.014555974,0.023519708,-0.09098471,-0.014489248,-0.004884268,0.012735451,-0.050903775,-0.008658195,0.0118566835,-0.046242096,-0.03927502,0.009525289,0.06978177,-0.051338553,0.013591728,0.014210292,-0.022265052,0.083108224,-0.02918878,0.026473066,-0.0067930925,0.027756497,-0.014606628,-0.011704306,0.016572814,0.0044261427,0.015198246,-0.023424707,-0.0058619427,-0.0511929,0.0044847783,0.061767202,-0.035002816,-0.023512492,0.0666147,-0.017784188,-0.036795422,-0.041397445,-0.02859056,-0.034865938,-0.035040144,0.030811278,0.023842324,-0.031043774,-0.02896342,0.011774198,-0.0035359447,0.074412294,0.007667988,0.018184604,-0.017570095,0.044907518,0.028098995,0.029455807,0.023247495,0.048045624,0.06555872,0.041765027,-0.03235963,-0.023079466,-0.05412333,0.03209379,0.04189198,0.058281314,-0.02206416,-0.016953796,-0.060232736,-0.08403206,-0.037982773,-0.043407746,-0.030558024,-0.044231813,0.032244492,0.0018565974,-0.02580611,0.005330823,-0.020711474,-0.007924458,0.087039426,-0.08865214,0.033195887,-0.008608202,-0.025829457,-0.0246061,-0.007361107,-0.059392072,0.06151043,-0.030381436,-0.016959565,-0.019280141,-0.04295097,0.00672028,0.00710881,-0.006952966,0.03262883,0.004417296,-0.046187483,0.04659997,-0.019890442,0.035050467,0.026395665,-0.018207766,0.03020043
TEST_008,0.024190426,0.04473627,-0.011520625,0.004743819,0.035903066,-0.027851388,-0.012772983,0.036756262,0.03304884,-0.011051473,0.0065653776,0.0054043056,-0.02500752,0.025127776,-0.021392897,0.03354999,-0.030580893,0.04731645,0.009166772,-0.007985678,-0.02043409,-0.043343272,0.012814901,0.0655946,0.05199837,0.02273121,0.029289087,-0.0039470783,0.013542288,0.061612837,-0.058132477,0.022450998,0.05602008,-0.033532564,0.019404007,0.00874979,0.055979278,0.042974107,0.013185701,0.0012176469,0.024260035,0.002679975,0.0002684747,0.049546126,-0.025388937,0.05520957,0.049899463,0.026855998,-0.026548076,-0.00929124,0.066602945,0.009629218,-0.03531093,-0.01338628,0.010443399,0.015923802,0.008053252,0.072622485,-0.004785182,0.029021705,-0.08299335,0.00788323,0.05815175,0.05598605,0.033868384,0.02091026,-0.03198949,-0.022909852,0.019038426,-0.0008939516,-0.07738827,0.030608037,0.03154434,0.028949367,-0.025603188,0.09976669,-0.060220014,-0.008089678,0.00038603178,0.09623837,0.05836706,-0.09396074,0.08769303,0.054080945,-0.023859058,0.020516153,0.063103855,0.007092169,-0.019180536,0.016566232,-0.019356018,-0.05683158,0.0130377,0.03679143,-0.0034797564,0.058508117,-0.031867296,0.03240603,0.021437082,-0.0060665063,0.027288817,0.023477819,-0.0686025,0.044618137,-0.042430006,-0.03494797,0.04058365,-0.02533318,0.037744045,0.019112086,-0.0030929246,-0.057163425,-0.034174908,0.025072645,-0.037367206,0.023269488,-0.029115058,-0.070849985,-0.021407247,-0.00093168946,-0.06110212,-0.018716129,0.011632663,0.004603275,0.024510913,-0.028795801,-0.057908483,0.012121375,-0.02568707,0.044948015,0.023915956,-0.022841504,0.032433365,-0.007126088,-0.017314317,-0.031908303,0.023129439,-0.01769081,0.0048531494,0.06477192,-0.02048155,-0.016905239,0.042343646,-0.03863329,-0.08059016,0.057494294,-0.010152176,-0.029547233,0.049170773,0.055810627,-0.03923887,0.036520865,0.01801395,-0.024892673,-0.021210028,-0.03778052,0.056764457,0.062810846,-0.0038696516,-0.034127507,-0.05142785,-0.06281188,0.001225832,-0.05585727,-0.004050864,0.023070727,0.06811659,0.0365945,-0.06732729,-0.05110614,0.05178803,0.024326468,0.051033564,0.009595769,-0.052906197,-0.018985324,-0.06387068,0.08148615,0.037947927,-0.018155476,-0.031585526,-0.015019628,0.078380264,0.0022433451,-0.008514634,0.012440372,-0.0116664255,-0.0170933,0.05189365,-0.05628727,0.005059265,0.020487145,-0.0044811293,-0.040318977,-0.07779406,0.04808004,-0.011970942,-0.049873803,-0.055496003,-0.062313538,0.046423785,-0.06720865,-0.013189943,0.038413607,-0.017648442,0.061836466,-0.027331147,0.0123614445,-0.05009212,0.01470195,0.031981293,-0.004280051,-0.005261498,-0.04102201,0.027977144,0.04205279,-0.0210512,-0.005250508,-0.024521763,0.025533374,-0.0053798244,0.037502836,0.010314473,-0.021409508,0.011515689,-0.012405217,0.050384838,0.039072257,-0.016612455,0.021798598,0.004104329,-0.00068198785,-0.0055196127,0.021986844,-0.027345238,-0.033661302,0.00027983356,-0.0092242975,0.010447453,0.006579486,-0.062388856,-0.01722647,-0.025936281,-0.03816975,0.02903189,0.041361574,0.01630222,-0.03917978,0.041622475,-0.047425367,0.08650264,0.052408945,-0.026794896,-0.049741704,0.03576589,0.011787569,-0.015502453,-0.036209304,0.055799592,-0.00771118,0.020297028,-0.08745161,0.01671764,0.028237578,0.074733265,0.025669515,-0.032964773,0.0078092166,-0.02893473,0.026686711,0.025220875,0.056331392,0.05184648,-0.012760911,0.034722023,-0.019190818,-0.0069553475,-0.0334095,-0.007172747,-0.02696005,0.013859339,-0.098006204,-0.005161283,-0.0060196556,0.045468718,-0.0037110064,0.071645275,-0.056387406,-0.044157196,-0.0001084652,0.016502753,0.046661314,0.0042387466,0.0817293,-0.06308938,-0.11875428,0.015589854,-0.008772825,-0.024413425,-0.07793081,-0.022798274,-0.11042712,-0.020472694,-0.008011212,0.044743616,-0.0027727736,0.041801244,-0.061687957,-0.0015717216,0.032248814,0.05944046,-0.03584772,0.0084453635,0.036745053,-0.009952913,0.028568413,-0.023917744,-0.02836597,-0.050072473,-0.016486287,0.0334824,0.015723465,-0.010835743,0.017003193,0.02309713,0.024325887,-0.0030587665,-0.064527474,-0.027790844,0.011415507,0.005451058,0.014253932,0.070947856,-0.037508063,-0.069234736,0.039525084,-0.023309736,0.022064293,-0.05277373,-0.0029505535,-0.07120762,0.03098456,0.019931262,0.07284855,0.0063072178,-0.015315765,0.07424314,0.0059287045,0.024581842,-0.058166984,-0.021295572,0.020407902,-0.024163887,0.034594275,-0.09382473,-0.03337558,-0.0028542667,-0.0013660885,-0.034661625,0.016228573,0.042648103,0.077468775,0.047754597,-0.0029114815,0.03551388,-0.037617702,0.04700901,0.012597909,-0.039680436,-0.002469683,-0.07402175,-0.008903529,-0.0071406052,0.04449949,0.0327,-0.035179663,-0.022949005,0.07588993,0.009975986,-0.033960644,0.065308556,0.05381375,0.034288943,-0.015706707,0.011687244,0.023752263,-0.004293999,-0.01633718,-0.0022396496,0.00026101025,-0.002402499,0.021357184,-0.058845084,0.051070135,0.08512489,-0.012914346,0.047291942,-0.012904235,-0.019119132,0.01884875,0.010850632,-0.029554654,-0.014893648,0.020432673,-0.031252116,0.0041595297,0.019191286,0.010425629,0.01892331,0.016615791,0.025425196,-0.003810115,0.01000858,-0.000714005,0.038781516,-0.0053466577,-0.008026342,-0.024956103,0.012527436,0.008792714,0.0031702872,0.01063806,-0.028992092,0.022397572,0.043508813,0.061050095,-0.002537224,0.032700393,-0.044280384,-0.0768422,-0.014045869,0.048042726,0.002530983,-0.03831637,-0.029091958,0.0036211512,-0.012763564,0.022647943,0.037561934,-0.028851964,0.043845817,-0.041935664,-0.028911183,0.034763034,-0.052748486,0.11256596,-0.0151899075,-0.047525607,-0.039941687,-0.09359419,0.07310673,-0.009440978,0.0056112283,0.032961495,-0.026421107,-0.010777649,0.0013898097,0.030750144,-0.036323246,-0.012979621,0.008051346,-0.04793613,0.033251893,0.094890006,0.01498309,0.033397034,-0.0030651675,-0.013012487,-0.02174413,-0.063479654,-0.020798381,-0.020568185,-0.018082239,0.063770756,-0.00035112607,0.033630557,-0.11613849,-0.056824025,-0.08575378,-0.04601587,-0.0073982333,0.12666667,-0.05869409,0.018713359,0.08152793,-0.013384132,-0.04510984,0.038227715,0.02630786,-0.020249045,0.056908783,0.025136318,-0.019560667,0.030335512,0.035779074,0.021204809,0.01704209,0.016020792,0.0028979315,0.0034292168,0.045836035,0.008820057,-0.021754066,0.050720643,0.06172424,-0.006287285,0.068518095,-0.014614773,-0.046426922,-0.03689675,0.05772589,0.049600624
TEST_009,0.027900757,-0.020841641,-0.0037054303,-0.026668396,0.14748473,-0.059885807,0.014132696,0.044259805,0.0042171706,0.015242439,0.0065526417,0.01921025,-0.0066377246,-0.02303212,-0.025950659,0.0148916505,-0.020751875,0.02067225,-0.01002282,-0.04011387,-0.042108905,-0.045059044,0.054580554,-0.03332562,0.0024712537,0.034389243,0.028316153,0.03616452,-0.048767366,-0.052822992,-0.010247955,-0.060387038,-0.0008204694,-0.014546579,-0.007142834,-0.009822799,0.026973343,0.020828834,0.0017200304,0.0034766062,-0.042797074,0.058673196,0.052957222,0.059236787,-0.034264967,0.09019279,-0.02030218,-0.11568199,-0.051101986,-0.03685673,0.03828502,-0.02760042,0.05122662,0.0031768023,0.08894016,0.0019428985,-0.076086834,-0.017324554,0.01168341,0.010321834,-0.005900469,-0.015000535,0.018227141,0.030622292,-0.043148402,0.08271806,-0.03476102,0.052636694,0.09098368,0.035821415,0.05674196,-0.04347138,0.01829846,0.0019086483,-0.02808901,0.01242604,-0.013843879,-0.0025975087,0.017042404,-0.008606512,-0.062263504,-0.111182146,0.057665467,0.070706636,0.04063061,0.025372418,-0.019229207,-0.009441443,-0.02474091,-0.025609527,-0.10558131,0.054202404,0.006353677,-0.020992279,0.01713735,0.042164158,0.08391197,0.017092276,0.010782663,0.034378704,-0.060724624,0.022022609,-0.08633324,0.06740033,-0.020302314,-0.019283405,0.04515499,0.0063734166,-0.040829364,0.0439647,-0.027533194,-0.07750509,0.028095122,-0.05635516,0.017481573,0.04482095,-0.05220108,0.0025744392,0.013331118,0.014234662,-0.023972882,0.026786402,-0.04964076,0.04994737,-0.059202634,-0.005576394,0.04497812,-0.0152239455,0.055340655,-0.052293263,0.0010586466,0.062340394,-0.017300887,-0.030644532,-0.020925645,0.03632319,0.00083141524,-0.04798634,0.017821008,0.017780405,0.007499381,-0.018968299,-0.012433235,-0.04111227,0.041739017,0.0017503343,-0.07034038,0.021135798,-0.019204393,-0.03363156,-0.064647205,0.025274178,-0.0152704185,0.007145914,0.0072877957,-0.016552938,-0.049660902,-0.03733073,-0.0070488546,-0.0017693844,-0.016681472,-0.043970454,0.013311905,0.044350952,-0.025055693,-0.01869851,-0.02162699,0.02412368,0.062382914,0.037737146,-0.023178646,0.010430301,-0.00815218,-0.031813096,0.015967907,-0.08412098,0.0014444011,0.0761398,0.07020509,-0.025367677,0.06431632,-0.10466175,0.13142987,0.025571985,-0.024451371,-0.051632952,0.047714345,-0.041159842,0.016633209,-0.031951614,-0.040699173,-0.026088314,-0.0032874183,-0.04268449,0.0081062345,-0.0255559,0.022542896,-0.0018369872,-0.07323061,0.05046071,-0.061784204,0.04049933,-0.060885493,0.03129504,0.013648559,0.018152647,-0.017884286,0.008646649,-0.010829856,0.03459312,0.02222912,-0.054537497,-0.016296204,-0.020260528,-0.016178662,-0.034229618,0.010285373,-0.07920462,-0.06298902,0.029493764,0.05343265,-0.0061420565,-0.00027401827,0.050505243,0.008014617,-0.007227239,-0.009514399,-0.0057275775,-0.031954747,-0.0726027,0.0034854857,-0.02609706,0.014287096,0.055931974,-0.00595992,0.022135945,0.04731798,-0.015966266,-0.046482943,0.11443583,-0.11771767,-0.034804165,-0.06442084,-0.036111195,0.009521193,0.019291822,-0.06176927,0.011252983,-0.021074222,-0.023676213,-0.0281847,0.01645237,-0.015678043,0.031727143,0.0011744882,0.053386327,0.020623796,-0.06969507,0.042367265,0.015701719,0.010351801,0.0029893583,0.13705163,-0.045992777,-0.031046497,0.023065323,0.010146976,-0.081847936,-0.0589951,-0.018404018,-0.028709067,0.04181544,-0.009814635,0.016620582,-0.030739415,-0.026196716,0.010707434,-0.021104457,-0.039719597,-0.07792599,-0.024171904,-0.013662872,-0.0031944679,-0.0037565576,-0.036060445,-0.002093768,-0.02455796,-0.04253011,0.037869208,0.066064656,-0.0069026975,0.044007827,-0.035136774,-0.04748,-0.06681835,0.056068834,-0.03762881,-0.008942905,-0.071851656,0.0033755733,-0.01593989,0.042171188,0.016426954,-0.0148261925,0.02029888,-0.036321793,0.02716478,-0.0025212697,0.04622168,-0.029219855,-0.012107915,-0.0054848874,-0.036127336,0.097351275,-0.013671226,0.029013999,0.011580234,0.028741257,0.003798055,0.02207938,0.056739766,0.055985607,-0.048423626,0.06595129,-0.09690553,-0.0443661,-0.07692705,-0.09683605,0.032277215,-0.004730115,-0.017917903,-0.04102508,0.06887711,-0.043853987,-0.03347286,-0.011143774,-0.03265398,0.0241592,0.0066749225,-0.019767454,-0.0053712185,-0.00092939014,0.025619576,0.020602403,-0.06140031,0.03203919,0.038221132,-0.04298401,-0.020907681,-0.03303264,0.0024213665,0.01674664,0.029898146,0.04189182,-0.036700413,0.024854986,-0.016411882,-0.0012439224,-0.011742397,-0.0109977145,0.02975442,0.023513777,-0.01769012,0.0105754845,0.031153353,0.017014049,-0.019602846,0.061127473,0.06503088,0.07698982,-0.026847811,-0.02557784,0.0071607693,0.022562122,-0.112843625,-0.026241561,-0.02055279,0.050308157,0.079447895,-0.055460684,-0.0014801187,-0.054584354,0.014592697,0.0135815395,0.012041253,0.0044172644,-0.006977028,0.04140126,-0.013730661,-0.0060755005,-0.065763146,0.063468225,0.030125642,0.019579068,0.008458571,0.06461463,-0.038015455,0.014840754,0.04863792,-0.050833724,-0.0133613,-0.045798156,-0.005431896,-0.042286266,0.04107346,0.004480188,0.013595133,0.0696762,-0.04561042,-0.0065324586,-0.0016001114,0.030388983,-0.063418515,-0.030998964,-0.025315214,0.054103207,0.024093322,0.03027441,0.118012786,-0.0074897814,-0.004592055,0.05474915,-0.08612206,0.016005622,-0.003116403,-0.040220942,0.008656357,-0.04278564,-0.007682162,-0.010879667,-0.016684804,-0.006146655,0.0054409117,-0.07167503,-0.034380917,-0.009644977,0.0064846966,-0.070613064,0.017637793,-0.022357551,0.01431887,-0.06409943,0.047062013,0.03346213,0.01046188,0.03723829,0.0062669665,-0.011778436,-0.0060660383,-0.03199465,0.06291708,-0.07624502,0.06331526,0.021284236,0.024499064,0.002228945,0.002423845,0.049261313,0.026969636,-0.120414175,0.010464568,0.023818891,-0.025899015,-0.02402769,0.018955193,0.04764774,-0.04396761,0.09073345,0.027250359,0.017480439,-0.03553507,-0.059793055,-0.023047768,0.06337357,0.0044432967,0.06660244,-0.010945479,0.027656974,0.0013471849,-0.031663865,-0.05665022,-0.05317495,0.041760094,0.02667564,-0.05289189,-0.039385363,0.02804345,-0.0063039265,-0.057936795,-0.019185195,0.032147743,0.0048909783,-0.07985886,0.009123893,0.11007547,-0.053818256,0.030501427,0.08802855,0.044344887,-0.062127996,0.047489773,-0.051556606,-0.09253275,-0.021036426,-0.0058995113,-0.017487772,-0.02120541,0.005528845,-0.008079533,-0.0024005077,-0.01533717,0.080435365
TEST_010,0.008221294,0.026751041,-0.006733909,-0.069752246,0.059067626,-0.013362,-0.0019007019,0.0014660856,-0.02304278,0.023610566,0.015585941,-0.021772258,0.0061185174,0.026341341,-0.050691422,0.07240922,0.0048037833,0.039782733,-0.00049049576,0.011488688,-0.055915147,0.014651675,0.052461192,0.010408998,0.032368124,0.03871148,0.037999325,0.008463377,0.023044733,-0.016103525,-0.04749589,0.051539302,0.08462912,-0.07074909,0.012598196,0.0077201533,0.057404965,-0.021031344,-0.026707482,0.013496725,0.100119814,-0.026416317,0.028682338,0.0015915274,0.07129174,0.0045503727,-0.008581078,0.011442532,-0.046380296,-0.02005446,0.05230146,0.0048266537,-0.029349314,-0.0535138,0.021047423,0.042069495,0.021361088,-0.022781402,-0.02326092,-0.005228495,-0.054660704,0.03731997,0.012207097,-0.009638431,0.0387977,0.019380217,0.019571546,-0.03588769,-0.00708335,-0.024071539,-0.044165634,-0.011827111,0.0098921005,0.02324685,-0.03840301,-0.0136337755,0.026580114,-0.009748691,-0.0001224191,0.03041025,0.0039774966,-0.06682195,-0.03430872,0.00026199734,-0.030299032,0.005483298,0.046185855,0.007904191,0.0033803142,0.03653868,0.011088653,-0.10449241,-0.040173586,-0.008367722,-0.03574637,0.020006249,0.03513702,0.042575635,0.04076196,0.031516865,0.015376045,-0.008347486,-0.09446187,0.066041045,-0.016692933,-0.021714682,0.10482972,-0.019913616,-0.02042524,-0.009449348,0.010873778,-0.022280611,-0.02648109,0.049161486,-0.0433982,0.076518856,-0.025969172,-0.02115444,-0.018155703,0.043625847,0.05007016,0.0040959283,0.020714682,0.01671102,-0.0049866466,0.017928427,-0.03979054,0.006359307,0.08912678,0.020381358,0.07881515,-0.02420494,0.017955033,-0.026399711,0.028194115,-0.027549218,0.047727905,0.016701242,-0.072863914,0.021648064,-0.002902832,-0.005339677,-0.020776005,-0.05395523,0.025360353,-0.04354162,0.04120067,-0.006457487,-0.016908059,0.05079913,0.026788417,0.005227712,0.0095434,-0.0046766424,0.025385626,-0.042848125,0.04563201,0.055767257,-0.05179629,-0.0489816,-0.0068878494,0.095534906,0.0198497,0.00084465026,0.025253896,0.06197003,0.10133089,0.0063219024,0.01761986,0.041072518,0.082116224,0.055262126,0.034461793,-0.050062355,-0.018363802,-0.01799119,-0.027248684,0.034179516,-0.0534842,-0.0028961126,-0.101609595,-0.033233263,0.1312859,-0.02341348,0.006865934,0.0056356103,0.05735651,-0.022496525,-0.027531479,-0.0200463,-0.018740624,0.00551185,-0.010855714,-0.009392834,-0.024164218,0.036980942,0.008933087,-0.017523637,-0.030831521,-0.02235295,0.052108858,-0.11084446,-0.0478412,0.0473419,-0.018106086,0.03409292,0.07584067,0.009686782,0.061236568,-0.03595047,0.0017324988,0.0036236942,0.0028437611,-0.066589154,-0.022636026,0.009679281,-0.058848426,-0.0039898097,-0.00033097574,-0.032973766,-0.022050044,-0.0035643284,0.06899053,-0.012866395,-0.008871343,0.026155716,0.02310175,0.038228076,-0.07440928,0.041081294,0.0062048975,-0.08935785,0.0043148035,0.07557981,-0.05819549,0.02562266,0.02182997,-0.03054929,-0.03143987,-0.019241981,-0.042939853,-0.01078113,-0.06129372,-0.020685779,0.01915463,0.09586534,-0.020879429,-0.047636896,-0.011337473,-0.045100354,0.06293244,-0.033023026,-0.0797758,0.0037255897,-0.0026627784,0.08252676,-0.0039876834,0.013691644,0.05631215,-0.042682234,0.062248733,0.015049196,0.027712421,0.025840111,0.05006085,0.08633355,-0.042188197,-0.039513443,0.017179757,0.044744644,0.039040506,-0.033394884,-0.023409491,0.04040018,0.050041042,0.010922076,-0.04503658,0.029367678,-0.08570772,0.025095403,0.009996901,-0.06823851,0.015681313,-0.0869975,-0.03232582,-0.009483212,0.050956324,-0.08053838,-0.021713957,-0.013198441,0.09652507,0.039749686,0.035594467,0.036569253,-0.06609796,-0.0042670555,0.0074619646,0.030632148,-0.006370699,-0.019341841,-0.020571029,-0.087101385,0.055230297,0.021848291,-0.014570399,0.0054440745,-0.028901922,-0.09246723,0.06371114,-0.002909473,0.088204704,0.02138913,0.023556538,0.036182813,-0.050489195,0.057329327,-0.051973727,-0.056027196,-0.054685615,0.009174759,0.0017085464,0.018255632,-0.040509973,-0.015043983,0.01542372,-0.018095208,-0.056811374,-0.049679276,-0.0006594445,0.005989335,-0.022375703,-0.009878566,0.024324568,-0.033783015,-0.027341245,-0.026699943,-0.010244958,0.060391467,0.00085048296,0.0735642,-0.048201736,0.06914923,0.0006927083,0.059888165,-0.033313356,-0.037412643,0.060623996,0.008044459,0.052314065,-0.07607394,-0.043486003,0.0075476645,0.069284685,-0.030023266,-0.03854758,-0.034539636,0.038590074,-0.01843144,-0.0053548664,0.00079114997,0.020671928,0.022967035,0.022912292,-0.024159819,0.015121792,-0.039541837,0.0010076155,0.052815903,0.009414625,-0.024563106,-0.10508369,-0.008722311,0.0026809599,0.022044599,-0.0017021056,-0.04396977,-0.048410054,0.083139375,0.010966348,0.031548508,-0.014886669,-0.02809604,-0.024244519,-0.011209874,-0.07782177,-0.016427701,0.026660122,-0.020080084,0.09462648,0.031283665,-0.00919725,0.026259279,0.030049566,0.0022757722,0.08929652,0.017343078,0.04356492,-0.031029454,0.0015921323,-0.004897698,-0.004049998,-0.0092290575,-0.031245075,0.03916391,-0.034080334,0.00017182552,-0.007857371,0.02490039,0.014861616,0.011008948,0.024609884,-0.030747037,-0.016844613,0.0095386505,0.054845836,-0.05820232,-0.04729268,-0.034699168,0.05381741,-0.012979652,0.06681624,0.07109378,-0.04988374,0.035757784,0.07364908,-0.018180588,-0.04999403,0.018593224,-0.061912943,-0.06361941,0.034628823,0.029504662,0.014455881,-0.0665648,0.023933519,0.044202916,0.011541941,0.018657865,0.013065776,-0.08072079,0.0082001565,-0.009567757,0.0024139471,0.040406007,0.010763215,0.08652523,-0.020249916,-0.068555005,0.00854442,-0.04948919,0.011675797,-0.035397436,-0.035449073,-0.051899705,-0.05716213,-0.0044558523,-0.010672051,0.024649406,-0.011899852,-0.0025834076,0.022396367,-0.023751529,0.04169981,0.043284494,-0.047562387,0.06255604,0.02583938,-0.02441928,-0.027700135,-0.048422873,-0.058279227,-0.04458494,0.01582249,-0.0028570874,0.025463792,-0.022987198,-0.06463172,-0.015185939,-0.043344636,0.020251138,0.03447945,0.0021139183,0.0014618965,-0.010849492,0.05615108,-0.055176735,-0.01267135,-0.021808324,-0.04439299,-0.012559287,0.038820494,0.053975407,-0.040269066,0.056030855,0.04210764,-0.024161031,-0.01588932,0.020347357,0.017858334,0.016228503,0.03346297,0.06591616,0.08390491,0.009546614,0.09329652,0.0022104273,0.028560743,-0.010462148,-0.018021418,-0.0181301,0.115651846,0.004873535
TEST_011,-0.030111775,0.0022179852,0.0066802152,-0.0248163,0.04984766,-0.009880626,0.039152406,0.020571679,0.054147534,-0.013363758,0.023139343,0.08370947,0.0831084,-0.05389447,-0.037688456,0.022069618,-0.0010018802,0.04471414,-0.09197485,0.018232604,0.0032165712,-0.060390987,-0.03961909,-0.026255917,0.044445932,0.029364679,0.046532165,-0.052474596,-0.070493035,-0.01882725,-0.0236775,-0.0012922722,-0.009319961,0.018277917,-0.05584357,0.012801319,-0.0053239884,-0.02472153,-0.03894677,-0.0024519667,-0.08437824,0.018826371,0.051445886,0.042345677,0.048891053,0.035492457,0.015332192,0.028291278,-0.013758234,-0.037088186,0.019415986,0.0065378444,0.031327453,0.041618362,0.019921225,-0.0036475488,-0.045955393,-0.01216796,0.024227511,-0.0027045326,0.03385734,0.0020359596,0.06009436,0.035071168,0.013047029,0.028108055,-0.02493158,-0.070357025,-0.032380123,-0.017965518,-0.122168645,0.003015595,-0.013195008,0.05146417,-0.053386085,0.053175073,0.02538462,0.056897484,0.022490835,0.073656335,0.01614844,-0.10482366,0.10058852,-0.01868935,-0.016220944,0.04694046,-0.050305843,-0.0030599537,-0.019906076,0.055560987,0.018778253,-0.013450016,0.037967764,-0.025484988,-0.019713225,0.035545006,-0.011308671,-0.048570268,-0.032089554,0.030770997,-0.0053691077,0.047536246,-0.064928204,0.012941061,0.07524566,0.035630476,0.121280015,-0.038981892,0.02644428,-0.021510266,0.002045649,-0.045991927,0.08669907,0.027312357,-0.028811928,-0.060648907,-0.014446439,-0.042698238,0.0290461,0.02368553,0.017410915,0.014469905,0.013684138,0.014369534,-0.012369922,-0.008910476,-0.07593423,-0.003339487,0.011050211,0.037582166,-0.036587592,0.003883674,0.010247388,-0.07536639,-0.011840947,-0.031840686,0.00649073,0.011958078,0.057891157,0.016491277,-0.06605214,-0.02619891,-0.0037630247,0.0041369456,0.012135329,0.067549735,0.017433865,-0.0014433912,0.06849745,0.049388666,0.051824633,0.01625549,0.04047076,-0.022100933,-0.017102681,0.010545241,-0.078707814,0.0312649,-0.030887304,-0.008401809,-0.014684193,-0.004186835,-0.043861605,-0.024419319,-0.005377357,-0.039092094,0.011654186,-0.03782251,-0.038498566,0.010630898,0.05174681,0.021827018,0.05651157,-0.03583527,0.032600913,-0.034858,-0.025690356,0.0034014685,-0.012566231,0.026874168,-0.014068254,-0.056676615,0.079336576,0.015435849,0.003730394,0.08509075,0.03589121,-0.04404449,0.047202144,-0.028745366,-0.016788222,0.008467314,-0.03803379,0.0036178152,-0.03528691,0.019312933,0.06822666,0.014481816,0.022098288,-0.022136085,-0.01942646,-0.030211825,0.0194675,0.039361447,0.023846267,0.031414643,-0.039066978,0.027135065,0.05226843,0.025800386,-0.010983014,-0.01737,-0.02574468,-0.03957086,-0.0038227318,0.015073358,0.01720259,-0.016550748,0.050562005,-0.01809065,0.010346748,0.00072848157,0.011709256,-0.02514092,-0.042175353,-0.057561345,-0.012052479,-0.0125465905,-0.09479902,-0.012543723,0.0032122007,0.01279938,-0.0034714513,-0.009421957,0.004670159,0.04297403,-0.059085727,-0.0006649726,-0.05960383,0.092209905,-0.04086295,-0.051751092,-0.0502834,0.0089651495,0.06293045,-0.037978526,0.0023927935,-0.047637254,0.004774735,-0.05600263,-0.071954876,0.008122347,0.028534967,-0.00061048375,0.007220658,0.004525018,-0.0044475696,-0.016167838,0.017410567,0.020452784,0.052230127,-0.0071800738,-0.00530709,-0.0036113563,-0.00060623797,-0.03633112,-0.03440977,0.0004470036,-0.037605636,-0.028434163,0.068298206,0.04424882,0.0021671879,0.09448919,-0.06305753,-0.03551973,0.031163068,-0.042793248,0.026859531,-0.01886457,0.062961906,-0.06954404,0.044026975,-0.011347895,-0.058890637,-0.041011434,0.018159177,-0.05264083,-0.0486162,-0.027912555,0.028225636,-0.04210684,0.0386092,0.092270404,-0.046361793,-0.0336378,-0.069239564,-0.07899766,0.057802487,-0.010058569,-0.02301149,0.004707379,-0.059340432,0.0004967595,-0.016794119,0.19161595,0.02973029,-0.004988409,-0.006269714,0.088928804,-0.010531146,-0.06964545,-0.04003157,0.047013402,-0.019615958,0.052294053,0.045621943,-0.07174693,-0.047723908,0.021908516,0.0320589,0.052554134,-0.0013780888,-0.022433253,-0.014682966,0.05198765,0.03870941,-0.0036681315,0.042490553,0.0145590985,-0.0060352013,0.027557505,-0.035249036,-0.067912914,0.025735572,-0.0060435506,0.02463529,-0.058481585,-0.08686988,0.013813776,-0.09023351,0.0379951,-0.021875368,0.021977013,-0.00598912,0.004590471,0.056697756,0.026365131,-0.007248583,-0.028336305,0.015903348,0.063847326,0.08271731,0.05527203,-0.028246256,0.027349152,0.01512317,0.010619459,0.07308251,0.028512985,0.038890183,-0.048527934,-0.025320405,-0.0014189093,0.0059965244,0.046598196,-0.024980849,0.037463617,0.047739044,-0.024892827,-0.08921,0.007438742,-0.03236838,-0.020649325,-0.0143142035,-0.053227272,-0.10249928,0.04238383,0.052970644,-0.030564295,0.06379877,-0.013016812,0.0013643684,0.038462773,0.03052187,-0.04643679,0.018148875,-0.0014953054,-0.014260951,0.045105025,-0.0014341644,0.04824407,0.0550407,0.0069535947,0.011247773,0.047149338,0.0057254545,0.005167891,0.032915656,-0.047645915,0.0493959,-0.039096855,-0.026987405,-0.056918893,-0.0044923495,0.021932375,0.012645643,-0.06511332,-0.02143955,-0.002838056,-0.009787382,0.050698552,-0.09094459,0.010475946,0.008383557,0.033244412,-0.03911334,-0.034750864,0.015304857,-0.010391656,-0.05087762,-0.012107617,-0.028083537,0.014293434,-0.022392344,0.03507328,-0.04749963,-0.052724414,-0.0461632,-0.016840868,-0.029973542,-0.028776888,0.011947872,0.028441116,0.015591575,-0.004082419,0.058615845,-0.014744621,-0.0056098616,-0.026766518,-0.033078898,-0.06548809,-0.023972971,0.046871614,-0.059234366,0.0021462268,0.02720844,-0.035681874,-0.013982913,-0.03437899,0.0034623395,-0.027454536,-0.00034563057,0.0015874176,-0.032159515,-0.011800919,0.08007903,-0.031144282,-0.010581277,0.053771578,0.0049796035,0.005915897,0.012591277,0.07302907,-0.059866477,0.007944636,-0.0416791,0.019459827,-0.032968078,-0.0021955317,0.008619762,0.059713315,0.00062141026,0.0585686,-0.058290478,0.003054985,-0.020362625,-0.061465424,0.03946851,0.015289721,-0.050008968,0.009864355,-0.041551802,-0.0078042657,-0.006330796,0.02914974,-0.009773695,0.062365513,0.012655699,-0.010569828,-0.009534166,-0.023924258,-0.007990025,-0.013171101,0.024859114,0.029809004,0.0010295032,0.027733775,0.03993473,-0.04669774,-0.032039594,-0.025591606,-0.044233486,0.043020833,0.070571475,-0.0015851023,0.005584515,-0.052453708,-0.069134496,-0.034271456,-0.06133746,0.0143736545
TEST_012,0.005604966,-0.007335541,-0.03721106,-0.033289414,-0.044597693,0.004606085,-0.06793658,-0.023391945,0.02362786,-0.051407456,-0.055622134,0.027376471,0.022304893,0.052453022,0.064865746,-0.008022328,0.033211946,0.0046640383,-0.026955359,0.014325163,-0.0077920025,0.0783193,0.0041857017,0.040185146,0.046674836,0.0559811,0.07117341,-0.0014122233,0.044933606,-0.048785806,-0.0008802567,-0.06410605,0.035636414,-0.06371143,-0.031531464,-0.045149304,0.0068456894,-0.0069006328,0.0010142891,0.0072421343,-0.011142819,-0.0043184464,-0.061607625,-0.0075340923,-0.0011599134,-0.034531973,-0.006656263,0.01663945,0.012221166,-0.0061884457,-0.026954368,-0.035406962,-0.05355765,0.019429125,0.0067185103,0.01638762,-0.010746188,0.04183534,-0.027222604,0.075676754,0.013859304,-0.031459685,0.0103593115,0.0030149492,-0.03359368,0.08112268,0.020900976,-0.014693834,0.013255042,-0.0058023105,0.016121145,-0.011989871,-0.0031901333,-0.00072939123,0.0015163976,0.0046093455,0.034768745,0.06242715,0.0012012207,-0.021707224,0.01849652,-0.04403122,-0.12917556,0.053303253,-0.015080137,-0.029485842,0.053579647,0.06009336,-0.048965227,-0.03893299,-0.00417818,0.0118179815,-0.20232424,0.029605582,-0.05158488,0.13221903,-0.05223914,-0.010469351,-0.050923593,0.046626892,-0.00025045127,0.0066693258,0.023506396,0.026525717,-0.007686968,-0.024183866,-0.0053048274,0.07431756,-0.04162067,-0.02891811,-0.045404494,0.1478937,0.012091352,0.05345745,0.06860932,-0.031482697,0.04367092,-0.018414665,0.03471121,0.008971261,-0.02076359,-0.03472971,0.00019592233,0.004418483,-0.004696938,0.0361312,0.0024450067,-0.019846536,-0.012515092,0.034708478,0.04334121,0.047844995,-0.030212045,-0.025068456,0.04175698,0.042406306,0.04238065,-0.00033410918,-0.06348965,-0.010898052,0.05042126,0.033810742,0.003762328,0.08994656,-0.02756924,-0.00693516,0.009449636,-0.05668606,0.056316555,-0.01815083,0.003989497,0.0283527,0.007887556,-0.042910878,0.0074103917,0.036930382,-0.034668714,0.03848185,0.028732108,0.037888,-0.002623465,-0.08137661,-0.05468678,-0.018178677,0.004251612,0.046781827,0.004114625,-0.06508317,0.022127928,0.016159123,-0.06402789,0.12539041,-0.019637808,0.03323934,-0.019495767,-0.0036730713,-0.007977242,-0.0020762035,0.010395503,0.028023817,-0.015968543,0.006004051,0.020706758,-0.010799128,-0.016962864,0.017827818,-0.025701685,-0.07045208,-0.009722756,-0.073517576,0.004432842,-0.07317106,0.030386357,0.027775519,-0.016122773,0.012456729,-0.04697468,-0.017650839,-0.003298063,0.046740558,0.053842805,-0.11875715,-0.010732957,-0.06856886,0.023618799,-0.0018683724,-0.048951343,-0.08145971,0.00309368,-0.0121658575,-0.009707873,-0.025540674,0.032422844,0.02920917,-0.00974565,0.03714673,0.0025577936,0.01953454,0.058374085,0.05222159,0.01435579,0.06702426,0.058295947,0.011107008,0.014591554,0.03271072,-0.021677596,-0.036064126,0.03623124,-0.021912718,-0.0048326757,0.032147523,-0.016735014,-0.006395576,-0.014019676,-0.043158196,-0.03699098,-0.023538316,0.035133846,0.04796636,0.04258339,-0.07106694,-0.031182673,0.047755864,0.023505442,-0.022181729,0.0058153714,-0.06829791,-0.03431857,0.054040927,0.035934225,-0.031939443,-0.0028758831,-0.0701905,-0.01295377,0.027540106,-0.054004833,0.01058535,-0.013751081,0.01174798,0.010871766,0.037024673,0.06259107,0.025440874,0.028675767,0.075449616,0.022241252,-0.0017301786,0.04893178,-0.016380683,-0.013160404,0.017852789,0.015725382,0.0041456646,0.029968837,0.0082379095,-0.021190373,0.049633548,0.0050334497,0.07578953,-0.05166393,-0.058592077,-0.002691032,-0.053722523,-0.015496366,-0.055314533,-0.06017386,0.01683856,-0.010286062,-0.0062720105,0.015742138,-0.076543316,-0.0037926673,-0.022023145,0.02964218,0.013188048,0.045945425,0.027531035,-0.039689105,0.022393335,0.06723891,0.01571963,-0.012416857,-0.0055266,-0.010694534,-0.00039133264,0.010750381,0.046283215,-0.026210444,0.063015796,-0.032125577,0.014659541,0.016265363,-0.10902321,0.083165355,-0.013200695,0.021017384,0.049973294,0.010555939,-0.01109471,0.020701855,-0.05573918,0.08989731,0.039338578,0.0006271643,0.02075637,-0.030501166,0.078487374,0.08497107,-0.0020094768,0.003967027,0.06815227,0.022678748,0.0151553145,-0.019460915,-0.040032618,0.0030402355,-0.010186503,0.032516565,-0.008681541,-0.051418293,-0.028059328,-0.029179614,0.053953353,0.010293433,-0.016022203,-0.02801963,0.051068287,0.027569761,-0.0061341603,-0.05223475,0.046607547,-0.06634199,-0.032172676,-0.06134158,0.018766034,-0.09570507,0.025428224,-0.09117628,-0.04229645,-0.034578763,-0.014296773,-0.06815042,-0.004536434,0.052883983,0.0017289968,0.035712037,0.033191584,0.008102603,0.02013228,0.010626918,0.041209936,0.020352088,0.017308844,-0.038105488,-0.029980557,0.027632587,0.0738947,-0.020728458,-0.03732267,-0.016220752,0.020859819,0.037204597,0.015055638,0.03962681,-0.016217645,0.015134796,0.0021636512,0.029634563,-0.037033044,-0.01010669,0.018632673,-0.020381782,0.013429864,-0.02302238,0.01875746,0.029228104,-0.027101772,0.002866638,-0.00751491,0.0140246935,-0.016229311,-0.051099062,0.016436199,0.022880333,0.0023770567,-0.014876919,-0.010170538,-0.014853778,0.05441134,0.07687697,-0.009754359,0.01937136,-0.04336972,0.009345858,0.070635185,0.024875417,0.018088598,0.079249196,-0.01233775,-0.0066810893,-0.047294598,0.0018160235,0.014781642,-0.016984515,-0.033645753,-0.08208362,-0.019735008,-0.022485485,0.03512924,-0.0128746135,0.06286647,0.033391908,0.012694679,-0.00421721,0.038168054,0.0042367536,-0.02557987,0.040434264,0.00034380762,0.059945423,-0.17428629,-0.016734866,-0.05343161,0.04005482,0.017452067,-0.05591528,0.04661296,0.0045936494,0.013073365,-0.018773835,0.031057106,-0.004087441,0.0014103185,-0.0075281034,-0.0020040334,-0.010273714,-0.040503196,0.006418299,0.03735349,-0.048076615,0.022813825,0.058162488,-0.017210124,-0.0005503466,-0.04014829,-0.03146253,-0.0026579911,2.2064894e-05,0.04068151,0.016430352,-0.024136852,-0.057018,0.028862722,0.018858157,-0.0041771038,0.024018545,0.011190259,-0.020935506,0.027119203,-0.008079491,-0.0522227,0.12014331,-0.015516313,0.0105570825,0.006616769,-0.04184293,0.0686256,0.015067665,0.03244895,0.053984173,0.031852838,0.03256445,0.017525757,0.020412581,-0.070621595,0.029190267,-0.013055388,-0.030294426,-0.077443756,-0.0035977443,-0.03391301,0.03930125,0.028726585,-0.02123747,0.00083058496,-0.085941456,-0.108890034,-0.0017421358,-0.030631665,0.048483104,-0.03754438
TEST_013,-0.05056648,0.024202187,0.002566478,0.019307714,0.08092187,-0.032311242,0.04700784,-0.05650223,-0.046432912,0.04804734,-0.030837161,-0.019163148,0.025899488,-0.096056774,-0.014598028,-0.0007464882,0.053675693,-0.05085595,0.053936325,-0.011342586,0.020078044,-0.014616024,-0.072279334,0.034460794,-0.0015577056,-0.0112685505,-0.012857962,0.03438833,-0.07523457,-0.047345914,-0.008625218,0.003041291,0.031027583,0.026198013,0.08228921,0.0029249731,-0.044257957,0.043951344,0.01895652,0.014768195,0.046011303,0.0050818,0.018264292,0.08983001,0.041765742,0.033427827,0.038287356,-0.04817819,-0.03930251,-0.0077617606,0.046377953,-0.075187735,0.10020197,-0.026619503,0.068200976,-0.01578223,-0.04092492,-0.01254948,0.010265559,0.07651596,-0.017137246,-0.008012696,0.05799201,-0.01225155,-0.04246056,0.011504356,-0.01992609,0.029193887,-0.008730666,0.045579627,0.0017680281,-0.03933253,-0.0023600657,-0.02444652,-0.114106804,0.0002520919,0.06464342,-0.03837454,-0.02789093,0.018754145,-0.052924074,-0.09483679,0.07947704,-0.01976224,0.06453439,0.06526064,0.03346084,0.016481224,-0.004741574,-0.03502733,-0.05552221,0.0020374274,0.044631507,0.010570755,-0.003996631,0.0109689385,-0.0015629524,-0.04750133,0.004907994,-0.018982768,0.006591761,-0.002088235,-0.03856584,0.06297118,-0.01799304,-0.03785235,0.053065863,-0.004483814,-0.078189425,0.04898234,0.005486399,-0.039003357,-0.03891316,-0.029123517,-0.0147640165,0.053712156,-0.036505956,0.06864527,0.0114236,0.038435638,0.020622535,0.10396686,-0.09307831,-0.047425315,0.0068115634,0.06154864,0.02465443,-0.06784812,-0.024264544,0.022161625,-0.031013498,0.049596857,0.018562017,-0.016158944,0.01977931,0.0664023,0.07049747,-0.007936665,0.05521668,0.030184753,0.0016805262,-0.055027656,-0.07211007,-0.0649852,-0.030217247,-0.0076620784,-0.034222074,0.07908994,-0.0074564083,-0.00026086398,0.051113266,0.04945663,-0.013871285,-0.016051628,0.084148325,0.0049948744,-0.0039709983,-0.031272046,0.038939252,0.0010029521,0.0382321,0.011149274,0.0053736446,-0.029065358,0.0140691595,0.049945068,0.014953225,-0.0012927614,-0.0093292445,0.066419095,0.030778024,0.04159511,0.048214678,-0.02521613,-0.01125935,-0.007498782,0.0033468124,-0.0061816853,0.025188876,0.033760205,0.038355123,-0.07041747,0.07626205,0.07483554,-0.061468244,0.02309644,0.0035546701,0.0134716835,-0.00597007,-0.026161503,0.0021181214,-0.05395229,-0.012299363,-0.0029359655,-0.0062195235,-0.031249482,0.023126379,-0.00074979785,-0.022364656,-0.04421577,0.04014256,0.06745165,-0.06023504,-0.008077165,0.063580535,0.071810305,-0.085174344,-0.019808682,0.023859242,0.047831528,-0.0056268563,0.024228632,-0.098837085,-0.013941638,-0.007746323,0.0009355825,0.04134008,0.004452651,-0.061159484,-0.03991218,0.045656856,-0.018509487,0.019874185,-0.030865567,-0.00016099261,-0.0433206,-0.05142747,-0.045353644,0.007692514,-0.03095845,0.019758806,-0.0065658703,-0.0065164967,-0.010939852,0.034195594,0.09321043,-0.03167459,0.024324328,0.010493142,0.063629456,-0.045695767,0.027893143,0.06404911,0.023734277,-0.029771334,0.018302225,-0.02723801,0.020775622,-0.03290895,-0.009680922,0.0035306998,0.019037567,0.022199338,-0.02422703,-0.031778287,-0.010559494,0.023076566,0.017092884,0.000982985,-0.013860801,-0.040165473,-0.024831867,0.0016624996,-0.0007608395,-0.018383307,0.027951788,0.014543844,-0.033884928,-0.02787258,0.041210037,-0.042786792,0.030246565,0.006959018,0.021757707,-0.019467663,-0.04420027,0.030889327,0.075425334,0.054252952,-0.08658567,0.03265934,0.004666721,0.014363837,-0.028215738,-0.0053585395,-0.0078115994,-0.0049756966,-0.054638546,-0.064362206,-0.023750229,-0.007972515,0.021959614,-0.0020693706,0.045839626,-0.058060374,0.037623353,-0.016689032,-0.06508249,-0.019913884,-0.021751048,0.006550575,-0.0055482406,0.031086314,0.035161536,0.0058516557,-0.02964789,0.06274243,0.016051583,0.0018048154,0.013269818,-0.0060197944,0.020401785,0.0057828403,0.044214766,0.020013498,-0.024152603,-0.01828393,0.052094705,-0.009367941,0.025788156,-0.022763608,0.034975316,-0.058741797,0.005191127,-0.030364087,0.0038139874,0.012826657,-0.023588046,-0.028888566,0.00081276754,-0.023653492,-0.027080148,0.020682028,-0.052970655,-0.030787414,-0.02488451,0.000618967,0.074914396,0.023445517,0.048390947,-0.0147755295,-0.08972088,-0.020509008,0.048147492,-0.07854111,0.041536693,0.027705729,-0.013435906,-0.0381193,-0.0152130155,0.027964741,0.006700481,-0.041415263,-0.02643584,0.023717199,0.0065493234,-0.06904956,0.0002946339,0.03647913,-0.027849657,0.04074679,-0.028184,-0.008828869,-0.09257213,0.051157437,-0.00022298004,0.030279065,0.06571467,-0.032765996,0.020121204,-0.038268544,-0.01703306,-0.031459432,-0.0022367486,-0.008150923,-0.0040754704,0.01401949,0.033084832,0.051139347,-0.058984693,0.03489284,0.0039716857,0.02360601,0.06250459,-0.028243093,0.042976927,0.03248226,0.010418724,0.0122108925,-0.03163601,0.016676972,0.051710367,0.05199132,-0.010370979,-0.0048818165,-0.008659068,0.09289727,0.009044983,0.048990168,-0.013083798,0.05949415,0.0072017773,0.014755599,-0.039357606,0.05720387,0.030762047,0.044820607,0.017027803,0.023161376,0.0872515,-0.004233796,0.005063274,0.013201941,-0.004718344,-0.08385344,0.013225764,0.0060990304,0.019701673,0.08846298,-0.025806006,-0.028809678,0.085414,-0.008777785,0.04121309,0.12544776,0.06874404,0.026397444,-0.05482435,0.09837383,-0.017438788,-0.020576213,0.021878205,-0.0014922505,0.075080045,0.037008733,0.052434914,0.083886005,-0.0065668426,-0.029714545,0.014911524,-0.1014287,-0.043192368,-0.020486293,-0.027833914,0.0020148112,0.04814115,-0.015262377,-0.059865575,0.013580849,-0.012834556,0.040422704,0.0003190101,0.024538245,-0.066387914,0.012602515,-0.028386747,0.0027655528,0.024685588,-0.03487326,-0.027669547,-0.01522916,0.06296276,-0.057689995,0.083025195,0.041012626,0.064807676,0.039339002,0.0010616217,0.07638743,0.034940325,0.034539558,0.018775543,-0.021222856,0.072826505,-0.0436234,0.026533883,0.03895849,0.01851892,0.008580904,-0.051425274,-0.008954232,-0.00088991015,0.010972182,-0.044442654,0.041436136,-0.020277355,0.07371125,0.048991073,-0.09899414,0.04824356,0.030589813,-0.0077715116,-0.024507752,0.021683976,0.096138515,-0.0043240613,0.027895324,0.036988676,0.00877223,-0.067049935,0.00017184322,0.00910795,-0.016896488,-0.036713134,0.025336603,-0.017529031,0.02661962,0.08014189,0.0372925,-0.025906142,-0.022419553,0.056146592
TEST_014,0.027812295,-0.053872112,-0.026535561,-0.052358195,0.042174842,0.025344403,0.0016264854,-0.016604645,-0.02564965,-0.044091437,-0.08849853,0.026159044,0.008071405,0.022705084,-0.004649885,-0.006058984,0.027607447,0.037843507,-0.043164648,0.0040216385,-0.03076913,0.045523625,-0.07849519,-0.039247558,0.020584544,0.008918376,0.028731817,0.042850874,0.0028264234,0.011947528,-0.10223292,0.09992397,-0.023695769,-0.07210108,0.022992253,-0.0011314083,-0.03484952,-0.037198987,0.05552155,-7.512979e-05,-0.024973985,0.020344928,0.015644593,0.019643754,0.007605887,-0.018398462,0.016498828,-0.055288624,-0.06197975,-0.019039849,0.028830033,-0.038056858,0.03494692,0.021878393,-0.046565883,0.005622072,0.026112802,-0.024059134,0.005129415,-0.03813492,0.033289053,-0.062031288,0.072630845,-0.05054308,-0.03232954,0.06894525,0.0074807126,0.026708797,0.045248117,-0.010320801,0.11771578,0.026687773,0.050366297,-0.04944045,0.07632688,0.016484011,-0.09414163,0.01328274,0.046247944,-0.0023865688,0.07092338,-0.09510925,-0.01850214,-0.023074841,0.07904507,-0.018177016,0.026792897,0.02725699,0.006914149,0.055963144,0.008107962,0.015168544,-0.0031721862,0.055823956,0.015123676,-0.05247296,0.009430111,-0.006667371,-0.10833344,0.022992454,-0.00045268607,-0.021761147,-0.016890986,0.06825584,-0.024249457,-0.011238176,-0.033022642,0.01207136,-0.00759775,0.0025197368,0.003958623,0.026234098,-0.017458536,-0.042070076,0.066760555,-0.0022040925,0.06654752,-0.04040977,0.07772152,0.010624542,-0.022263855,-0.035090845,0.05796495,0.027281934,-0.009961849,0.031676583,-0.015927583,-0.027810207,0.046700127,0.026336227,-0.0018730435,-0.021719141,-0.0026539476,-0.068159774,0.06491385,0.033222575,-0.014579668,-0.016167656,-0.0186022,-0.0026970683,0.044230275,-0.06105378,-0.053056423,-0.01090106,-0.12839852,0.01439371,0.043214805,0.089362,-0.0051282044,0.016265688,0.004450317,-0.093685634,0.012967423,-0.008526998,0.0290726,-0.058541965,-0.058013186,0.0031335165,0.049572267,0.0020786424,0.063157775,-0.089868896,-0.0523523,-0.016046615,-0.018427338,-0.07514328,0.014437239,-0.06097469,0.0048933574,0.061827615,-0.05749369,0.1342705,-0.116038516,-0.01403604,-0.010925451,-0.096155986,-0.07274227,-0.03994197,0.0017408483,0.020890895,0.062169295,0.009943498,0.07619137,-0.03298986,-0.0063276235,0.02376536,-0.07263318,0.023611374,-0.00760163,-0.038108703,0.03588502,0.013228103,-0.10607647,-0.03193739,-0.0021175458,-0.014775153,-0.005869467,0.047068126,-0.09089829,0.0009536631,0.008061448,-0.020423733,-0.04822445,0.013667613,0.04368136,-0.020663304,-0.016351022,0.0073015317,-0.051739495,-0.042465057,-0.0022451405,0.058443557,0.047256347,-0.07642586,-0.052284725,-0.02113663,0.03447376,-0.019802492,0.04012881,-0.01712069,0.06229884,-0.048360012,0.01841136,-0.012540774,-0.048337854,0.014909236,-0.0031712619,-0.02521305,-0.012057345,0.06049318,-0.05003255,0.027042199,-0.005061136,0.011700839,0.00070963183,0.054069895,-0.053849947,0.068941355,0.018341951,0.07500398,-0.073738545,-0.124837056,0.021306109,-0.017415134,-0.04673095,-0.010162414,0.0342568,-0.0049539288,0.036224928,0.067009635,0.050268658,0.010421601,0.05849165,-0.01791284,0.0033823452,-0.035190344,0.035424314,0.033731252,-0.045995325,-0.007779916,-0.012463329,0.02977436,-0.045318887,0.036093358,-0.008588581,0.00091426796,0.017326498,-0.008252991,-0.024999572,-0.03682899,0.033765115,-0.0037810935,0.02783251,0.013868627,0.06150283,0.00036086977,-0.010482702,-0.024567958,0.012018318,-0.014087782,-0.019984141,-0.003576865,0.023886796,-0.0061603407,0.0030687551,0.0055763046,-0.001648222,0.029625313,0.018473037,0.013000155,0.004568891,0.011109055,-0.009929369,0.040222537,0.032861248,-0.018225294,-0.06844298,0.013025491,0.035484433,0.032236155,0.07159137,-0.045507394,0.048564244,-0.039109502,-0.02489479,0.014712425,0.03969322,0.006768938,-0.005010959,0.05057498,-0.018243086,0.07183945,0.005919244,0.06328623,0.05906212,-0.009457157,-0.06421776,-0.017978795,0.0638803,-0.03394525,0.029348342,0.049760517,-0.005599586,-0.0053592995,-0.0324709,0.02428749,0.00021364004,-0.010597816,0.0056143324,0.05644362,-0.02570965,-0.032599103,0.007545558,-0.044195116,-0.031513732,0.005824594,-0.004267656,-0.027422028,0.03435185,-0.0019727799,0.017425338,0.026609551,-0.021369858,0.039791342,-0.06670618,0.049282156,0.057751585,0.01573369,0.0142081585,-0.067464076,-0.040411197,0.031437505,0.026716359,-0.060171075,-0.0020979645,0.05400989,-0.027070109,0.0107179,0.035248347,-0.012618901,-0.014570719,-0.034030184,-0.050471466,-0.0037884878,-0.015823696,-0.0056837243,-0.043703984,0.012301674,-0.01971423,0.03919124,0.042552445,0.025443185,0.02774022,0.03621949,-0.040553845,-0.035107713,-0.06561342,-0.0012972939,0.07242406,0.016091432,-0.0050271265,0.05127017,0.08197883,-0.032303117,-0.02417012,0.0059467223,-0.09641823,-0.0573957,-0.025355551,-0.014959925,0.02360745,-0.055386476,0.00011579646,-0.08478748,-0.03391066,-0.010737521,-0.016566012,0.008011896,0.006347785,0.010359498,-0.016612114,0.03131015,-0.034099165,-0.0763306,-0.00097083737,0.011781712,-0.0062819947,-0.023382748,-0.108390614,-0.01936512,-0.038430948,-0.025984168,-0.02990364,0.05993429,-0.0063283644,-0.00049337134,0.03807608,0.0010010247,-0.07656804,-0.0051796273,-0.01674207,0.021857359,-0.006558518,0.006867353,0.025230877,-0.0073208604,0.040843487,-0.020096904,-0.03729999,0.0075545236,-0.011355977,-0.009212556,0.046831746,-0.03612229,0.06487754,0.03917417,-0.008012552,0.01858432,0.05256385,-0.010713514,-0.025621185,0.104166664,0.029304378,0.024186792,-0.048396286,0.049852666,-0.07739722,0.056402076,0.028214587,0.04590982,-0.005197613,0.008232607,0.009710457,-0.00039878345,0.051561337,0.010890532,0.007405194,0.0035156922,0.005892076,-0.033390142,0.08965115,0.005326338,0.10511301,0.018638099,0.015087264,0.005021868,0.011975827,-0.005091504,-0.0056517306,0.023230912,-0.014139997,-0.012903373,-0.0047013974,0.024682801,0.02782914,-0.011900749,-0.027770381,0.011524509,-0.046551716,0.03992364,-0.011132883,-8.842023e-05,0.017768746,-0.036689352,-0.023828268,0.05131637,-0.06999433,0.019078322,-0.019891988,0.09584446,0.0910166,0.0077283885,-0.06362253,0.037222933,0.018892301,-0.025254946,0.0021558274,-0.022220068,0.038260292,-0.095496625,0.008698959,-0.084814236,0.013064349,-0.03276662,0.021309458,-0.00968875,-0.014089374,-0.014573893,-0.011410589,-0.048770584,0.040159125,-0.025090966
